{"learner":{"attributes":{"scikit_learn":"{\"_estimator_type\": \"regressor\"}"},"feature_names":["prcp","snow","wdir","wspd","wpgt","pres","tsun"],"feature_types":["float","float","float","float","float","float","float"],"gradient_booster":{"model":{"gbtree_model_param":{"num_parallel_tree":"1","num_trees":"50"},"iteration_indptr":[0,1,2,3,4,5,6,7,8,9,10,11,12,13,14,15,16,17,18,19,20,21,22,23,24,25,26,27,28,29,30,31,32,33,34,35,36,37,38,39,40,41,42,43,44,45,46,47,48,49,50],"tree_info":[0,0,0,0,0,0,0,0,0,0,0,0,0,0,0,0,0,0,0,0,0,0,0,0,0,0,0,0,0,0,0,0,0,0,0,0,0,0,0,0,0,0,0,0,0,0,0,0,0,0],"trees":[{"base_weights":[4.5668023E-7,-1.3567709E1,1.315538E0,-2.7306461E0,-7.92328E-1,2.0992565E0,-8.355525E0,7.4131066E-1,-3.9943692E-1,-9.472914E-1,-2.0938854E0],"categories":[],"categories_nodes":[],"categories_segments":[],"categories_sizes":[],"default_left":[0,0,0,0,0,0,0,0,0,0,0],"id":0,"left_children":[1,3,5,-1,-1,7,9,-1,-1,-1,-1],"loss_changes":[1.3529414E4,9.5410156E-1,5.254898E3,0E0,0E0,4.221288E3,3.482307E2,0E0,0E0,0E0,0E0],"parents":[2147483647,0,0,1,1,2,2,5,5,6,6],"right_children":[2,4,6,-1,-1,8,10,-1,-1,-1,-1],"split_conditions":[3.2000008E1,1.85E1,1.0271E3,-2.7306461E0,-7.92328E-1,9E0,1.0292E3,7.4131066E-1,-3.9943692E-1,-9.472914E-1,-2.0938854E0],"split_indices":[1,3,5,0,0,3,5,0,0,0,0],"split_type":[0,0,0,0,0,0,0,0,0,0,0],"sum_hessian":[7.56E2,6.6E1,6.9E2,6.5E1,1E0,6.39E2,5.1E1,4.59E2,1.8E2,2E1,3.1E1],"tree_param":{"num_deleted":"0","num_feature":"7","num_nodes":"11","size_leaf_vector":"1"}},{"base_weights":[-8.2195215E-3,-2.1813498E0,1.0485239E0,2.1044042E0,-4.258359E0,9.836244E-1,5.586456E-3,-5.0165945E-1,-1.6373669E0],"categories":[],"categories_nodes":[],"categories_segments":[],"categories_sizes":[],"default_left":[0,0,0,0,0,0,0,0,0],"id":1,"left_children":[1,-1,3,5,7,-1,-1,-1,-1],"loss_changes":[8.729766E3,0E0,3.8809336E3,3.371046E3,7.7009863E2,0E0,0E0,0E0,0E0],"parents":[2147483647,0,0,2,2,3,3,4,4],"right_children":[2,-1,4,6,8,-1,-1,-1,-1],"split_conditions":[3.2000008E1,-2.1813498E0,1.0233E3,6.4E0,1.029E3,9.836244E-1,5.586456E-3,-5.0165945E-1,-1.6373669E0],"split_indices":[1,0,5,3,5,0,0,0,0],"split_type":[0,0,0,0,0,0,0,0,0],"sum_hessian":[7.56E2,6.6E1,6.9E2,5.76E2,1.14E2,2.44E2,3.32E2,8E1,3.4E1],"tree_param":{"num_deleted":"0","num_feature":"7","num_nodes":"9","size_leaf_vector":"1"}},{"base_weights":[-1.0976199E-2,-8.7579565E0,8.37155E-1,-7.6357374E0,-2.0467854E0,2.0680325E0,-2.3042977E0,-9.1679746E-1,-1.6658249E0,-5.231829E-1,6.362886E-1,4.666499E-4,-8.9021724E-1],"categories":[],"categories_nodes":[],"categories_segments":[],"categories_sizes":[],"default_left":[0,0,0,0,0,0,0,0,0,0,0,0,0],"id":2,"left_children":[1,3,5,7,-1,9,11,-1,-1,-1,-1,-1,-1],"loss_changes":[5.6232017E3,3.2833008E1,2.676685E3,5.069336E1,0E0,2.600254E3,9.6562085E2,0E0,0E0,0E0,0E0,0E0,0E0],"parents":[2147483647,0,0,1,1,2,2,3,3,5,5,6,6],"right_children":[2,4,6,8,-1,10,12,-1,-1,-1,-1,-1,-1],"split_conditions":[3.2000008E1,1.0213E3,1.0201E3,2E0,-2.0467854E0,1.008E3,5.9E0,-9.1679746E-1,-1.6658249E0,-5.231829E-1,6.362886E-1,4.666499E-4,-8.9021724E-1],"split_indices":[1,5,5,1,0,5,3,0,0,0,0,0,0],"split_type":[0,0,0,0,0,0,0,0,0,0,0,0,0],"sum_hessian":[7.56E2,6.6E1,6.9E2,4.1E1,2.5E1,4.96E2,1.94E2,9E0,3.2E1,9.5E1,4.01E2,9.4E1,1E2],"tree_param":{"num_deleted":"0","num_feature":"7","num_nodes":"13","size_leaf_vector":"1"}},{"base_weights":[-1.5922459E-2,-7.0754604E0,6.6859996E-1,-8.311319E0,-6.0890303E0,1.7280829E0,-2.1961462E0,-1.7303652E0,-5.406639E-1,-7.8460354E-1,-1.332239E0,6.3425463E-1,-1.7012149E-1,-8.208667E-1,1.9585267E-1],"categories":[],"categories_nodes":[],"categories_segments":[],"categories_sizes":[],"default_left":[0,0,0,1,0,0,1,0,0,0,0,0,0,0,0],"id":3,"left_children":[1,3,5,7,9,11,13,-1,-1,-1,-1,-1,-1,-1,-1],"loss_changes":[3.6628665E3,3.10708E1,2.1010837E3,2.8169556E1,2.4679932E1,1.8820754E3,1.1371039E3,0E0,0E0,0E0,0E0,0E0,0E0,0E0,0E0],"parents":[2147483647,0,0,1,1,2,2,3,3,4,4,5,5,6,6],"right_children":[2,4,6,8,10,12,14,-1,-1,-1,-1,-1,-1,-1,-1],"split_conditions":[3.2000008E1,5E-1,9.1E0,3.33E1,2E0,1.0189E3,3.15E1,-1.7303652E0,-5.406639E-1,-7.8460354E-1,-1.332239E0,6.3425463E-1,-1.7012149E-1,-8.208667E-1,1.9585267E-1],"split_indices":[1,0,3,4,1,5,4,0,0,0,0,0,0,0,0],"split_type":[0,0,0,0,0,0,0,0,0,0,0,0,0,0,0],"sum_hessian":[7.56E2,6.6E1,6.9E2,2.6E1,4E1,5.04E2,1.86E2,2.4E1,2E0,1E1,3E1,3.23E2,1.81E2,1.16E2,7E1],"tree_param":{"num_deleted":"0","num_feature":"7","num_nodes":"15","size_leaf_vector":"1"}},{"base_weights":[-1.8746857E-2,-5.725859E0,5.3464717E-1,-5.15023E0,-7.3780246E0,1.9809083E0,-1.0534776E0,-7.791509E-1,-1.1584929E0,-3.4322596E-1,-1.5319731E0,-9.846967E-1,4.9277425E-1,-1.2205938E0,-6.719026E-2],"categories":[],"categories_nodes":[],"categories_segments":[],"categories_sizes":[],"default_left":[0,0,0,0,0,0,0,0,0,0,0,0,0,0,0],"id":4,"left_children":[1,3,5,7,9,11,13,-1,-1,-1,-1,-1,-1,-1,-1],"loss_changes":[2.3938806E3,2.5720703E1,1.5892054E3,2.01344E1,1.0791016E1,1.2192439E3,1.1935869E3,0E0,0E0,0E0,0E0,0E0,0E0,0E0,0E0],"parents":[2147483647,0,0,1,1,2,2,3,3,4,4,5,5,6,6],"right_children":[2,4,6,8,10,12,14,-1,-1,-1,-1,-1,-1,-1,-1],"split_conditions":[3.2000008E1,1.0255E3,7.2E0,3E0,8E-1,1.85E1,2.59E1,-7.791509E-1,-1.1584929E0,-3.4322596E-1,-1.5319731E0,-9.846967E-1,4.9277425E-1,-1.2205938E0,-6.719026E-2],"split_indices":[1,5,3,1,3,4,4,0,0,0,0,0,0,0,0],"split_type":[0,0,0,0,0,0,0,0,0,0,0,0,0,0,0],"sum_hessian":[7.56E2,6.6E1,6.9E2,5.2E1,1.4E1,3.61E2,3.29E2,2E1,3.2E1,1E0,1.3E1,2.3E1,3.38E2,4E1,2.89E2],"tree_param":{"num_deleted":"0","num_feature":"7","num_nodes":"15","size_leaf_vector":"1"}},{"base_weights":[-2.2385197E-2,6.318338E-1,-3.8761265E0,2.3064806E0,-9.7895026E-1,-1.5355412E0,-5.1401725E0,-1.1883085E0,5.242732E-1,-1.965756E-2,-6.083464E-1,1.6846482E-1,-1.0309969E0,-1.1822833E0,-5.43655E-1],"categories":[],"categories_nodes":[],"categories_segments":[],"categories_sizes":[],"default_left":[0,1,0,0,0,0,1,0,0,0,0,0,0,0,0],"id":5,"left_children":[1,3,5,7,9,11,13,-1,-1,-1,-1,-1,-1,-1,-1],"loss_changes":[1.9109905E3,1.7502344E3,3.1755408E2,8.4147864E2,6.010005E2,3.4860413E2,1.1655005E2,0E0,0E0,0E0,0E0,0E0,0E0,0E0,0E0],"parents":[2147483647,0,0,1,1,2,2,3,3,4,4,5,5,6,6],"right_children":[2,4,6,8,10,12,14,-1,-1,-1,-1,-1,-1,-1,-1],"split_conditions":[1.0243E3,1E-1,5.4E0,1.85E1,1.01E1,1.029E3,2.59E1,-1.1883085E0,5.242732E-1,-1.965756E-2,-6.083464E-1,1.6846482E-1,-1.0309969E0,-1.1822833E0,-5.43655E-1],"split_indices":[5,0,3,4,3,5,4,0,0,0,0,0,0,0,0],"split_type":[0,0,0,0,0,0,0,0,0,0,0,0,0,0,0],"sum_hessian":[7.56E2,6.47E2,1.09E2,3.17E2,3.3E2,3.9E1,7E1,1.1E1,3.06E2,2.32E2,9.8E1,2.4E1,1.5E1,5.2E1,1.8E1],"tree_param":{"num_deleted":"0","num_feature":"7","num_nodes":"15","size_leaf_vector":"1"}},{"base_weights":[-2.3034353E-2,-4.298965E0,3.9159718E-1,-5.240328E0,-3.5741901E0,7.107641E-1,-4.09913E0,-1.1113229E0,-4.0650555E-1,-8.550173E-1,-4.8821917E-1,9.131566E-1,4.9866647E-2,-5.640654E-1,-1.3107935E0],"categories":[],"categories_nodes":[],"categories_segments":[],"categories_sizes":[],"default_left":[0,0,0,1,0,0,0,0,0,0,0,0,0,0,0],"id":6,"left_children":[1,3,5,7,9,11,13,-1,-1,-1,-1,-1,-1,-1,-1],"loss_changes":[1.3437958E3,2.6982666E1,9.9331805E2,1.6099792E1,2.212555E1,1.1479824E3,1.25921326E2,0E0,0E0,0E0,0E0,0E0,0E0,0E0,0E0],"parents":[2147483647,0,0,1,1,2,2,3,3,4,4,5,5,6,6],"right_children":[2,4,6,8,10,12,14,-1,-1,-1,-1,-1,-1,-1,-1],"split_conditions":[3.2000008E1,5E-1,1.0283E3,2.96E1,1E1,3.5E0,8.3E0,-1.1113229E0,-4.0650555E-1,-8.550173E-1,-4.8821917E-1,9.131566E-1,4.9866647E-2,-5.640654E-1,-1.3107935E0],"split_indices":[1,0,5,4,3,3,3,0,0,0,0,0,0,0,0],"split_type":[0,0,0,0,0,0,0,0,0,0,0,0,0,0,0],"sum_hessian":[7.56E2,6.6E1,6.9E2,2.6E1,4E1,6.45E2,4.5E1,2.3E1,3E0,2.3E1,1.7E1,6.8E1,5.77E2,3.1E1,1.4E1],"tree_param":{"num_deleted":"0","num_feature":"7","num_nodes":"15","size_leaf_vector":"1"}},{"base_weights":[-2.3411436E-2,1.4668975E0,-9.0627635E-1,2.6246548E0,-7.3363334E-1,-2.1475964E0,8.93511E-1,-3.347556E-1,6.3705397E-1,-3.6366898E-1,3.120815E-1,-1.340238E0,-3.278344E-1,6.396493E-1,-2.6559398E-1],"categories":[],"categories_nodes":[],"categories_segments":[],"categories_sizes":[],"default_left":[0,0,1,0,1,0,0,0,0,0,0,0,0,0,0],"id":7,"left_children":[1,3,5,7,9,11,13,-1,-1,-1,-1,-1,-1,-1,-1],"loss_changes":[9.9734564E2,7.203715E2,1.0653562E3,4.5113806E2,2.4669786E2,6.4189014E2,1.00263257E3,0E0,0E0,0E0,0E0,0E0,0E0,0E0,0E0],"parents":[2147483647,0,0,1,1,2,2,3,3,4,4,5,5,6,6],"right_children":[2,4,6,8,10,12,14,-1,-1,-1,-1,-1,-1,-1,-1],"split_conditions":[5.9E0,1.0205E3,2.59E1,1.0081E3,1.85E1,2.22E1,9.9E0,-3.347556E-1,6.3705397E-1,-3.6366898E-1,3.120815E-1,-1.340238E0,-3.278344E-1,6.396493E-1,-2.6559398E-1],"split_indices":[3,5,4,5,4,4,3,0,0,0,0,0,0,0,0],"split_type":[0,0,0,0,0,0,0,0,0,0,0,0,0,0,0],"sum_hessian":[7.56E2,2.81E2,4.75E2,1.84E2,9.7E1,2.81E2,1.94E2,2.1E1,1.63E2,6.6E1,3.1E1,2.7E1,2.54E2,9.5E1,9.9E1],"tree_param":{"num_deleted":"0","num_feature":"7","num_nodes":"15","size_leaf_vector":"1"}},{"base_weights":[-2.0107506E-2,5.01999E-1,-1.9110292E0,-2.077932E0,1.1324382E0,-1.0636412E0,-4.790884E0,-5.688199E-1,2.3540352E-1,3.2360324E-1,-2.2633627E-1,-3.1350076E-2,-8.0418533E-1,-1.426536E0,-7.797834E-1],"categories":[],"categories_nodes":[],"categories_segments":[],"categories_sizes":[],"default_left":[0,0,0,1,0,0,0,0,0,0,0,0,0,0,0],"id":8,"left_children":[1,3,5,7,9,11,13,-1,-1,-1,-1,-1,-1,-1,-1],"loss_changes":[7.48317E2,9.6848773E2,3.951223E2,2.951264E2,5.273474E2,3.4265738E2,4.9476074E1,0E0,0E0,0E0,0E0,0E0,0E0,0E0,0E0],"parents":[2147483647,0,0,1,1,2,2,3,3,4,4,5,5,6,6],"right_children":[2,4,6,8,10,12,14,-1,-1,-1,-1,-1,-1,-1,-1],"split_conditions":[1.0222E3,1.008E3,1E-1,3.15E1,1.02E1,1.0304E3,3E-1,-5.688199E-1,2.3540352E-1,3.2360324E-1,-2.2633627E-1,-3.1350076E-2,-8.0418533E-1,-1.426536E0,-7.797834E-1],"split_indices":[5,5,0,4,3,5,0,0,0,0,0,0,0,0,0],"split_type":[0,0,0,0,0,0,0,0,0,0,0,0,0,0,0],"sum_hessian":[7.56E2,5.93E2,1.63E2,1.16E2,4.77E2,1.27E2,3.6E1,9.4E1,2.2E1,3.93E2,8.4E1,9.8E1,2.9E1,8E0,2.8E1],"tree_param":{"num_deleted":"0","num_feature":"7","num_nodes":"15","size_leaf_vector":"1"}},{"base_weights":[-2.0416219E-2,-2.818459E0,2.5091416E-1,-9.101351E-1,-3.025928E0,8.612678E-1,-1.0170239E0,-6.877478E-2,-2.3622341E-1,-2.4226904E-1,-6.410232E-1,3.5743123E-1,-1.9566052E-1,1.5356587E-1,-3.3120498E-1],"categories":[],"categories_nodes":[],"categories_segments":[],"categories_sizes":[],"default_left":[0,0,0,0,0,1,0,0,0,0,0,0,0,0,0],"id":9,"left_children":[1,3,5,7,9,11,13,-1,-1,-1,-1,-1,-1,-1,-1],"loss_changes":[5.75417E2,2.3772522E1,5.3563434E2,8.2141685E-1,1.5626587E1,7.9715985E2,2.5788922E2,0E0,0E0,0E0,0E0,0E0,0E0,0E0,0E0],"parents":[2147483647,0,0,1,1,2,2,3,3,4,4,5,5,6,6],"right_children":[2,4,6,8,10,12,14,-1,-1,-1,-1,-1,-1,-1,-1],"split_conditions":[3.2000008E1,1.0005E3,1.0189E3,1.17E1,4.2E0,1.2E0,4.3E0,-6.877478E-2,-2.3622341E-1,-2.4226904E-1,-6.410232E-1,3.5743123E-1,-1.9566052E-1,1.5356587E-1,-3.3120498E-1],"split_indices":[1,5,5,3,3,0,3,0,0,0,0,0,0,0,0],"split_type":[0,0,0,0,0,0,0,0,0,0,0,0,0,0,0],"sum_hessian":[7.56E2,6.6E1,6.9E2,7E0,5.9E1,4.66E2,2.24E2,3E0,4E0,6E0,5.3E1,3.1E2,1.56E2,5.9E1,1.65E2],"tree_param":{"num_deleted":"0","num_feature":"7","num_nodes":"15","size_leaf_vector":"1"}},{"base_weights":[-1.7923672E-2,-2.987138E0,2.0531929E-1,-5.2070546E-1,-6.181585E0,9.030065E-1,-9.706531E-1,-5.1116246E-1,5.829063E-1,-1.873153E0,-7.7179426E-1,2.7284238E-1,-2.8304464E-1,-4.9032474E-1,1.12670474E-1],"categories":[],"categories_nodes":[],"categories_segments":[],"categories_sizes":[],"default_left":[0,0,0,0,0,1,1,0,0,0,0,0,0,0,0],"id":10,"left_children":[1,3,5,7,9,11,13,-1,-1,-1,-1,-1,-1,-1,-1],"loss_changes":[5.0239548E2,4.1436227E2,5.7930145E2,2.2417229E2,1.3395697E2,4.755774E2,5.988691E2,0E0,0E0,0E0,0E0,0E0,0E0,0E0,0E0],"parents":[2147483647,0,0,1,1,2,2,3,3,4,4,5,5,6,6],"right_children":[2,4,6,8,10,12,14,-1,-1,-1,-1,-1,-1,-1,-1],"split_conditions":[2.04E1,5.4E0,8.6E0,1.85E1,1.0194E3,2.3E0,2.78E1,-5.1116246E-1,5.829063E-1,-1.873153E0,-7.7179426E-1,2.7284238E-1,-2.8304464E-1,-4.9032474E-1,1.12670474E-1],"split_indices":[4,3,3,4,5,0,4,0,0,0,0,0,0,0,0],"split_type":[0,0,0,0,0,0,0,0,0,0,0,0,0,0,0],"sum_hessian":[7.56E2,5.2E1,7.04E2,3E1,2.2E1,4.42E2,2.62E2,1.9E1,1.1E1,8E0,1.4E1,3.69E2,7.3E1,1.33E2,1.29E2],"tree_param":{"num_deleted":"0","num_feature":"7","num_nodes":"15","size_leaf_vector":"1"}},{"base_weights":[-1.8250544E-2,-9.882858E-2,1.5076443E0,1.6901608E0,-4.024127E-1,5.387768E-1,-1.8444712E-1,-2.506568E-1,1.2053826E-1],"categories":[],"categories_nodes":[],"categories_segments":[],"categories_sizes":[],"default_left":[0,0,0,0,1,0,0,0,0],"id":11,"left_children":[1,3,-1,5,7,-1,-1,-1,-1],"loss_changes":[4.6167142E2,4.0801172E2,0E0,2.8829578E2,5.498029E2,0E0,0E0,0E0,0E0],"parents":[2147483647,0,0,1,1,3,3,4,4],"right_children":[2,4,-1,6,8,-1,-1,-1,-1],"split_conditions":[5.21E1,3.9E0,1.5076443E0,1.0238E3,2.22E1,5.387768E-1,-1.8444712E-1,-2.506568E-1,1.2053826E-1],"split_indices":[0,3,0,5,4,0,0,0,0],"split_type":[0,0,0,0,0,0,0,0,0],"sum_hessian":[7.56E2,7.49E2,7E0,1.08E2,6.41E2,7.8E1,3E1,3.47E2,2.94E2],"tree_param":{"num_deleted":"0","num_feature":"7","num_nodes":"9","size_leaf_vector":"1"}},{"base_weights":[-1.2312754E-2,4.829186E-1,-9.8338234E-1,-1.2914263E0,1.019487E0,-7.7113855E-1,-3.92192E0,-1.7982857E-1,-1.6797628E0,3.716705E-1,1.3801915E-2,-4.2216826E-2,-4.150001E-1,-1.9553065E-1,-9.505288E-1],"categories":[],"categories_nodes":[],"categories_segments":[],"categories_sizes":[],"default_left":[0,0,0,0,1,1,0,0,0,0,0,0,0,0,0],"id":12,"left_children":[1,3,5,7,9,11,13,-1,-1,-1,-1,-1,-1,-1,-1],"loss_changes":[3.645193E2,4.792495E2,1.5663937E2,3.1865723E2,3.0763837E2,1.7481808E2,3.693341E1,0E0,0E0,0E0,0E0,0E0,0E0,0E0,0E0],"parents":[2147483647,0,0,1,1,2,2,3,3,4,4,5,5,6,6],"right_children":[2,4,6,8,10,12,14,-1,-1,-1,-1,-1,-1,-1,-1],"split_conditions":[1.0189E3,1.008E3,1.0335E3,1.0077E3,1E-1,1E-1,2.9E0,-1.7982857E-1,-1.6797628E0,3.716705E-1,1.3801915E-2,-4.2216826E-2,-4.150001E-1,-1.9553065E-1,-9.505288E-1],"split_indices":[5,5,5,5,0,0,3,0,0,0,0,0,0,0,0],"split_type":[0,0,0,0,0,0,0,0,0,0,0,0,0,0,0],"sum_hessian":[7.56E2,5.01E2,2.55E2,1.16E2,3.85E2,2.39E2,1.6E1,1.11E2,5E0,2.04E2,1.81E2,1.68E2,7.1E1,4E0,1.2E1],"tree_param":{"num_deleted":"0","num_feature":"7","num_nodes":"15","size_leaf_vector":"1"}},{"base_weights":[-1.39152035E-2,1.9180344E-1,-2.0679185E0,-6.631337E-2,2.8988333E0,-5.466064E0,-5.693681E-1,6.769597E-2,-2.869682E-1,1.281824E0,4.137187E-1,-5.7831734E-1,-1.3093522E0,1.5137559E-1,-3.745679E-1],"categories":[],"categories_nodes":[],"categories_segments":[],"categories_sizes":[],"default_left":[0,1,0,0,0,0,0,0,0,0,0,0,0,0,0],"id":13,"left_children":[1,3,5,7,9,11,13,-1,-1,-1,-1,-1,-1,-1,-1],"loss_changes":[3.2026456E2,4.8161713E2,3.4825595E2,3.4948724E2,1.6160492E2,3.9496277E1,8.6124985E1,0E0,0E0,0E0,0E0,0E0,0E0,0E0,0E0],"parents":[2147483647,0,0,1,1,2,2,3,3,4,4,5,5,6,6],"right_children":[2,4,6,8,10,12,14,-1,-1,-1,-1,-1,-1,-1,-1],"split_conditions":[1.25E1,3.15E1,3.7E1,8.6E0,1.0073E3,1E-1,1.48E1,6.769597E-2,-2.869682E-1,1.281824E0,4.137187E-1,-5.7831734E-1,-1.3093522E0,1.5137559E-1,-3.745679E-1],"split_indices":[3,4,4,3,5,0,3,0,0,0,0,0,0,0,0],"split_type":[0,0,0,0,0,0,0,0,0,0,0,0,0,0,0],"sum_hessian":[7.56E2,6.88E2,6.8E1,6.29E2,5.9E1,2E1,4.8E1,4.86E2,1.43E2,1E1,4.9E1,7E0,1.3E1,2.4E1,2.4E1],"tree_param":{"num_deleted":"0","num_feature":"7","num_nodes":"15","size_leaf_vector":"1"}},{"base_weights":[-1.1970266E-2,-2.3032868E0,1.6030172E-1,-8.37619E-2,-4.437505E0,4.939175E-1,-1.0669636E0,-7.6211953E-1,3.37198E-1,-1.2216413E0,-3.6802226E-1,1.2952471E-2,4.0330717E-1,-3.8176224E-1,2.9733142E-1],"categories":[],"categories_nodes":[],"categories_segments":[],"categories_sizes":[],"default_left":[0,0,0,0,0,1,1,0,0,0,0,0,0,0,0],"id":14,"left_children":[1,3,5,7,9,11,13,-1,-1,-1,-1,-1,-1,-1,-1],"loss_changes":[2.9917957E2,2.5068668E2,2.8917874E2,1.8450511E2,1.059259E2,3.625283E2,3.2745142E2,0E0,0E0,0E0,0E0,0E0,0E0,0E0,0E0],"parents":[2147483647,0,0,1,1,2,2,3,3,4,4,5,5,6,6],"right_children":[2,4,6,8,10,12,14,-1,-1,-1,-1,-1,-1,-1,-1],"split_conditions":[2.04E1,4.8E0,1.03E1,1.67E1,1.0236E3,2.59E1,3.7E1,-7.6211953E-1,3.37198E-1,-1.2216413E0,-3.6802226E-1,1.2952471E-2,4.0330717E-1,-3.8176224E-1,2.9733142E-1],"split_indices":[4,3,3,4,5,4,4,0,0,0,0,0,0,0,0],"split_type":[0,0,0,0,0,0,0,0,0,0,0,0,0,0,0],"sum_hessian":[7.56E2,5.2E1,7.04E2,2.6E1,2.6E1,5.54E2,1.5E2,8E0,1.8E1,1.5E1,1.1E1,4.33E2,1.21E2,1.13E2,3.7E1],"tree_param":{"num_deleted":"0","num_feature":"7","num_nodes":"15","size_leaf_vector":"1"}},{"base_weights":[-1.179928E-2,-7.955881E-2,5.6286106E0,4.2255569E-1,-7.218404E-1,3.3354026E-1,1.1830524E0,-1.978454E-1,1.9254787E-1,-6.7439E-1,-1.16900824E-1],"categories":[],"categories_nodes":[],"categories_segments":[],"categories_sizes":[],"default_left":[0,0,0,0,0,0,0,0,0,0,0],"id":15,"left_children":[1,3,5,7,9,-1,-1,-1,-1,-1,-1],"loss_changes":[2.897668E2,2.4185669E2,3.5372925E-1,3.220162E2,1.17770645E2,0E0,0E0,0E0,0E0,0E0,0E0],"parents":[2147483647,0,0,1,1,2,2,3,3,4,4],"right_children":[2,4,6,8,10,-1,-1,-1,-1,-1,-1],"split_conditions":[5E1,1.017E3,5.21E1,1.008E3,1.85E1,3.3354026E-1,1.1830524E0,-1.978454E-1,1.9254787E-1,-6.7439E-1,-1.16900824E-1],"split_indices":[0,5,0,5,4,0,0,0,0,0,0],"split_type":[0,0,0,0,0,0,0,0,0,0,0],"sum_hessian":[7.56E2,7.48E2,8E0,4.2E2,3.28E2,1E0,7E0,1.16E2,3.04E2,1.5E1,3.13E2],"tree_param":{"num_deleted":"0","num_feature":"7","num_nodes":"11","size_leaf_vector":"1"}},{"base_weights":[-8.488478E-3,1.4577303E0,-1.9365951E-1,2.0401356E0,-2.6457357E0,-2.6664135E-1,4.2227592E0,-1.3922918E-1,4.7544923E-1,-5.5570234E-2,-6.2821203E-1,-1.5727216E-1,7.6079436E-2,-3.6003686E-2,9.362078E-1],"categories":[],"categories_nodes":[],"categories_segments":[],"categories_sizes":[],"default_left":[0,0,0,0,0,1,0,0,0,0,0,0,0,0,0],"id":16,"left_children":[1,3,5,7,9,11,13,-1,-1,-1,-1,-1,-1,-1,-1],"loss_changes":[2.0580876E2,2.0853748E2,2.1804617E2,7.08371E1,1.20288315E1,2.2325175E2,2.30374E1,0E0,0E0,0E0,0E0,0E0,0E0,0E0,0E0],"parents":[2147483647,0,0,1,1,2,2,3,3,4,4,5,5,6,6],"right_children":[2,4,6,8,10,12,14,-1,-1,-1,-1,-1,-1,-1,-1],"split_conditions":[3.5E0,1.0287E3,3.1E1,1.85E1,5E0,2.22E1,4.4E0,-1.3922918E-1,4.7544923E-1,-5.5570234E-2,-6.2821203E-1,-1.5727216E-1,7.6079436E-2,-3.6003686E-2,9.362078E-1],"split_indices":[3,5,0,4,1,4,3,0,0,0,0,0,0,0,0],"split_type":[0,0,0,0,0,0,0,0,0,0,0,0,0,0,0],"sum_hessian":[7.56E2,8.4E1,6.72E2,7.4E1,1E1,6.62E2,1E1,8E0,6.6E1,2E0,8E0,3.67E2,2.95E2,1E0,9E0],"tree_param":{"num_deleted":"0","num_feature":"7","num_nodes":"15","size_leaf_vector":"1"}},{"base_weights":[-6.1679725E-3,6.316392E-1,-3.8401553E-1,-1.9970956E0,8.617517E-1,-3.0100503E0,-1.0285169E-1,4.3768796E-1,-5.986884E-1,3.2252464E-1,3.516811E-2,-9.976212E-1,-1.9779903E-1,-4.337349E-2,7.1597517E-1],"categories":[],"categories_nodes":[],"categories_segments":[],"categories_sizes":[],"default_left":[0,0,0,0,0,0,0,0,0,0,0,0,0,0,0],"id":17,"left_children":[1,3,5,7,9,11,13,-1,-1,-1,-1,-1,-1,-1,-1],"loss_changes":[1.8267493E2,1.7230417E2,3.5114316E2,1.02466576E2,1.3362453E2,1.7896368E2,1.8174849E2,0E0,0E0,0E0,0E0,0E0,0E0,0E0,0E0],"parents":[2147483647,0,0,1,1,2,2,3,3,4,4,5,5,6,6],"right_children":[2,4,6,8,10,12,14,-1,-1,-1,-1,-1,-1,-1,-1],"split_conditions":[5.9E0,1.85E1,2.41E1,1.0097E3,1.0172E3,1.0205E3,1.91E1,4.3768796E-1,-5.986884E-1,3.2252464E-1,3.516811E-2,-9.976212E-1,-1.9779903E-1,-4.337349E-2,7.1597517E-1],"split_indices":[3,4,4,5,5,5,0,0,0,0,0,0,0,0,0],"split_type":[0,0,0,0,0,0,0,0,0,0,0,0,0,0,0],"sum_hessian":[7.56E2,2.81E2,4.75E2,2.2E1,2.59E2,4.5E1,4.3E2,4E0,1.8E1,1.23E2,1.36E2,2.2E1,2.3E1,4.18E2,1.2E1],"tree_param":{"num_deleted":"0","num_feature":"7","num_nodes":"15","size_leaf_vector":"1"}},{"base_weights":[-5.365341E-3,1.366921E-1,-1.4238033E0,-4.5740742E-2,2.049959E0,-4.088113E0,-2.5289917E-1,4.0260945E-2,-2.6234087E-1,1.0274432E0,2.6595265E-1,-3.9925832E-1,-9.9828625E-1,5.740463E-1,-1.3460658E-1],"categories":[],"categories_nodes":[],"categories_segments":[],"categories_sizes":[],"default_left":[0,1,0,1,0,0,0,0,0,0,0,0,0,0,0],"id":18,"left_children":[1,3,5,7,9,11,13,-1,-1,-1,-1,-1,-1,-1,-1],"loss_changes":[1.5272987E2,2.405842E2,2.1422203E2,1.9729692E2,1.2657445E2,2.9716888E1,6.6226265E1,0E0,0E0,0E0,0E0,0E0,0E0,0E0,0E0],"parents":[2147483647,0,0,1,1,2,2,3,3,4,4,5,5,6,6],"right_children":[2,4,6,8,10,12,14,-1,-1,-1,-1,-1,-1,-1,-1],"split_conditions":[1.25E1,3.15E1,3.7E1,2.5E0,1.0073E3,1E-1,1.31E1,4.0260945E-2,-2.6234087E-1,1.0274432E0,2.6595265E-1,-3.9925832E-1,-9.9828625E-1,5.740463E-1,-1.3460658E-1],"split_indices":[3,4,4,0,5,0,3,0,0,0,0,0,0,0,0],"split_type":[0,0,0,0,0,0,0,0,0,0,0,0,0,0,0],"sum_hessian":[7.56E2,6.88E2,6.8E1,6.29E2,5.9E1,2E1,4.8E1,5.27E2,1.02E2,1E1,4.9E1,7E0,1.3E1,5E0,4.3E1],"tree_param":{"num_deleted":"0","num_feature":"7","num_nodes":"15","size_leaf_vector":"1"}},{"base_weights":[-4.1427244E-3,-1.4064955E0,1.318367E-1,-1.9091437E0,-3.6166202E-2,-3.174552E0,2.098994E-1,-1.5669678E-1,-4.5060945E-1,3.9311135E-1,-7.74568E-2,-8.613082E-1,3.542637E-2,1.2894778E-1,-6.7449726E-2],"categories":[],"categories_nodes":[],"categories_segments":[],"categories_sizes":[],"default_left":[0,0,0,0,0,0,0,0,0,0,0,0,0,0,0],"id":19,"left_children":[1,3,5,7,9,11,13,-1,-1,-1,-1,-1,-1,-1,-1],"loss_changes":[1.445386E2,4.608014E1,1.7901732E2,1.7203568E1,1.41152E1,6.1467926E1,1.6105244E2,0E0,0E0,0E0,0E0,0E0,0E0,0E0,0E0],"parents":[2147483647,0,0,1,1,2,2,3,3,4,4,5,5,6,6],"right_children":[2,4,6,8,10,12,14,-1,-1,-1,-1,-1,-1,-1,-1],"split_conditions":[3.2000008E1,1.13E1,1.0002E3,1.0075E3,1.17E1,1.57E1,1.017E3,-1.5669678E-1,-4.5060945E-1,3.9311135E-1,-7.74568E-2,-8.613082E-1,3.542637E-2,1.2894778E-1,-6.7449726E-2],"split_indices":[1,3,5,5,3,3,5,0,0,0,0,0,0,0,0],"split_type":[0,0,0,0,0,0,0,0,0,0,0,0,0,0,0],"sum_hessian":[7.56E2,6.6E1,6.9E2,4.8E1,1.8E1,1.5E1,6.75E2,1.2E1,3.6E1,2E0,1.6E1,1.1E1,4E0,3.76E2,2.99E2],"tree_param":{"num_deleted":"0","num_feature":"7","num_nodes":"15","size_leaf_vector":"1"}},{"base_weights":[-4.7094645E-3,9.5193505E-1,-1.6537133E-1,1.2768364E0,-2.058716E0,-2.9576359E0,-2.9995022E-2,4.1372997E-1,1.263793E-1,-7.1462625E-1,-2.088338E-1,-9.016262E-1,1.1883362E-1,1.187642E0,-1.9597521E-2],"categories":[],"categories_nodes":[],"categories_segments":[],"categories_sizes":[],"default_left":[0,0,0,0,0,1,0,0,0,0,0,0,0,0,0],"id":20,"left_children":[1,3,5,7,9,11,13,-1,-1,-1,-1,-1,-1,-1,-1],"loss_changes":[1.1650551E2,1.0924857E2,2.4523744E2,4.9249344E1,1.3169949E1,1.6789026E2,2.5217395E2,0E0,0E0,0E0,0E0,0E0,0E0,0E0,0E0],"parents":[2147483647,0,0,1,1,2,2,3,3,4,4,5,5,6,6],"right_children":[2,4,6,8,10,12,14,-1,-1,-1,-1,-1,-1,-1,-1],"split_conditions":[3.9E0,1.0287E3,4.2E0,1.017E3,1.033E3,1.67E1,4.3E0,4.1372997E-1,1.263793E-1,-7.1462625E-1,-2.088338E-1,-9.016262E-1,1.1883362E-1,1.187642E0,-1.9597521E-2],"split_indices":[3,5,3,5,5,4,3,0,0,0,0,0,0,0,0],"split_type":[0,0,0,0,0,0,0,0,0,0,0,0,0,0,0],"sum_hessian":[7.56E2,1.08E2,6.48E2,9.8E1,1E1,2.9E1,6.19E2,4.3E1,5.5E1,3E0,7E0,2E1,9E0,6E0,6.13E2],"tree_param":{"num_deleted":"0","num_feature":"7","num_nodes":"15","size_leaf_vector":"1"}},{"base_weights":[-3.765173E-3,3.5590822E-1,-4.1422924E-1,-4.55183E0,4.539082E-1,-2.9913323E0,-2.0082678E-1,-1.243774E0,-2.660145E-1,-5.1145804E-1,1.1741495E-1,-1.2913773E0,-1.1459084E-1,1.10811135E-2,-3.467896E-1],"categories":[],"categories_nodes":[],"categories_segments":[],"categories_sizes":[],"default_left":[1,0,0,0,0,0,0,0,0,0,0,0,0,0,0],"id":21,"left_children":[1,3,5,7,9,11,13,-1,-1,-1,-1,-1,-1,-1,-1],"loss_changes":[1.1190561E2,1.9637328E2,1.9408516E2,3.469484E1,1.6069473E2,2.2258803E2,1.2894603E2,0E0,0E0,0E0,0E0,0E0,0E0,0E0,0E0],"parents":[2147483647,0,0,1,1,2,2,3,3,4,4,5,5,6,6],"right_children":[2,4,6,8,10,12,14,-1,-1,-1,-1,-1,-1,-1,-1],"split_conditions":[1E-1,1.0044E3,2E-1,1.08E1,1.85E1,2.78E1,1.28E1,-1.243774E0,-2.660145E-1,-5.1145804E-1,1.1741495E-1,-1.2913773E0,-1.1459084E-1,1.10811135E-2,-3.467896E-1],"split_indices":[0,5,0,3,4,4,3,0,0,0,0,0,0,0,0],"split_type":[0,0,0,0,0,0,0,0,0,0,0,0,0,0,0],"sum_hessian":[7.56E2,4.03E2,3.53E2,7E0,3.96E2,2.6E1,3.27E2,4E0,3E0,1.6E1,3.8E2,1E1,1.6E1,2.81E2,4.6E1],"tree_param":{"num_deleted":"0","num_feature":"7","num_nodes":"15","size_leaf_vector":"1"}},{"base_weights":[-7.827742E-3,-6.5928735E-2,2.3812034E0,2.0803243E-2,-5.8157845E0,5.0590205E-1,4.2002935E0,8.1629865E-2,-9.103525E-2,-1.4925069E0,1.0651708E0,-2.2127377E-2,2.9167396E-1,3.6511728E-1,9.235967E-1],"categories":[],"categories_nodes":[],"categories_segments":[],"categories_sizes":[],"default_left":[0,0,0,0,0,0,0,0,0,0,0,0,0,0,0],"id":22,"left_children":[1,3,5,7,9,11,13,-1,-1,-1,-1,-1,-1,-1,-1],"loss_changes":[1.0523244E2,3.6915628E2,5.9279213E1,1.3477498E2,2.4156668E2,6.033684E0,4.9649048E-1,0E0,0E0,0E0,0E0,0E0,0E0,0E0,0E0],"parents":[2147483647,0,0,1,1,2,2,3,3,4,4,5,5,6,6],"right_children":[2,4,6,8,10,12,14,-1,-1,-1,-1,-1,-1,-1,-1],"split_conditions":[1.91E1,1.55E1,1.0133E3,1.017E3,1.0138E3,1.0083E3,5.8E0,8.1629865E-2,-9.103525E-2,-1.4925069E0,1.0651708E0,-2.2127377E-2,2.9167396E-1,3.6511728E-1,9.235967E-1],"split_indices":[0,0,5,5,5,5,3,0,0,0,0,0,0,0,0],"split_type":[0,0,0,0,0,0,0,0,0,0,0,0,0,0,0],"sum_hessian":[7.56E2,7.39E2,1.7E1,7.29E2,1E1,9E0,8E0,4.02E2,3.27E2,9E0,1E0,6E0,3E0,2E0,6E0],"tree_param":{"num_deleted":"0","num_feature":"7","num_nodes":"15","size_leaf_vector":"1"}},{"base_weights":[-4.7808313E-3,4.939168E-2,-2.3657837E0,3.9860076E-1,-3.3765644E-1,-1.201803E0,-8.598896E-1,-7.8032273E-1,9.747635E-2,-4.0266344E-1,-2.2055143E-2,1.7809103E-1,-3.4186003E-1],"categories":[],"categories_nodes":[],"categories_segments":[],"categories_sizes":[],"default_left":[0,1,0,0,0,0,0,0,0,0,0,0,0],"id":23,"left_children":[1,3,5,7,9,11,-1,-1,-1,-1,-1,-1,-1],"loss_changes":[9.6938255E1,1.0028867E2,3.3095627E1,1.5079468E2,1.3389452E2,1.4263834E1,0E0,0E0,0E0,0E0,0E0,0E0,0E0],"parents":[2147483647,0,0,1,1,2,2,3,3,4,4,5,5],"right_children":[2,4,6,8,10,12,-1,-1,-1,-1,-1,-1,-1],"split_conditions":[1.0335E3,1E-1,7.6E0,1.0044E3,2.22E1,4E0,-8.598896E-1,-7.8032273E-1,9.747635E-2,-4.0266344E-1,-2.2055143E-2,1.7809103E-1,-3.4186003E-1],"split_indices":[5,0,3,5,4,1,0,0,0,0,0,0,0],"split_type":[0,0,0,0,0,0,0,0,0,0,0,0,0],"sum_hessian":[7.56E2,7.4E2,1.6E1,3.89E2,3.51E2,1.1E1,5E0,7E0,3.82E2,4.1E1,3.1E2,2E0,9E0],"tree_param":{"num_deleted":"0","num_feature":"7","num_nodes":"13","size_leaf_vector":"1"}},{"base_weights":[-6.6401996E-3,4.1903666E-1,-2.5881296E-1,-6.082384E-2,1.2795869E0,-2.125641E0,-5.896862E-2,-4.830441E-2,1.0559821E0,3.3825016E-1,-2.7988276E-1,-7.672114E-1,-7.958488E-2,-4.096446E-1,1.37134595E-2],"categories":[],"categories_nodes":[],"categories_segments":[],"categories_sizes":[],"default_left":[0,1,0,0,0,0,0,0,0,0,0,0,0,0,0],"id":24,"left_children":[1,3,5,7,9,11,13,-1,-1,-1,-1,-1,-1,-1,-1],"loss_changes":[8.136794E1,1.1652806E2,1.7745839E2,1.7691634E2,1.13754364E2,1.344088E2,1.0948573E2,0E0,0E0,0E0,0E0,0E0,0E0,0E0,0E0],"parents":[2147483647,0,0,1,1,2,2,3,3,4,4,5,5,6,6],"right_children":[2,4,6,8,10,12,14,-1,-1,-1,-1,-1,-1,-1,-1],"split_conditions":[5.9E0,1.85E1,2.41E1,5.8E0,1.0239E3,1.0205E3,6.3E0,-4.830441E-2,1.0559821E0,3.3825016E-1,-2.7988276E-1,-7.672114E-1,-7.958488E-2,-4.096446E-1,1.37134595E-2],"split_indices":[3,4,4,3,5,5,3,0,0,0,0,0,0,0,0],"split_type":[0,0,0,0,0,0,0,0,0,0,0,0,0,0,0],"sum_hessian":[7.56E2,2.81E2,4.75E2,1.81E2,1E2,4.5E1,4.3E2,1.76E2,5E0,8.7E1,1.3E1,2.2E1,2.3E1,2.5E1,4.05E2],"tree_param":{"num_deleted":"0","num_feature":"7","num_nodes":"15","size_leaf_vector":"1"}},{"base_weights":[-5.5458043E-3,-1.0190047E0,9.272813E-2,-1.4883689E0,2.4509278E-1,2.7957755E-1,-7.157495E-1,-2.645987E-1,-9.4263935E-1,-9.949065E-2,2.250833E-1,-5.6373808E-3,2.8756908E-1,-2.7106026E-1,2.4104297E-1],"categories":[],"categories_nodes":[],"categories_segments":[],"categories_sizes":[],"default_left":[0,0,0,0,0,1,1,0,0,0,0,0,0,0,0],"id":25,"left_children":[1,3,5,7,9,11,13,-1,-1,-1,-1,-1,-1,-1,-1],"loss_changes":[7.548911E1,4.0117363E1,1.0458503E2,1.9896553E1,1.2979777E1,2.0037871E2,1.613457E2,0E0,0E0,0E0,0E0,0E0,0E0,0E0,0E0],"parents":[2147483647,0,0,1,1,2,2,3,3,4,4,5,5,6,6],"right_children":[2,4,6,8,10,12,14,-1,-1,-1,-1,-1,-1,-1,-1],"split_conditions":[3.2000008E1,1.13E1,1.02E1,1.1E1,1.4E0,2.59E1,3.7E1,-2.645987E-1,-9.4263935E-1,-9.949065E-2,2.250833E-1,-5.6373808E-3,2.8756908E-1,-2.7106026E-1,2.4104297E-1],"split_indices":[1,3,3,3,0,4,4,0,0,0,0,0,0,0,0],"split_type":[0,0,0,0,0,0,0,0,0,0,0,0,0,0,0],"sum_hessian":[7.56E2,6.6E1,6.9E2,4.8E1,1.8E1,5.61E2,1.29E2,4.7E1,1E0,1E1,8E0,4.44E2,1.17E2,9.7E1,3.2E1],"tree_param":{"num_deleted":"0","num_feature":"7","num_nodes":"15","size_leaf_vector":"1"}},{"base_weights":[-5.5326317E-3,-5.511173E-2,2.0330265E0,1.33052515E-2,-4.5905013E0,5.5727637E-1,6.893714E-1,6.356212E-2,-7.217368E-2,-1.2037866E0,9.6938133E-1,-7.666397E-2,1.6806808E-1],"categories":[],"categories_nodes":[],"categories_segments":[],"categories_sizes":[],"default_left":[0,0,0,0,0,0,0,0,0,0,0,0,0],"id":26,"left_children":[1,3,5,7,9,11,-1,-1,-1,-1,-1,-1,-1],"loss_changes":[7.662198E1,2.2968134E2,3.563543E1,8.328932E1,1.7746078E2,2.9846091E0,0E0,0E0,0E0,0E0,0E0,0E0,0E0],"parents":[2147483647,0,0,1,1,2,2,3,3,4,4,5,5],"right_children":[2,4,6,8,10,12,-1,-1,-1,-1,-1,-1,-1],"split_conditions":[1.91E1,1.55E1,1.0133E3,1.017E3,1.0138E3,4.4E0,6.893714E-1,6.356212E-2,-7.217368E-2,-1.2037866E0,9.6938133E-1,-7.666397E-2,1.6806808E-1],"split_indices":[0,0,5,5,5,3,0,0,0,0,0,0,0],"split_type":[0,0,0,0,0,0,0,0,0,0,0,0,0],"sum_hessian":[7.56E2,7.39E2,1.7E1,7.29E2,1E1,9E0,8E0,4.02E2,3.27E2,9E0,1E0,2E0,7E0],"tree_param":{"num_deleted":"0","num_feature":"7","num_nodes":"13","size_leaf_vector":"1"}},{"base_weights":[-3.7157258E-3,8.890824E-1,-1.1647074E-1,-9.3512845E-1,1.4284025E0,-1.2774498E0,-1.5165346E-2,-4.964985E-2,-4.350594E-1,-7.828272E-2,3.3723205E-1,-8.3371304E-2,-1.004475E0,9.549306E-1,-1.3949539E-2],"categories":[],"categories_nodes":[],"categories_segments":[],"categories_sizes":[],"default_left":[0,0,0,0,0,0,0,0,0,0,0,0,0,0,0],"id":27,"left_children":[1,3,5,7,9,11,13,-1,-1,-1,-1,-1,-1,-1,-1],"loss_changes":[7.630882E1,8.496162E1,7.9134476E1,1.6496906E1,3.1618698E1,1.719407E2,1.6242554E2,0E0,0E0,0E0,0E0,0E0,0E0,0E0,0E0],"parents":[2147483647,0,0,1,1,2,2,3,3,4,4,5,5,6,6],"right_children":[2,4,6,8,10,12,14,-1,-1,-1,-1,-1,-1,-1,-1],"split_conditions":[3.5E0,1.9E0,4.2E0,1.0254E3,1.85E1,4.1E0,4.3E0,-4.964985E-2,-4.350594E-1,-7.828272E-2,3.3723205E-1,-8.3371304E-2,-1.004475E0,9.549306E-1,-1.3949539E-2],"split_indices":[3,3,3,5,4,3,3,0,0,0,0,0,0,0,0],"split_type":[0,0,0,0,0,0,0,0,0,0,0,0,0,0,0],"sum_hessian":[7.56E2,8.4E1,6.72E2,1.9E1,6.5E1,5.3E1,6.19E2,1.3E1,6E0,8E0,5.7E1,4.4E1,9E0,6E0,6.13E2],"tree_param":{"num_deleted":"0","num_feature":"7","num_nodes":"15","size_leaf_vector":"1"}},{"base_weights":[-3.464736E-3,4.63213E-1,-1.6509652E-1,-7.592481E-2,1.4712486E0,-2.4374952E0,3.2250375E-2,1.484957E-1,-1.8641892E-1,4.0716663E-1,-1.3186774E-1,-8.896974E-1,-9.8504804E-2,3.6718845E-2,-2.13221E-1],"categories":[],"categories_nodes":[],"categories_segments":[],"categories_sizes":[],"default_left":[0,1,0,0,0,0,0,0,0,0,0,0,0,0,0],"id":28,"left_children":[1,3,5,7,9,11,13,-1,-1,-1,-1,-1,-1,-1,-1],"loss_changes":[5.717695E1,1.06088394E2,2.5255643E2,9.038065E1,8.313925E1,1.7381845E2,8.6468765E1,0E0,0E0,0E0,0E0,0E0,0E0,0E0,0E0],"parents":[2147483647,0,0,1,1,2,2,3,3,4,4,5,5,6,6],"right_children":[2,4,6,8,10,12,14,-1,-1,-1,-1,-1,-1,-1,-1],"split_conditions":[4.9E0,1.67E1,2.22E1,1.0181E3,1.0228E3,1.0198E3,1.0243E3,1.484957E-1,-1.8641892E-1,4.0716663E-1,-1.3186774E-1,-8.896974E-1,-9.8504804E-2,3.6718845E-2,-2.13221E-1],"split_indices":[3,4,4,5,5,5,5,0,0,0,0,0,0,0,0],"split_type":[0,0,0,0,0,0,0,0,0,0,0,0,0,0,0],"sum_hessian":[7.56E2,1.94E2,5.62E2,1.27E2,6.7E1,4.4E1,5.18E2,6.5E1,6.2E1,5.3E1,1.4E1,2.1E1,2.3E1,4.56E2,6.2E1],"tree_param":{"num_deleted":"0","num_feature":"7","num_nodes":"15","size_leaf_vector":"1"}},{"base_weights":[-3.9968197E-3,7.894382E-2,-9.3500787E-1,-9.411023E-3,2.1114297E0,3.4463042E-1,-2.311443E0,2.0887017E-2,-2.4171174E-1,6.822974E-1,-3.4553137E-1,-2.279609E-1,4.4038782E-1,-2.414875E-1,-1.0393058E0],"categories":[],"categories_nodes":[],"categories_segments":[],"categories_sizes":[],"default_left":[0,1,0,0,0,0,0,0,0,0,0,0,0,0,0],"id":29,"left_children":[1,3,5,7,9,11,13,-1,-1,-1,-1,-1,-1,-1,-1],"loss_changes":[5.852833E1,1.25007515E2,1.0999962E2,9.132043E1,1.5063385E2,9.349256E1,8.9280045E1,0E0,0E0,0E0,0E0,0E0,0E0,0E0,0E0],"parents":[2147483647,0,0,1,1,2,2,3,3,4,4,5,5,6,6],"right_children":[2,4,6,8,10,12,14,-1,-1,-1,-1,-1,-1,-1,-1],"split_conditions":[1.28E1,3.52E1,1.0117E3,1.05E1,3.89E1,1.0065E3,2.1E0,2.0887017E-2,-2.4171174E-1,6.822974E-1,-3.4553137E-1,-2.279609E-1,4.4038782E-1,-2.414875E-1,-1.0393058E0],"split_indices":[3,4,5,3,4,5,0,0,0,0,0,0,0,0,0],"split_type":[0,0,0,0,0,0,0,0,0,0,0,0,0,0,0],"sum_hessian":[7.56E2,6.95E2,6.1E1,6.67E2,2.8E1,3.2E1,2.9E1,6.1E2,5.7E1,2.1E1,7E0,1.8E1,1.4E1,2.2E1,7E0],"tree_param":{"num_deleted":"0","num_feature":"7","num_nodes":"15","size_leaf_vector":"1"}},{"base_weights":[-4.4558346E-3,2.2266993E-2,-2.509164E0,1.5326944E-1,-5.071675E-1,-1.4357638E-1,-7.7996033E-1,6.918366E-2,-1.8096803E-1,-2.0480101E-1,1.4989352E-1,1.9555712E-1,-1.6865845E-1],"categories":[],"categories_nodes":[],"categories_segments":[],"categories_sizes":[],"default_left":[0,1,0,0,0,0,0,0,0,0,0,0,0],"id":30,"left_children":[1,3,5,7,9,11,-1,-1,-1,-1,-1,-1,-1],"loss_changes":[5.0724068E1,5.2095642E1,2.5757477E1,1.2302683E2,9.753941E1,3.9630978E0,0E0,0E0,0E0,0E0,0E0,0E0,0E0],"parents":[2147483647,0,0,1,1,2,2,3,3,4,4,5,5],"right_children":[2,4,6,8,10,12,-1,-1,-1,-1,-1,-1,-1],"split_conditions":[1.0376E3,2.5E0,2.22E1,1.05E1,1.06E1,4E0,-7.7996033E-1,6.918366E-2,-1.8096803E-1,-2.0480101E-1,1.4989352E-1,1.9555712E-1,-1.6865845E-1],"split_indices":[5,0,4,3,3,1,0,0,0,0,0,0,0],"split_type":[0,0,0,0,0,0,0,0,0,0,0,0,0],"sum_hessian":[7.56E2,7.49E2,7E0,6.01E2,1.48E2,3E0,4E0,5.09E2,9.2E1,1.05E2,4.3E1,1E0,2E0],"tree_param":{"num_deleted":"0","num_feature":"7","num_nodes":"13","size_leaf_vector":"1"}},{"base_weights":[-4.7795232E-3,-4.616118E-2,1.6967318E0,5.7062246E-3,-3.484074E0,1.13581255E-1,2.478842E0,-1.8288217E-1,1.5524872E-2,-9.4420785E-1,8.8855755E-1,-2.4190044E-2,1.52077E-1,1.1241913E-1,6.110605E-1],"categories":[],"categories_nodes":[],"categories_segments":[],"categories_sizes":[],"default_left":[0,0,0,0,0,0,0,0,0,0,0,0,0,0,0],"id":31,"left_children":[1,3,5,7,9,11,13,-1,-1,-1,-1,-1,-1,-1,-1],"loss_changes":[5.337972E1,1.3197345E2,2.2006016E1,4.8377346E1,1.2883232E2,1.1538396E0,1.1541771E1,0E0,0E0,0E0,0E0,0E0,0E0,0E0,0E0],"parents":[2147483647,0,0,1,1,2,2,3,3,4,4,5,5,6,6],"right_children":[2,4,6,8,10,12,14,-1,-1,-1,-1,-1,-1,-1,-1],"split_conditions":[1.91E1,1.55E1,1.0083E3,2.04E1,1.0138E3,5E1,5.8E0,-1.8288217E-1,1.5524872E-2,-9.4420785E-1,8.8855755E-1,-2.4190044E-2,1.52077E-1,1.1241913E-1,6.110605E-1],"split_indices":[0,0,5,4,5,0,3,0,0,0,0,0,0,0,0],"split_type":[0,0,0,0,0,0,0,0,0,0,0,0,0,0,0],"sum_hessian":[7.56E2,7.39E2,1.7E1,7.29E2,1E1,6E0,1.1E1,5.2E1,6.77E2,9E0,1E0,5E0,1E0,3E0,8E0],"tree_param":{"num_deleted":"0","num_feature":"7","num_nodes":"15","size_leaf_vector":"1"}},{"base_weights":[-2.9938219E-3,6.153371E-1,-8.734932E-2,-1.0831904E0,9.3822765E-1,-1.3572018E0,1.11027295E-2,1.3442947E-1,-4.0561482E-1,-3.458662E-1,2.0648406E-1,-1.24777846E-1,-8.162802E-1,2.5646484E-1,-2.3975529E-2],"categories":[],"categories_nodes":[],"categories_segments":[],"categories_sizes":[],"default_left":[0,0,0,0,0,0,0,0,0,0,0,0,0,0,0],"id":32,"left_children":[1,3,5,7,9,11,13,-1,-1,-1,-1,-1,-1,-1,-1],"loss_changes":[3.953857E1,5.092419E1,8.340313E1,2.6242014E1,2.1132751E1,9.334275E1,1.0338686E2,0E0,0E0,0E0,0E0,0E0,0E0,0E0,0E0],"parents":[2147483647,0,0,1,1,2,2,3,3,4,4,5,5,6,6],"right_children":[2,4,6,8,10,12,14,-1,-1,-1,-1,-1,-1,-1,-1],"split_conditions":[3.6E0,1.7E0,4.2E0,1.3E0,1.0031E3,4.1E0,4.9E0,1.3442947E-1,-4.0561482E-1,-3.458662E-1,2.0648406E-1,-1.24777846E-1,-8.162802E-1,2.5646484E-1,-2.3975529E-2],"split_indices":[3,3,3,3,5,3,3,0,0,0,0,0,0,0,0],"split_type":[0,0,0,0,0,0,0,0,0,0,0,0,0,0,0],"sum_hessian":[7.56E2,9E1,6.66E2,1.4E1,7.6E1,4.7E1,6.19E2,5E0,9E0,2E0,7.4E1,3.8E1,9E0,5.7E1,5.62E2],"tree_param":{"num_deleted":"0","num_feature":"7","num_nodes":"15","size_leaf_vector":"1"}},{"base_weights":[-3.8734498E-3,-4.1065805E-2,1.3687181E0,-6.69887E-4,-3.7271097E0,5.011548E-1,2.3733895E0,5.3297687E-2,-4.829152E-2,-1.081082E0,8.0209935E-1,-8.713722E-2,1.4641832E-1,2.594471E-1,5.949731E-1],"categories":[],"categories_nodes":[],"categories_segments":[],"categories_sizes":[],"default_left":[0,0,0,0,0,0,0,0,0,0,0,0,0,0,0],"id":33,"left_children":[1,3,5,7,9,11,13,-1,-1,-1,-1,-1,-1,-1,-1],"loss_changes":[3.8700993E1,1.09886536E2,1.6242886E1,4.708844E1,1.25566605E2,2.9151742E0,1.9664268E0,0E0,0E0,0E0,0E0,0E0,0E0,0E0,0E0],"parents":[2147483647,0,0,1,1,2,2,3,3,4,4,5,5,6,6],"right_children":[2,4,6,8,10,12,14,-1,-1,-1,-1,-1,-1,-1,-1],"split_conditions":[1.78E1,1.58E1,1.0133E3,1.0156E3,1.0138E3,4.4E0,6.4E0,5.3297687E-2,-4.829152E-2,-1.081082E0,8.0209935E-1,-8.713722E-2,1.4641832E-1,2.594471E-1,5.949731E-1],"split_indices":[0,0,5,5,5,3,3,0,0,0,0,0,0,0,0],"split_type":[0,0,0,0,0,0,0,0,0,0,0,0,0,0,0],"sum_hessian":[7.56E2,7.37E2,1.9E1,7.3E2,7E0,1.1E1,8E0,3.46E2,3.84E2,6E0,1E0,2E0,9E0,4E0,4E0],"tree_param":{"num_deleted":"0","num_feature":"7","num_nodes":"15","size_leaf_vector":"1"}},{"base_weights":[-2.2536037E-3,6.231554E-2,-7.2705793E-1,-1.177585E-2,1.7668235E0,2.4207528E-1,-1.7688693E0,2.919356E-2,-9.071409E-2,2.4528743E-3,7.2916645E-1,-1.9436668E-1,3.5271093E-1,-7.6713175E-1,-1.08738296E-1],"categories":[],"categories_nodes":[],"categories_segments":[],"categories_sizes":[],"default_left":[0,1,0,0,0,0,0,0,0,0,0,0,0,0,0],"id":34,"left_children":[1,3,5,7,9,11,13,-1,-1,-1,-1,-1,-1,-1,-1],"loss_changes":[3.54729E1,8.79182E1,6.3026745E1,4.661932E1,9.556342E1,6.2662796E1,7.388012E1,0E0,0E0,0E0,0E0,0E0,0E0,0E0,0E0],"parents":[2147483647,0,0,1,1,2,2,3,3,4,4,5,5,6,6],"right_children":[2,4,6,8,10,12,14,-1,-1,-1,-1,-1,-1,-1,-1],"split_conditions":[1.28E1,3.52E1,1.0117E3,8.6E0,1.15E1,1.0065E3,1.0147E3,2.919356E-2,-9.071409E-2,2.4528743E-3,7.2916645E-1,-1.9436668E-1,3.5271093E-1,-7.6713175E-1,-1.08738296E-1],"split_indices":[3,4,5,3,3,5,5,0,0,0,0,0,0,0,0],"split_type":[0,0,0,0,0,0,0,0,0,0,0,0,0,0,0],"sum_hessian":[7.56E2,6.95E2,6.1E1,6.67E2,2.8E1,3.2E1,2.9E1,4.92E2,1.75E2,1.5E1,1.3E1,1.8E1,1.4E1,1E1,1.9E1],"tree_param":{"num_deleted":"0","num_feature":"7","num_nodes":"15","size_leaf_vector":"1"}},{"base_weights":[-1.8656767E-3,-7.874475E-1,5.7194892E-2,8.5780036E-1,-1.7320801E0,8.183697E-2,-2.8272462E0,-1.3725804E-1,7.646877E-1,2.8998357E-1,-4.6613953E-1,-8.100725E-2,3.9991435E-2,-6.538816E-2,-6.5238386E-1],"categories":[],"categories_nodes":[],"categories_segments":[],"categories_sizes":[],"default_left":[0,0,0,0,0,0,0,0,0,0,0,0,0,0,0],"id":35,"left_children":[1,3,5,7,9,11,13,-1,-1,-1,-1,-1,-1,-1,-1],"loss_changes":[3.51675E1,8.385599E1,5.0341797E1,9.4208275E1,6.814251E1,4.0337685E1,5.4544334E0,0E0,0E0,0E0,0E0,0E0,0E0,0E0,0E0],"parents":[2147483647,0,0,1,1,2,2,3,3,4,4,5,5,6,6],"right_children":[2,4,6,8,10,12,14,-1,-1,-1,-1,-1,-1,-1,-1],"split_conditions":[2.04E1,4.3E0,1.0376E3,1.85E1,1.0121E3,1.0094E3,5E0,-1.3725804E-1,7.646877E-1,2.8998357E-1,-4.6613953E-1,-8.100725E-2,3.9991435E-2,-6.538816E-2,-6.5238386E-1],"split_indices":[4,3,5,4,5,5,1,0,0,0,0,0,0,0,0],"split_type":[0,0,0,0,0,0,0,0,0,0,0,0,0,0,0],"sum_hessian":[7.56E2,5.2E1,7.04E2,1.9E1,3.3E1,6.99E2,5E0,1.3E1,6E0,5E0,2.8E1,1.36E2,5.63E2,1E0,4E0],"tree_param":{"num_deleted":"0","num_feature":"7","num_nodes":"15","size_leaf_vector":"1"}},{"base_weights":[-1.8987639E-3,3.0335264E-2,-1.1912395E0,-2.338221E-3,1.2668918E0,4.2036653E-1,-2.5480413E0,6.7589055E-3,-5.721161E-1,1.17123365E-1,3.917591E-1,2.221097E-1,-9.838502E-2,-7.220497E-2,-5.461281E-1],"categories":[],"categories_nodes":[],"categories_segments":[],"categories_sizes":[],"default_left":[1,0,0,0,0,0,0,0,0,0,0,0,0,0,0],"id":36,"left_children":[1,3,5,7,9,11,13,-1,-1,-1,-1,-1,-1,-1,-1],"loss_changes":[2.905743E1,2.982009E1,4.4803715E1,7.445549E1,7.8090515E0,6.8427773E0,3.4069977E0,0E0,0E0,0E0,0E0,0E0,0E0,0E0,0E0],"parents":[2147483647,0,0,1,1,2,2,3,3,4,4,5,5,6,6],"right_children":[2,4,6,8,10,12,14,-1,-1,-1,-1,-1,-1,-1,-1],"split_conditions":[6E0,1.78E1,1.0073E3,1.55E1,1.0133E3,5.4E0,2.04E1,6.7589055E-3,-5.721161E-1,1.17123365E-1,3.917591E-1,2.221097E-1,-9.838502E-2,-7.220497E-2,-5.461281E-1],"split_indices":[1,0,5,0,5,0,4,0,0,0,0,0,0,0,0],"split_type":[0,0,0,0,0,0,0,0,0,0,0,0,0,0,0],"sum_hessian":[7.56E2,7.37E2,1.9E1,7.19E2,1.8E1,9E0,1E1,7.11E2,8E0,1E1,8E0,5E0,4E0,1E0,9E0],"tree_param":{"num_deleted":"0","num_feature":"7","num_nodes":"15","size_leaf_vector":"1"}},{"base_weights":[-2.2471189E-3,-1.2222213E-1,3.0675572E-1,2.2922832E-1,-4.0274924E-1,6.791728E-1,-1.2630612E0,-1.4459972E-1,1.4020291E-1,-1.06599644E-1,3.1580764E-1,8.6029105E-2,5.848826E-1,-4.9225268E-1,-9.426276E-4],"categories":[],"categories_nodes":[],"categories_segments":[],"categories_sizes":[],"default_left":[1,0,0,0,0,0,0,0,0,0,0,0,0,0,0],"id":37,"left_children":[1,3,5,7,9,11,13,-1,-1,-1,-1,-1,-1,-1,-1],"loss_changes":[2.8101467E1,5.3923214E1,1.2479869E2,1.0967398E2,7.9311874E1,9.4911766E1,6.1806374E1,0E0,0E0,0E0,0E0,0E0,0E0,0E0,0E0],"parents":[2147483647,0,0,1,1,2,2,3,3,4,4,5,5,6,6],"right_children":[2,4,6,8,10,12,14,-1,-1,-1,-1,-1,-1,-1,-1],"split_conditions":[2.59E1,1.0154E3,1.25E1,1.0081E3,3.4E0,1.17E1,3.7E1,-1.4459972E-1,1.4020291E-1,-1.06599644E-1,3.1580764E-1,8.6029105E-2,5.848826E-1,-4.9225268E-1,-9.426276E-4],"split_indices":[4,5,3,5,0,3,4,0,0,0,0,0,0,0,0],"split_type":[0,0,0,0,0,0,0,0,0,0,0,0,0,0,0],"sum_hessian":[7.56E2,5.45E2,2.11E2,2.42E2,3.03E2,1.71E2,4E1,8E1,1.62E2,2.85E2,1.8E1,1.55E2,1.6E1,2E1,2E1],"tree_param":{"num_deleted":"0","num_feature":"7","num_nodes":"15","size_leaf_vector":"1"}},{"base_weights":[-1.2923422E-3,5.0688684E-1,-6.547353E-2,3.188794E-3,1.4794352E0,-9.7928154E-1,1.4221804E-2,5.433643E-2,-2.2885998E-1,4.1217968E-1,-1.2848692E-1,-4.6777454E-1,1.1497004E-1,6.472627E-1,-4.50706E-3],"categories":[],"categories_nodes":[],"categories_segments":[],"categories_sizes":[],"default_left":[0,0,0,0,0,0,0,0,0,0,0,0,0,0,0],"id":38,"left_children":[1,3,5,7,9,11,13,-1,-1,-1,-1,-1,-1,-1,-1],"loss_changes":[2.4723152E1,4.163429E1,4.902598E1,1.787219E1,3.7103874E1,1.1544563E2,7.350247E1,0E0,0E0,0E0,0E0,0E0,0E0,0E0,0E0],"parents":[2147483647,0,0,1,1,2,2,3,3,4,4,5,5,6,6],"right_children":[2,4,6,8,10,12,14,-1,-1,-1,-1,-1,-1,-1,-1],"split_conditions":[3.5E0,3.1E0,4.2E0,1.0265E3,1.0238E3,1.0183E3,4.3E0,5.433643E-2,-2.2885998E-1,4.1217968E-1,-1.2848692E-1,-4.6777454E-1,1.1497004E-1,6.472627E-1,-4.50706E-3],"split_indices":[3,3,3,5,5,5,3,0,0,0,0,0,0,0,0],"split_type":[0,0,0,0,0,0,0,0,0,0,0,0,0,0,0],"sum_hessian":[7.56E2,8.4E1,6.72E2,5.6E1,2.8E1,5.3E1,6.19E2,4.6E1,1E1,2.2E1,6E0,2.8E1,2.5E1,6E0,6.13E2],"tree_param":{"num_deleted":"0","num_feature":"7","num_nodes":"15","size_leaf_vector":"1"}},{"base_weights":[-5.0662167E-4,2.178631E-2,-1.3863416E0,-2.3408005E-2,1.0649264E0,-1.0572811E-1,-3.1580548E0,1.3938851E-2,-1.15635745E-1,-1.6093136E-1,4.2668602E-1,4.767849E-1,-1.6039069E-1,-1.3371925E-1,-7.2265404E-1],"categories":[],"categories_nodes":[],"categories_segments":[],"categories_sizes":[],"default_left":[1,1,0,0,0,0,0,0,0,0,0,0,0,0,0],"id":39,"left_children":[1,3,5,7,9,11,13,-1,-1,-1,-1,-1,-1,-1,-1],"loss_changes":[2.3417206E1,3.519435E1,2.6892666E1,3.7021984E1,6.3644028E1,1.5778669E1,3.2503815E0,0E0,0E0,0E0,0E0,0E0,0E0,0E0,0E0],"parents":[2147483647,0,0,1,1,2,2,3,3,4,4,5,5,6,6],"right_children":[2,4,6,8,10,12,14,-1,-1,-1,-1,-1,-1,-1,-1],"split_conditions":[4.26E1,3.7E1,1.0117E3,1.05E1,1.0092E3,1E-1,1.15E1,1.3938851E-2,-1.15635745E-1,-1.6093136E-1,4.2668602E-1,4.767849E-1,-1.6039069E-1,-1.3371925E-1,-7.2265404E-1],"split_indices":[4,4,5,3,5,0,3,0,0,0,0,0,0,0,0],"split_type":[0,0,0,0,0,0,0,0,0,0,0,0,0,0,0],"sum_hessian":[7.56E2,7.45E2,1.1E1,7.15E2,3E1,7E0,4E0,6.13E2,1.02E2,1.1E1,1.9E1,1E0,6E0,1E0,3E0],"tree_param":{"num_deleted":"0","num_feature":"7","num_nodes":"15","size_leaf_vector":"1"}},{"base_weights":[-9.01918E-4,-6.189494E-1,4.5562506E-2,7.013793E-1,-1.377409E0,6.592958E-2,-2.3381896E0,-3.3337027E-1,4.2095995E-1,-4.4240293E-1,1.13753535E-1,4.956008E-2,-2.6821582E-2,-4.980841E-2,-5.412422E-1],"categories":[],"categories_nodes":[],"categories_segments":[],"categories_sizes":[],"default_left":[0,0,0,0,0,1,0,0,0,0,0,0,0,0,0],"id":40,"left_children":[1,3,5,7,9,11,13,-1,-1,-1,-1,-1,-1,-1,-1],"loss_changes":[2.1767138E1,5.404113E1,3.4381943E1,6.998085E1,5.6483994E1,2.5499918E1,3.9391403E0,0E0,0E0,0E0,0E0,0E0,0E0,0E0,0E0],"parents":[2147483647,0,0,1,1,2,2,3,3,4,4,5,5,6,6],"right_children":[2,4,6,8,10,12,14,-1,-1,-1,-1,-1,-1,-1,-1],"split_conditions":[2.04E1,4.3E0,1.0376E3,1.67E1,1.0251E3,1E-1,5E0,-3.3337027E-1,4.2095995E-1,-4.4240293E-1,1.13753535E-1,4.956008E-2,-2.6821582E-2,-4.980841E-2,-5.412422E-1],"split_indices":[4,3,5,4,5,0,1,0,0,0,0,0,0,0,0],"split_type":[0,0,0,0,0,0,0,0,0,0,0,0,0,0,0],"sum_hessian":[7.56E2,5.2E1,7.04E2,1.9E1,3.3E1,6.99E2,5E0,7E0,1.2E1,2.3E1,1E1,3.66E2,3.33E2,1E0,4E0],"tree_param":{"num_deleted":"0","num_feature":"7","num_nodes":"15","size_leaf_vector":"1"}},{"base_weights":[-1.791032E-3,2.6330566E-2,-9.003816E-1,-1.985085E-2,1.6783087E0,1.2137769E-1,-2.8313527E0,1.0856401E-2,-9.2315264E-2,4.3571168E-1,-3.7652487E-1,-5.646531E-1,4.3409806E-1,-1.2186686E-1,-9.8020744E-1],"categories":[],"categories_nodes":[],"categories_segments":[],"categories_sizes":[],"default_left":[1,1,0,0,0,0,0,0,0,0,0,0,0,0,0],"id":41,"left_children":[1,3,5,7,9,11,13,-1,-1,-1,-1,-1,-1,-1,-1],"loss_changes":[1.915295E1,5.610697E1,4.5722374E1,2.3471455E1,3.97285E1,1.02670364E2,3.380464E1,0E0,0E0,0E0,0E0,0E0,0E0,0E0,0E0],"parents":[2147483647,0,0,1,1,2,2,3,3,4,4,5,5,6,6],"right_children":[2,4,6,8,10,12,14,-1,-1,-1,-1,-1,-1,-1,-1],"split_conditions":[3.89E1,3.7E1,1.6E1,1.05E1,1.46E1,1.18E1,5E0,1.0856401E-2,-9.2315264E-2,4.3571168E-1,-3.7652487E-1,-5.646531E-1,4.3409806E-1,-1.2186686E-1,-9.8020744E-1],"split_indices":[4,4,3,3,3,3,1,0,0,0,0,0,0,0,0],"split_type":[0,0,0,0,0,0,0,0,0,0,0,0,0,0,0],"sum_hessian":[7.56E2,7.34E2,2.2E1,7.15E2,1.9E1,1.5E1,7E0,6.13E2,1.02E2,1.7E1,2E0,6E0,9E0,4E0,3E0],"tree_param":{"num_deleted":"0","num_feature":"7","num_nodes":"15","size_leaf_vector":"1"}},{"base_weights":[-3.0906948E-3,-9.965665E-2,2.4562676E-1,2.2921838E-1,-3.6221248E-1,7.7513844E-1,-5.546452E-1,1.1632135E-1,-1.2315636E-1,-8.303978E-2,7.4311376E-1,1.7711858E-1,-8.2446617E-1,-6.525264E-1,-2.1603404E-2],"categories":[],"categories_nodes":[],"categories_segments":[],"categories_sizes":[],"default_left":[1,0,0,0,1,1,0,0,0,0,0,0,0,0,0],"id":42,"left_children":[1,3,5,7,9,11,13,-1,-1,-1,-1,-1,-1,-1,-1],"loss_changes":[1.8205832E1,4.722907E1,9.026563E1,7.271581E1,6.722708E1,7.2892006E1,1.0245196E2,0E0,0E0,0E0,0E0,0E0,0E0,0E0,0E0],"parents":[2147483647,0,0,1,1,2,2,3,3,4,4,5,5,6,6],"right_children":[2,4,6,8,10,12,14,-1,-1,-1,-1,-1,-1,-1,-1],"split_conditions":[2.59E1,1.0154E3,1.04E1,2.5E0,1.09E1,2E0,1.1E1,1.1632135E-1,-1.2315636E-1,-8.303978E-2,7.4311376E-1,1.7711858E-1,-8.2446617E-1,-6.525264E-1,-2.1603404E-2],"split_indices":[4,5,3,0,0,1,3,0,0,0,0,0,0,0,0],"split_type":[0,0,0,0,0,0,0,0,0,0,0,0,0,0,0],"sum_hessian":[7.56E2,5.45E2,2.11E2,2.42E2,3.03E2,1.27E2,8.4E1,1.71E2,7.1E1,3E2,3E0,1.25E2,2E0,1.1E1,7.3E1],"tree_param":{"num_deleted":"0","num_feature":"7","num_nodes":"15","size_leaf_vector":"1"}},{"base_weights":[-3.35518E-3,-2.8973324E-2,9.421221E-1,-1.159738E-3,-2.5668182E0,5.81618E-1,2.2387338E0,-2.2123352E-1,5.0229593E-3,-7.8068256E-1,6.789345E-1,-6.28109E-2,1.443956E-1,6.0694355E-1,-1.4921761E-2],"categories":[],"categories_nodes":[],"categories_segments":[],"categories_sizes":[],"default_left":[0,0,0,0,0,0,0,0,0,0,0,0,0,0,0],"id":43,"left_children":[1,3,5,7,9,11,13,-1,-1,-1,-1,-1,-1,-1,-1],"loss_changes":[1.8362875E1,5.208991E1,8.046589E0,2.1251318E1,7.699558E1,2.3639226E0,7.5919495E0,0E0,0E0,0E0,0E0,0E0,0E0,0E0,0E0],"parents":[2147483647,0,0,1,1,2,2,3,3,4,4,5,5,6,6],"right_children":[2,4,6,8,10,12,14,-1,-1,-1,-1,-1,-1,-1,-1],"split_conditions":[1.78E1,1.58E1,9.8E0,9.986E2,1.0138E3,4.4E0,2.31E1,-2.2123352E-1,5.0229593E-3,-7.8068256E-1,6.789345E-1,-6.28109E-2,1.443956E-1,6.0694355E-1,-1.4921761E-2],"split_indices":[0,0,3,5,5,3,0,0,0,0,0,0,0,0,0],"split_type":[0,0,0,0,0,0,0,0,0,0,0,0,0,0,0],"sum_hessian":[7.56E2,7.37E2,1.9E1,7.3E2,7E0,1.6E1,3E0,1.6E1,7.14E2,6E0,1E0,2E0,1.4E1,2E0,1E0],"tree_param":{"num_deleted":"0","num_feature":"7","num_nodes":"15","size_leaf_vector":"1"}},{"base_weights":[-2.2140606E-3,-1.1562027E-1,2.1887048E-1,-1.0993208E0,-8.303796E-2,8.507854E-1,-1.8904212E-1,2.1419814E-2,-1.6301802E-1,7.642165E-1,1.2459315E-1,-1.3285917E-1,1.9444141E-1],"categories":[],"categories_nodes":[],"categories_segments":[],"categories_sizes":[],"default_left":[0,0,1,0,0,0,0,0,0,0,0,0,0],"id":44,"left_children":[1,3,5,-1,7,9,11,-1,-1,-1,-1,-1,-1],"loss_changes":[1.9005081E1,8.738133E1,6.640671E1,0E0,6.954321E1,6.596549E1,8.729226E1,0E0,0E0,0E0,0E0,0E0,0E0],"parents":[2147483647,0,0,1,1,2,2,4,4,5,5,6,6],"right_children":[2,4,6,-1,8,10,12,-1,-1,-1,-1,-1,-1],"split_conditions":[7E-1,9.986E2,2.3E0,-1.0993208E0,1E-1,1.0034E3,1.06E1,2.1419814E-2,-1.6301802E-1,7.642165E-1,1.2459315E-1,-1.3285917E-1,1.9444141E-1],"split_indices":[0,5,0,0,0,5,3,0,0,0,0,0,0],"split_type":[0,0,0,0,0,0,0,0,0,0,0,0,0],"sum_hessian":[7.56E2,5E2,2.56E2,2E0,4.98E2,1E2,1.56E2,3.96E2,1.02E2,6E0,9.4E1,1.11E2,4.5E1],"tree_param":{"num_deleted":"0","num_feature":"7","num_nodes":"13","size_leaf_vector":"1"}},{"base_weights":[-2.1549673E-3,-1.6615491E0,1.1087745E-2,-3.8990014E0,4.3192744E-1,2.7634165E-1,-7.844926E-2,-1.1068968E0,-6.2803745E-2,1.9378708E-1,-1.1790965E-1,1.9750951E-1,-1.5172782E-2,-2.977418E-1,8.79575E-3],"categories":[],"categories_nodes":[],"categories_segments":[],"categories_sizes":[],"default_left":[0,0,0,0,0,0,0,0,0,0,0,0,0,0,0],"id":45,"left_children":[1,3,5,7,9,11,13,-1,-1,-1,-1,-1,-1,-1,-1],"loss_changes":[1.6653406E1,2.9788414E1,1.788171E1,1.5851589E1,2.765396E0,4.7668148E1,9.72704E1,0E0,0E0,0E0,0E0,0E0,0E0,0E0,0E0],"parents":[2147483647,0,0,1,1,2,2,3,3,4,4,5,5,6,6],"right_children":[2,4,6,8,10,12,14,-1,-1,-1,-1,-1,-1,-1,-1],"split_conditions":[1.48E1,1.0158E3,4.9E0,1E-1,1.0298E3,2.41E1,2.22E1,-1.1068968E0,-6.2803745E-2,1.9378708E-1,-1.1790965E-1,1.9750951E-1,-1.5172782E-2,-2.977418E-1,8.79575E-3],"split_indices":[4,5,3,0,5,4,4,0,0,0,0,0,0,0,0],"split_type":[0,0,0,0,0,0,0,0,0,0,0,0,0,0,0],"sum_hessian":[7.56E2,5E0,7.51E2,2E0,3E0,1.89E2,5.62E2,1E0,1E0,2E0,1E0,6.2E1,1.27E2,4.4E1,5.18E2],"tree_param":{"num_deleted":"0","num_feature":"7","num_nodes":"15","size_leaf_vector":"1"}},{"base_weights":[-3.3099002E-3,2.1460108E-2,-7.947293E-1,-4.3230113E-3,1.8911686E0,8.463247E-2,-2.4541118E0,4.9352273E-3,-3.1934258E-1,4.853274E-1,-2.9280472E-1,-4.4297192E-1,3.371627E-1,-1.1759513E-1,-8.346508E-1],"categories":[],"categories_nodes":[],"categories_segments":[],"categories_sizes":[],"default_left":[1,0,0,0,0,0,0,0,0,0,0,0,0,0,0],"id":46,"left_children":[1,3,5,7,9,11,13,-1,-1,-1,-1,-1,-1,-1,-1],"loss_changes":[1.4856879E1,3.544026E1,3.3769234E1,3.3564594E1,2.151865E1,6.2644287E1,2.3211456E1,0E0,0E0,0E0,0E0,0E0,0E0,0E0,0E0],"parents":[2147483647,0,0,1,1,2,2,3,3,4,4,5,5,6,6],"right_children":[2,4,6,8,10,12,14,-1,-1,-1,-1,-1,-1,-1,-1],"split_conditions":[3.89E1,1.57E1,1.6E1,1.46E1,1.0153E3,1.18E1,5E0,4.9352273E-3,-3.1934258E-1,4.853274E-1,-2.9280472E-1,-4.4297192E-1,3.371627E-1,-1.1759513E-1,-8.346508E-1],"split_indices":[4,3,3,3,5,3,1,0,0,0,0,0,0,0,0],"split_type":[0,0,0,0,0,0,0,0,0,0,0,0,0,0,0],"sum_hessian":[7.56E2,7.34E2,2.2E1,7.25E2,9E0,1.5E1,7E0,7.13E2,1.2E1,8E0,1E0,6E0,9E0,4E0,3E0],"tree_param":{"num_deleted":"0","num_feature":"7","num_nodes":"15","size_leaf_vector":"1"}},{"base_weights":[-4.2063333E-3,-1.5156558E0,7.858696E-3,-3.5123913E0,3.6081E-1,1.1340679E-1,-1.8767492E-1,-9.967006E-1,-5.701685E-2,1.672908E-1,-1.06612206E-1,-1.7359478E-2,1.236285E-1,-3.6806768E-1,1.9669926E-2],"categories":[],"categories_nodes":[],"categories_segments":[],"categories_sizes":[],"default_left":[0,0,0,0,0,1,0,0,0,0,0,0,0,0,0],"id":47,"left_children":[1,3,5,7,9,11,13,-1,-1,-1,-1,-1,-1,-1,-1],"loss_changes":[1.3816322E1,2.3748146E1,1.554121E1,1.2822464E1,2.1465387E0,4.94672E1,1.249744E2,0E0,0E0,0E0,0E0,0E0,0E0,0E0,0E0],"parents":[2147483647,0,0,1,1,2,2,3,3,4,4,5,5,6,6],"right_children":[2,4,6,8,10,12,14,-1,-1,-1,-1,-1,-1,-1,-1],"split_conditions":[1.48E1,1.0158E3,8.6E0,1E-1,1.0298E3,2.22E1,2.78E1,-9.967006E-1,-5.701685E-2,1.672908E-1,-1.06612206E-1,-1.7359478E-2,1.236285E-1,-3.6806768E-1,1.9669926E-2],"split_indices":[4,5,3,0,5,4,4,0,0,0,0,0,0,0,0],"split_type":[0,0,0,0,0,0,0,0,0,0,0,0,0,0,0],"sum_hessian":[7.56E2,5E0,7.51E2,2E0,3E0,4.88E2,2.63E2,1E0,1E0,2E0,1E0,3.5E2,1.38E2,3.8E1,2.25E2],"tree_param":{"num_deleted":"0","num_feature":"7","num_nodes":"15","size_leaf_vector":"1"}},{"base_weights":[-4.996813E-3,3.8903555E-1,-4.825806E-2,-4.824126E-2,1.6803904E0,-7.174137E-1,2.0893909E-2,3.0739976E-2,-3.5807154E-1,5.1816124E-1,-1.4479555E-1,-3.5355818E-1,1.0638803E-1,2.2886479E-1,-8.842518E-3],"categories":[],"categories_nodes":[],"categories_segments":[],"categories_sizes":[],"default_left":[0,0,0,1,0,0,0,0,0,0,0,0,0,0,0],"id":48,"left_children":[1,3,5,7,9,11,13,-1,-1,-1,-1,-1,-1,-1,-1],"loss_changes":[1.2922847E1,4.2432026E1,3.1619741E1,2.032806E1,4.3466198E1,8.49271E1,4.5399E1,0E0,0E0,0E0,0E0,0E0,0E0,0E0,0E0],"parents":[2147483647,0,0,1,1,2,2,3,3,4,4,5,5,6,6],"right_children":[2,4,6,8,10,12,14,-1,-1,-1,-1,-1,-1,-1,-1],"split_conditions":[3.4E0,3.1E0,4.2E0,1.48E1,1.0238E3,1.0186E3,4.6E0,3.0739976E-2,-3.5807154E-1,5.1816124E-1,-1.4479555E-1,-3.5355818E-1,1.0638803E-1,2.2886479E-1,-8.842518E-3],"split_indices":[3,3,3,4,5,5,3,0,0,0,0,0,0,0,0],"split_type":[0,0,0,0,0,0,0,0,0,0,0,0,0,0,0],"sum_hessian":[7.56E2,7.4E1,6.82E2,5.6E1,1.8E1,6.3E1,6.19E2,5.1E1,5E0,1.3E1,5E0,3.4E1,2.9E1,3.3E1,5.86E2],"tree_param":{"num_deleted":"0","num_feature":"7","num_nodes":"15","size_leaf_vector":"1"}},{"base_weights":[-3.972573E-3,-1.19091704E-1,1.5446402E-1,4.231662E-2,-1.6457922E0,-2.2463151E-3,9.410148E-1,-4.380971E-1,2.4679901E-2,-6.546411E-1,-1.2408882E-1,-3.137907E-1,3.4657247E-2,-3.465056E-1,4.503294E-1],"categories":[],"categories_nodes":[],"categories_segments":[],"categories_sizes":[],"default_left":[0,0,0,0,0,0,0,0,0,0,0,0,0,0,0],"id":49,"left_children":[1,3,5,7,9,11,13,-1,-1,-1,-1,-1,-1,-1,-1],"loss_changes":[1.3825381E1,1.0824898E2,3.9322258E1,7.232503E1,6.80531E1,7.3699036E1,1.8961469E2,0E0,0E0,0E0,0E0,0E0,0E0,0E0,0E0],"parents":[2147483647,0,0,1,1,2,2,3,3,4,4,5,5,6,6],"right_children":[2,4,6,8,10,12,14,-1,-1,-1,-1,-1,-1,-1,-1],"split_conditions":[3E-1,1E-1,1.0195E3,1.0072E3,2.96E1,2.22E1,6.5E0,-4.380971E-1,2.4679901E-2,-6.546411E-1,-1.2408882E-1,-3.137907E-1,3.4657247E-2,-3.465056E-1,4.503294E-1],"split_indices":[0,0,5,5,4,4,3,0,0,0,0,0,0,0,0],"split_type":[0,0,0,0,0,0,0,0,0,0,0,0,0,0,0],"sum_hessian":[7.56E2,4.38E2,3.18E2,3.97E2,4.1E1,2.66E2,5.2E1,1.3E1,3.84E2,1.5E1,2.6E1,2.6E1,2.4E2,1.7E1,3.5E1],"tree_param":{"num_deleted":"0","num_feature":"7","num_nodes":"15","size_leaf_vector":"1"}}]},"name":"gbtree"},"learner_model_param":{"base_score":"1.222328E1","boost_from_average":"1","num_class":"0","num_feature":"7","num_target":"1"},"objective":{"name":"reg:squarederror","reg_loss_param":{"scale_pos_weight":"1"}}},"version":[3,0,2]}