{"learner":{"attributes":{"scikit_learn":"{\"_estimator_type\": \"regressor\"}"},"feature_names":["prcp","snow","wdir","wspd","wpgt","pres","tsun"],"feature_types":["float","float","float","float","float","float","float"],"gradient_booster":{"model":{"gbtree_model_param":{"num_parallel_tree":"1","num_trees":"50"},"iteration_indptr":[0,1,2,3,4,5,6,7,8,9,10,11,12,13,14,15,16,17,18,19,20,21,22,23,24,25,26,27,28,29,30,31,32,33,34,35,36,37,38,39,40,41,42,43,44,45,46,47,48,49,50],"tree_info":[0,0,0,0,0,0,0,0,0,0,0,0,0,0,0,0,0,0,0,0,0,0,0,0,0,0,0,0,0,0,0,0,0,0,0,0,0,0,0,0,0,0,0,0,0,0,0,0,0,0],"trees":[{"base_weights":[1.5558624E-7,1.3435884E0,-2.683282E0,2.1315935E0,-8.350466E0,7.728357E-1,-3.0936274E-1,-9.463088E-1,-2.092886E0],"categories":[],"categories_nodes":[],"categories_segments":[],"categories_sizes":[],"default_left":[0,0,0,0,0,0,0,0,0],"id":0,"left_children":[1,3,-1,5,7,-1,-1,-1,-1],"loss_changes":[1.3663807E4,5.2810454E3,0E0,4.0720483E3,3.4830127E2,0E0,0E0,0E0,0E0],"parents":[2147483647,0,0,1,1,3,3,4,4],"right_children":[2,4,-1,6,8,-1,-1,-1,-1],"split_conditions":[1E1,1.0272E3,-2.683282E0,8.7E0,1.0292E3,7.728357E-1,-3.0936274E-1,-9.463088E-1,-2.092886E0],"split_indices":[1,5,0,3,5,0,0,0,0],"split_type":[0,0,0,0,0,0,0,0,0],"sum_hessian":[7.56E2,6.88E2,6.8E1,6.37E2,5.1E1,4.33E2,2.04E2,2E1,3.1E1],"tree_param":{"num_deleted":"0","num_feature":"7","num_nodes":"9","size_leaf_vector":"1"}},{"base_weights":[-6.9471747E-3,1.0711322E0,-1.0772016E1,2.1368527E0,-4.266785E0,-1.0853445E1,-5.2348393E-1,9.718825E-1,2.0166606E-2,-5.044014E-1,-1.6365585E0,-1.9365734E0,-2.4743924E0],"categories":[],"categories_nodes":[],"categories_segments":[],"categories_sizes":[],"default_left":[0,0,0,0,0,0,0,0,0,0,0,0,0],"id":1,"left_children":[1,3,5,7,9,11,-1,-1,-1,-1,-1,-1,-1],"loss_changes":[8.796977E3,3.9286514E3,1.7409668E1,3.186841E3,7.651079E2,1.0766602E0,0E0,0E0,0E0,0E0,0E0,0E0,0E0],"parents":[2147483647,0,0,1,1,2,2,3,3,4,4,5,5],"right_children":[2,4,6,8,10,12,-1,-1,-1,-1,-1,-1,-1],"split_conditions":[1E1,1.0233E3,1.83E1,6.4E0,1.029E3,1.0213E3,-5.2348393E-1,9.718825E-1,2.0166606E-2,-5.044014E-1,-1.6365585E0,-1.9365734E0,-2.4743924E0],"split_indices":[1,5,3,3,5,5,0,0,0,0,0,0,0],"split_type":[0,0,0,0,0,0,0,0,0,0,0,0,0],"sum_hessian":[7.56E2,6.88E2,6.8E1,5.74E2,1.14E2,6.7E1,1E0,2.45E2,3.29E2,8E1,3.4E1,4.2E1,2.5E1],"tree_param":{"num_deleted":"0","num_feature":"7","num_nodes":"13","size_leaf_vector":"1"}},{"base_weights":[-1.3593892E-2,8.552382E-1,-8.689126E0,2.0843735E0,-2.337286E0,-2.0146344E0,-7.498237E0,-5.1564425E-1,6.379788E-1,-1.9975131E-2,-8.876174E-1,-1.1084119E0,-1.7305889E0],"categories":[],"categories_nodes":[],"categories_segments":[],"categories_sizes":[],"default_left":[0,0,0,0,0,0,0,0,0,0,0,0,0],"id":2,"left_children":[1,3,5,7,9,-1,11,-1,-1,-1,-1,-1,-1],"loss_changes":[5.7133804E3,2.7085383E3,3.8198242E1,2.5752117E3,9.0202454E2,0E0,4.465625E1,0E0,0E0,0E0,0E0,0E0,0E0],"parents":[2147483647,0,0,1,1,2,2,3,3,4,4,6,6],"right_children":[2,4,6,8,10,-1,12,-1,-1,-1,-1,-1,-1],"split_conditions":[1E1,1.0203E3,2.05E2,1.008E3,5.9E0,-2.0146344E0,2.55E2,-5.1564425E-1,6.379788E-1,-1.9975131E-2,-8.876174E-1,-1.1084119E0,-1.7305889E0],"split_indices":[1,5,2,5,3,0,2,0,0,0,0,0,0],"split_type":[0,0,0,0,0,0,0,0,0,0,0,0,0],"sum_hessian":[7.56E2,6.88E2,6.8E1,4.97E2,1.91E2,2.8E1,4E1,9.5E1,4.02E2,9.3E1,9.8E1,1.7E1,2.3E1],"tree_param":{"num_deleted":"0","num_feature":"7","num_nodes":"13","size_leaf_vector":"1"}},{"base_weights":[-1.8324062E-2,6.8305093E-1,-7.0216436E0,1.7557781E0,-2.2488966E0,-8.472127E0,-5.947581E0,6.4105463E-1,-1.6685778E-1,-8.298408E-1,1.7214803E-1,-1.7304429E0,-3.7898543E-1,-7.527465E-1,-1.2990601E0],"categories":[],"categories_nodes":[],"categories_segments":[],"categories_sizes":[],"default_left":[0,0,0,0,0,0,0,0,0,0,0,0,0,0,0],"id":3,"left_children":[1,3,5,7,9,11,13,-1,-1,-1,-1,-1,-1,-1,-1],"loss_changes":[3.7231445E3,2.1709778E3,5.7106934E1,1.8985903E3,1.0967855E3,1.5585327E1,2.6987305E1,0E0,0E0,0E0,0E0,0E0,0E0,0E0,0E0],"parents":[2147483647,0,0,1,1,2,2,3,3,4,4,5,5,6,6],"right_children":[2,4,6,8,10,12,14,-1,-1,-1,-1,-1,-1,-1,-1],"split_conditions":[1E1,9.1E0,5E-1,1.0189E3,3.15E1,3.52E1,2E1,6.4105463E-1,-1.6685778E-1,-8.298408E-1,1.7214803E-1,-1.7304429E0,-3.7898543E-1,-7.527465E-1,-1.2990601E0],"split_indices":[1,3,0,5,4,4,1,0,0,0,0,0,0,0,0],"split_type":[0,0,0,0,0,0,0,0,0,0,0,0,0,0,0],"sum_hessian":[7.56E2,6.88E2,6.8E1,5.04E2,1.84E2,2.6E1,4.2E1,3.23E2,1.81E2,1.14E2,7E1,2.5E1,1E0,1E1,3.2E1],"tree_param":{"num_deleted":"0","num_feature":"7","num_nodes":"15","size_leaf_vector":"1"}},{"base_weights":[-2.0398606E-2,5.4617447E-1,-5.6776223E0,1.1250818E0,-3.369213E0,-6.8558283E0,-4.805781E0,3.953657E-1,-4.268368E-1,-3.6480546E-1,-1.2129148E0,-1.4205992E0,-5.0216407E-1,-6.158835E-1,-1.0471212E0],"categories":[],"categories_nodes":[],"categories_segments":[],"categories_sizes":[],"default_left":[0,0,0,0,0,0,0,0,0,0,0,0,0,0,0],"id":4,"left_children":[1,3,5,7,9,11,13,-1,-1,-1,-1,-1,-1,-1,-1],"loss_changes":[2.4294604E3,1.56551E3,3.792993E1,1.672636E3,3.5960822E2,1.11623535E1,1.578479E1,0E0,0E0,0E0,0E0,0E0,0E0,0E0,0E0],"parents":[2147483647,0,0,1,1,2,2,3,3,4,4,5,5,6,6],"right_children":[2,4,6,8,10,12,14,-1,-1,-1,-1,-1,-1,-1,-1],"split_conditions":[1E1,1.0243E3,5E-1,1.01E1,1.0292E3,3.15E1,2E1,3.953657E-1,-4.268368E-1,-3.6480546E-1,-1.2129148E0,-1.4205992E0,-5.0216407E-1,-6.158835E-1,-1.0471212E0],"split_indices":[1,5,0,3,5,4,1,0,0,0,0,0,0,0,0],"split_type":[0,0,0,0,0,0,0,0,0,0,0,0,0,0,0],"sum_hessian":[7.56E2,6.88E2,6.8E1,6E2,8.8E1,2.6E1,4.2E1,4.76E2,1.24E2,5.7E1,3.1E1,2.4E1,2E0,1E1,3.2E1],"tree_param":{"num_deleted":"0","num_feature":"7","num_nodes":"15","size_leaf_vector":"1"}},{"base_weights":[-2.318145E-2,1.893292E0,-1.1521245E0,3.1067202E0,-4.0430066E-1,-2.518452E0,8.367102E-1,-4.2207304E-1,7.5116366E-1,5.8679044E-2,-9.9774545E-1,4.1549274E-1,-6.567061E-1,6.4093745E-1,-2.8898296E-1],"categories":[],"categories_nodes":[],"categories_segments":[],"categories_sizes":[],"default_left":[0,0,0,0,0,0,0,0,0,0,0,0,0,0,0],"id":5,"left_children":[1,3,5,7,9,11,13,-1,-1,-1,-1,-1,-1,-1,-1],"loss_changes":[1.6400186E3,7.846738E2,1.2983066E3,6.310237E2,3.1492014E2,1.00191626E3,1.0581835E3,0E0,0E0,0E0,0E0,0E0,0E0,0E0,0E0],"parents":[2147483647,0,0,1,1,2,2,3,3,4,4,5,5,6,6],"right_children":[2,4,6,8,10,12,14,-1,-1,-1,-1,-1,-1,-1,-1],"split_conditions":[5.9E0,1.0205E3,2.59E1,1.0081E3,1E-1,5.9E1,9.9E0,-4.2207304E-1,7.5116366E-1,5.8679044E-2,-9.9774545E-1,4.1549274E-1,-6.567061E-1,6.4093745E-1,-2.8898296E-1],"split_indices":[3,5,4,5,0,2,3,0,0,0,0,0,0,0,0],"split_type":[0,0,0,0,0,0,0,0,0,0,0,0,0,0,0],"sum_hessian":[7.56E2,2.8E2,4.76E2,1.83E2,9.7E1,2.82E2,1.94E2,2E1,1.63E2,8.5E1,1.2E1,4E1,2.42E2,9.5E1,9.9E1],"tree_param":{"num_deleted":"0","num_feature":"7","num_nodes":"15","size_leaf_vector":"1"}},{"base_weights":[-1.9204833E-2,3.964693E-1,-4.1696434E0,2.8471391E0,-2.4492422E-1,-5.1760454E0,-3.3560998E0,8.941504E-1,1.1825738E-1,1.6707864E-1,-4.0193006E-1,-8.337912E-1,-1.4597073E0,-5.0405014E-1,-9.92505E-1],"categories":[],"categories_nodes":[],"categories_segments":[],"categories_sizes":[],"default_left":[0,0,0,0,0,0,0,0,0,0,0,0,0,0,0],"id":6,"left_children":[1,3,5,7,9,11,13,-1,-1,-1,-1,-1,-1,-1,-1],"loss_changes":[1.3076523E3,1.0836978E3,3.912256E1,5.2111255E2,1.0445148E3,3.156134E1,4.2545074E1,0E0,0E0,0E0,0E0,0E0,0E0,0E0,0E0],"parents":[2147483647,0,0,1,1,2,2,3,3,4,4,5,5,6,6],"right_children":[2,4,6,8,10,12,14,-1,-1,-1,-1,-1,-1,-1,-1],"split_conditions":[1E1,6.2E1,2.05E2,1.0202E3,1.017E3,1.67E1,2.91E2,8.941504E-1,1.1825738E-1,1.6707864E-1,-4.0193006E-1,-8.337912E-1,-1.4597073E0,-5.0405014E-1,-9.92505E-1],"split_indices":[1,2,2,5,5,4,2,0,0,0,0,0,0,0,0],"split_type":[0,0,0,0,0,0,0,0,0,0,0,0,0,0,0],"sum_hessian":[7.56E2,6.88E2,6.8E1,1.42E2,5.46E2,2.8E1,4E1,8.2E1,6E1,3.39E2,2.07E2,2.1E1,7E0,2.8E1,1.2E1],"tree_param":{"num_deleted":"0","num_feature":"7","num_nodes":"15","size_leaf_vector":"1"}},{"base_weights":[-1.9343462E-2,1.1376102E0,-1.3326758E0,1.9639604E0,-2.3864691E0,-9.0144736E-1,-5.0145464E0,8.1600803E-1,1.8894666E-1,-2.71635E-1,-1.3092415E0,9.861909E-1,-2.3306869E-1,-3.9989161E-1,-1.1554697E0],"categories":[],"categories_nodes":[],"categories_segments":[],"categories_sizes":[],"default_left":[0,0,0,0,0,0,0,0,0,0,0,0,0,0,0],"id":7,"left_children":[1,3,5,7,9,11,13,-1,-1,-1,-1,-1,-1,-1,-1],"loss_changes":[1.1517509E3,1.178273E3,5.59123E2,7.0140784E2,3.2047168E2,4.967343E2,7.3545166E1,0E0,0E0,0E0,0E0,0E0,0E0,0E0,0E0],"parents":[2147483647,0,0,1,1,2,2,3,3,4,4,5,5,6,6],"right_children":[2,4,6,8,10,12,14,-1,-1,-1,-1,-1,-1,-1,-1],"split_conditions":[1E-1,1.025E3,1.0222E3,1.25E2,1.0335E3,7E0,8.3E1,8.1600803E-1,1.8894666E-1,-2.71635E-1,-1.3092415E0,9.861909E-1,-2.3306869E-1,-3.9989161E-1,-1.1554697E0],"split_indices":[0,5,5,2,5,2,2,0,0,0,0,0,0,0,0],"split_type":[0,0,0,0,0,0,0,0,0,0,0,0,0,0,0],"sum_hessian":[7.56E2,4.02E2,3.54E2,3.26E2,7.6E1,3.18E2,3.6E1,1.05E2,2.21E2,6.2E1,1.4E1,1.3E1,3.05E2,8E0,2.8E1],"tree_param":{"num_deleted":"0","num_feature":"7","num_nodes":"15","size_leaf_vector":"1"}},{"base_weights":[-1.729526E-2,2.7260067E0,-4.780081E-1,3.3496418E0,-3.134527E0,-1.125892E0,8.7222445E-1,9.2370665E-1,4.585681E-1,-7.488672E-1,2.963562E-1,2.2216533E-1,-3.4117582E-1,3.501734E-1,-5.627264E-1],"categories":[],"categories_nodes":[],"categories_segments":[],"categories_sizes":[],"default_left":[0,0,0,0,0,0,0,0,0,0,0,0,0,0,0],"id":8,"left_children":[1,3,5,7,9,11,13,-1,-1,-1,-1,-1,-1,-1,-1],"loss_changes":[9.5805597E2,4.088764E2,5.687233E2,1.2216614E2,3.6514E1,5.713955E2,6.8826044E2,0E0,0E0,0E0,0E0,0E0,0E0,0E0,0E0],"parents":[2147483647,0,0,1,1,2,2,3,3,4,4,5,5,6,6],"right_children":[2,4,6,8,10,12,14,-1,-1,-1,-1,-1,-1,-1,-1],"split_conditions":[3.9E0,1.0287E3,2.59E1,1.017E3,3.21E2,7.1E1,1.25E1,9.2370665E-1,4.585681E-1,-7.488672E-1,2.963562E-1,2.2216533E-1,-3.4117582E-1,3.501734E-1,-5.627264E-1],"split_indices":[3,5,4,5,2,2,3,0,0,0,0,0,0,0,0],"split_type":[0,0,0,0,0,0,0,0,0,0,0,0,0,0,0],"sum_hessian":[7.56E2,1.08E2,6.48E2,9.8E1,1E1,4.38E2,2.1E2,4.3E1,5.5E1,9E0,1E0,9E1,3.48E2,1.7E2,4E1],"tree_param":{"num_deleted":"0","num_feature":"7","num_nodes":"15","size_leaf_vector":"1"}},{"base_weights":[-1.30459145E-2,1.4805866E0,-6.759094E-1,7.351889E-1,3.0410886E0,2.0813565E-3,-2.2650983E0,2.8343722E-1,-8.151099E-1,7.0580494E-1,3.7067764E-2,2.2079952E-1,-3.3390945E-1,-8.035343E-2,-6.421635E-1],"categories":[],"categories_nodes":[],"categories_segments":[],"categories_sizes":[],"default_left":[0,0,0,0,0,0,0,0,0,0,0,0,0,0,0],"id":9,"left_children":[1,3,5,7,9,11,13,-1,-1,-1,-1,-1,-1,-1,-1],"loss_changes":[7.504871E2,2.6878854E2,5.656688E2,5.274404E2,1.0385272E2,6.815392E2,2.753736E2,0E0,0E0,0E0,0E0,0E0,0E0,0E0,0E0],"parents":[2147483647,0,0,1,1,2,2,3,3,4,4,5,5,6,6],"right_children":[2,4,6,8,10,12,14,-1,-1,-1,-1,-1,-1,-1,-1],"split_conditions":[5.4E0,1.85E1,1.0189E3,1.3E1,1.0232E3,1.2E0,9.1E1,2.8343722E-1,-8.151099E-1,7.0580494E-1,3.7067764E-2,2.2079952E-1,-3.3390945E-1,-8.035343E-2,-6.421635E-1],"split_indices":[3,4,5,4,5,0,2,0,0,0,0,0,0,0,0],"split_type":[0,0,0,0,0,0,0,0,0,0,0,0,0,0,0],"sum_hessian":[7.56E2,2.32E2,5.24E2,1.58E2,7.4E1,3.68E2,1.56E2,1.39E2,1.9E1,6.3E1,1.1E1,2.22E2,1.46E2,5.3E1,1.03E2],"tree_param":{"num_deleted":"0","num_feature":"7","num_nodes":"15","size_leaf_vector":"1"}},{"base_weights":[-1.1261729E-2,7.7779555E-1,-9.0697676E-1,1.1305209E0,-3.645441E0,-6.1096764E-1,-3.4345422E0,-1.1109492E0,2.546337E-1,-5.058341E-1,-1.1250132E0,-3.0707005E-1,1.04615204E-1,-1.1152481E0,-5.30289E-1],"categories":[],"categories_nodes":[],"categories_segments":[],"categories_sizes":[],"default_left":[0,0,0,0,0,0,0,0,0,0,0,0,0,0,0],"id":10,"left_children":[1,3,5,7,9,11,13,-1,-1,-1,-1,-1,-1,-1,-1],"loss_changes":[5.3573065E2,6.32877E2,2.6350638E2,3.6373212E2,5.206714E1,3.3520764E2,4.7269745E1,0E0,0E0,0E0,0E0,0E0,0E0,0E0,0E0],"parents":[2147483647,0,0,1,1,2,2,3,3,4,4,5,5,6,6],"right_children":[2,4,6,8,10,12,14,-1,-1,-1,-1,-1,-1,-1,-1],"split_conditions":[1E-1,1.0304E3,1.0222E3,1.0044E3,1.0357E3,2.22E1,3E-1,-1.1109492E0,2.546337E-1,-5.058341E-1,-1.1250132E0,-3.0707005E-1,1.04615204E-1,-1.1152481E0,-5.30289E-1],"split_indices":[0,5,5,5,5,4,0,0,0,0,0,0,0,0,0],"split_type":[0,0,0,0,0,0,0,0,0,0,0,0,0,0,0],"sum_hessian":[7.56E2,4.02E2,3.54E2,3.73E2,2.9E1,3.18E2,3.6E1,7E0,3.66E2,2E1,9E0,1.75E2,1.43E2,8E0,2.8E1],"tree_param":{"num_deleted":"0","num_feature":"7","num_nodes":"15","size_leaf_vector":"1"}},{"base_weights":[-1.4736093E-2,2.0914078E0,-3.0205896E-1,3.2610116E0,-1.6695558E-1,1.9624509E-1,-1.3650932E0,-3.3353528E-1,7.2856814E-1,1.7162432E-1,-4.4038644E-1,-3.388308E-1,1.6223067E-1,-3.9102398E-2,-4.1063267E-1],"categories":[],"categories_nodes":[],"categories_segments":[],"categories_sizes":[],"default_left":[0,0,0,0,0,0,0,0,0,0,0,0,0,0,0],"id":11,"left_children":[1,3,5,7,9,11,13,-1,-1,-1,-1,-1,-1,-1,-1],"loss_changes":[4.5872525E2,2.4091092E2,3.5358728E2,1.1899005E2,6.864178E1,5.3027625E2,1.710112E2,0E0,0E0,0E0,0E0,0E0,0E0,0E0,0E0],"parents":[2147483647,0,0,1,1,2,2,3,3,4,4,5,5,6,6],"right_children":[2,4,6,8,10,12,14,-1,-1,-1,-1,-1,-1,-1,-1],"split_conditions":[3.6E0,1.0228E3,1.0189E3,1.0034E3,1.0287E3,1.008E3,9.5E1,-3.3353528E-1,7.2856814E-1,1.7162432E-1,-4.4038644E-1,-3.388308E-1,1.6223067E-1,-3.9102398E-2,-4.1063267E-1],"split_indices":[3,5,5,5,5,5,2,0,0,0,0,0,0,0,0],"split_type":[0,0,0,0,0,0,0,0,0,0,0,0,0,0,0],"sum_hessian":[7.56E2,9E1,6.66E2,5.9E1,3.1E1,4.54E2,2.12E2,4E0,5.5E1,2.1E1,1E1,1.11E2,3.43E2,7.9E1,1.33E2],"tree_param":{"num_deleted":"0","num_feature":"7","num_nodes":"15","size_leaf_vector":"1"}},{"base_weights":[-1.2449542E-2,2.0859632E-1,-2.2195241E0,7.59739E-1,-6.289363E-1,-3.2983544E0,-1.2526271E0,5.496716E-2,3.9352998E-1,-3.7908286E-1,1.7474315E-1,-5.645203E-1,-9.779032E-1,-4.2984557E-1,-3.7272912E-3],"categories":[],"categories_nodes":[],"categories_segments":[],"categories_sizes":[],"default_left":[0,0,0,0,0,0,0,0,0,0,0,0,0,0,0],"id":12,"left_children":[1,3,5,7,9,11,13,-1,-1,-1,-1,-1,-1,-1,-1],"loss_changes":[3.697766E2,3.1852017E2,6.7843475E1,2.4311867E2,5.230988E2,1.0422852E1,4.200302E1,0E0,0E0,0E0,0E0,0E0,0E0,0E0,0E0],"parents":[2147483647,0,0,1,1,2,2,3,3,4,4,5,5,6,6],"right_children":[2,4,6,8,10,12,14,-1,-1,-1,-1,-1,-1,-1,-1],"split_conditions":[1E1,8E0,9E-1,2.22E1,2.78E1,2.95E2,1.02E1,5.496716E-2,3.9352998E-1,-3.7908286E-1,1.7474315E-1,-5.645203E-1,-9.779032E-1,-4.2984557E-1,-3.7272912E-3],"split_indices":[1,3,0,4,4,2,3,0,0,0,0,0,0,0,0],"split_type":[0,0,0,0,0,0,0,0,0,0,0,0,0,0,0],"sum_hessian":[7.56E2,6.88E2,6.8E1,4.15E2,2.73E2,3.1E1,3.7E1,2.97E2,1.18E2,1.48E2,1.25E2,2.6E1,5E0,2.1E1,1.6E1],"tree_param":{"num_deleted":"0","num_feature":"7","num_nodes":"15","size_leaf_vector":"1"}},{"base_weights":[-1.2247435E-2,1.4921992E0,-2.6490143E-1,2.2123146E0,-3.910693E-1,-4.2004558E-1,1.9873023E0,4.8110056E-1,-4.022679E-1,1.35305E-2,-1.4152724E0,-1.0041602E-2,-4.596637E-1,7.0017445E-1,-3.3168408E-1],"categories":[],"categories_nodes":[],"categories_segments":[],"categories_sizes":[],"default_left":[0,0,0,0,0,0,0,0,0,0,0,0,0,0,0],"id":13,"left_children":[1,3,5,7,9,11,13,-1,-1,-1,-1,-1,-1,-1,-1],"loss_changes":[2.8813434E2,1.4868779E2,2.2760593E2,6.929913E1,9.5546104E1,4.2223535E2,2.3756424E2,0E0,0E0,0E0,0E0,0E0,0E0,0E0,0E0],"parents":[2147483647,0,0,1,1,2,2,3,3,4,4,5,5,6,6],"right_children":[2,4,6,8,10,12,14,-1,-1,-1,-1,-1,-1,-1,-1],"split_conditions":[3.9E0,1.0238E3,3.7E1,1E1,3.7E0,1.06E1,1.48E1,4.8110056E-1,-4.022679E-1,1.35305E-2,-1.4152724E0,-1.0041602E-2,-4.596637E-1,7.0017445E-1,-3.3168408E-1],"split_indices":[3,5,4,1,3,3,3,0,0,0,0,0,0,0,0],"split_type":[0,0,0,0,0,0,0,0,0,0,0,0,0,0,0],"sum_hessian":[7.56E2,1.08E2,6.48E2,7.8E1,3E1,6.07E2,4.1E1,7.5E1,3E0,2.9E1,1E0,5.08E2,9.9E1,2.9E1,1.2E1],"tree_param":{"num_deleted":"0","num_feature":"7","num_nodes":"15","size_leaf_vector":"1"}},{"base_weights":[-1.1679206E-2,1.5087758E-1,-2.049236E0,8.145578E-1,-5.343383E-1,-7.555512E-1,-3.5128899E0,4.1402277E-1,4.032681E-2,-3.2498428E-1,7.442621E-3,6.6079706E-1,-3.723999E-1,-1.0338831E0,-6.91015E-2],"categories":[],"categories_nodes":[],"categories_segments":[],"categories_sizes":[],"default_left":[0,0,0,0,0,0,0,0,0,0,0,0,0,0,0],"id":14,"left_children":[1,3,5,7,9,11,13,-1,-1,-1,-1,-1,-1,-1,-1],"loss_changes":[2.5104176E2,3.1967975E2,1.0338222E2,2.7431555E2,2.1573068E2,1.4539368E2,1.3463202E2,0E0,0E0,0E0,0E0,0E0,0E0,0E0,0E0],"parents":[2147483647,0,0,1,1,2,2,3,3,4,4,5,5,6,6],"right_children":[2,4,6,8,10,12,14,-1,-1,-1,-1,-1,-1,-1,-1],"split_conditions":[1.0283E3,1E-1,1.3E1,1.25E2,1.75E2,3.7E1,2.14E2,4.1402277E-1,4.032681E-2,-3.2498428E-1,7.442621E-3,6.6079706E-1,-3.723999E-1,-1.0338831E0,-6.91015E-2],"split_indices":[5,0,4,2,2,2,2,0,0,0,0,0,0,0,0],"split_type":[0,0,0,0,0,0,0,0,0,0,0,0,0,0,0],"sum_hessian":[7.56E2,7.01E2,5.5E1,3.56E2,3.45E2,3E1,2.5E1,1.16E2,2.4E2,1.18E2,2.27E2,6E0,2.4E1,1.6E1,9E0],"tree_param":{"num_deleted":"0","num_feature":"7","num_nodes":"15","size_leaf_vector":"1"}},{"base_weights":[-1.02387015E-2,3.2495254E-1,-8.351604E-1,2.3906512E0,-4.0290453E-2,-1.0489292E0,1.0321271E0,-1.21267356E-1,7.970812E-1,6.907173E-2,-3.1648982E-1,-1.5877736E-1,-6.08318E-1,4.8684892E-1,-2.838833E-1],"categories":[],"categories_nodes":[],"categories_segments":[],"categories_sizes":[],"default_left":[0,0,0,0,0,0,0,0,0,0,0,0,0,0,0],"id":15,"left_children":[1,3,5,7,9,11,13,-1,-1,-1,-1,-1,-1,-1,-1],"loss_changes":[2.0958682E2,4.0676212E2,8.850038E1,3.895528E2,2.7352853E2,9.770328E1,8.251431E1,0E0,0E0,0E0,0E0,0E0,0E0,0E0,0E0],"parents":[2147483647,0,0,1,1,2,2,3,3,4,4,5,5,6,6],"right_children":[2,4,6,8,10,12,14,-1,-1,-1,-1,-1,-1,-1,-1],"split_conditions":[1.0203E3,6E1,3.21E2,1.0142E3,1.0168E3,2.93E2,3.44E2,-1.21267356E-1,7.970812E-1,6.907173E-2,-3.1648982E-1,-1.5877736E-1,-6.08318E-1,4.8684892E-1,-2.838833E-1],"split_indices":[5,2,2,5,5,2,2,0,0,0,0,0,0,0,0],"split_type":[0,0,0,0,0,0,0,0,0,0,0,0,0,0,0],"sum_hessian":[7.56E2,5.38E2,2.18E2,8E1,4.58E2,1.96E2,2.2E1,2.8E1,5.2E1,3.67E2,9.1E1,1.75E2,2.1E1,1.4E1,8E0],"tree_param":{"num_deleted":"0","num_feature":"7","num_nodes":"15","size_leaf_vector":"1"}},{"base_weights":[-8.37012E-3,1.3348135E0,-1.916105E-1,2.0756843E0,-9.6032605E-2,-5.502181E-1,5.859975E-1,-3.1015834E-1,4.724822E-1,1.3385963E-1,-4.2524886E-1,-1.4475358E-2,-2.7908278E-1,3.2806188E-1,-1.6446583E-1],"categories":[],"categories_nodes":[],"categories_segments":[],"categories_sizes":[],"default_left":[0,0,0,0,0,0,0,0,0,0,0,0,0,0,0],"id":16,"left_children":[1,3,5,7,9,11,13,-1,-1,-1,-1,-1,-1,-1,-1],"loss_changes":[1.8657274E2,9.666589E1,1.8631949E2,6.605206E1,5.1144165E1,1.8446735E2,3.1464496E2,0E0,0E0,0E0,0E0,0E0,0E0,0E0,0E0],"parents":[2147483647,0,0,1,1,2,2,3,3,4,4,5,5,6,6],"right_children":[2,4,6,8,10,12,14,-1,-1,-1,-1,-1,-1,-1,-1],"split_conditions":[3.6E0,1.0228E3,2.59E1,1.0034E3,1.3E1,1.3E1,1.03E1,-3.1015834E-1,4.724822E-1,1.3385963E-1,-4.2524886E-1,-1.4475358E-2,-2.7908278E-1,3.2806188E-1,-1.6446583E-1],"split_indices":[3,5,4,5,4,4,3,0,0,0,0,0,0,0,0],"split_type":[0,0,0,0,0,0,0,0,0,0,0,0,0,0,0],"sum_hessian":[7.56E2,9E1,6.66E2,5.9E1,3.1E1,4.56E2,2.1E2,4E0,5.5E1,2.3E1,8E0,2.92E2,1.64E2,1.2E2,9E1],"tree_param":{"num_deleted":"0","num_feature":"7","num_nodes":"15","size_leaf_vector":"1"}},{"base_weights":[-7.0382184E-3,2.3262526E-1,-9.784273E-1,4.970347E-1,-1.2557693E0,-3.2323322E0,3.9871112E-1,2.4034071E-1,-9.499463E-2,-4.2415047E-1,2.5667614E-1,5.981017E-1,-7.776384E-1,-1.6812257E-1,4.6613184E-1],"categories":[],"categories_nodes":[],"categories_segments":[],"categories_sizes":[],"default_left":[0,0,0,0,0,0,0,0,0,0,0,0,0,0,0],"id":17,"left_children":[1,3,5,7,9,11,13,-1,-1,-1,-1,-1,-1,-1,-1],"loss_changes":[1.7646211E2,2.3989986E2,4.6687967E2,3.5468665E2,2.0478331E2,2.4426233E2,2.2702426E2,0E0,0E0,0E0,0E0,0E0,0E0,0E0,0E0],"parents":[2147483647,0,0,1,1,2,2,3,3,4,4,5,5,6,6],"right_children":[2,4,6,8,10,12,14,-1,-1,-1,-1,-1,-1,-1,-1],"split_conditions":[2.5E0,1.06E1,1.95E2,1.0189E3,3.7E1,2E0,2.59E1,2.4034071E-1,-9.499463E-2,-4.2415047E-1,2.5667614E-1,5.981017E-1,-7.776384E-1,-1.6812257E-1,4.6613184E-1],"split_indices":[0,3,2,5,4,2,4,0,0,0,0,0,0,0,0],"split_type":[0,0,0,0,0,0,0,0,0,0,0,0,0,0,0],"sum_hessian":[7.56E2,6.07E2,1.49E2,5.16E2,9.1E1,5.6E1,9.3E1,2.99E2,2.17E2,6.8E1,2.3E1,5E0,5.1E1,5.7E1,3.6E1],"tree_param":{"num_deleted":"0","num_feature":"7","num_nodes":"15","size_leaf_vector":"1"}},{"base_weights":[-5.5034147E-3,7.229414E-1,-2.773406E-1,-4.378731E0,1.1177442E0,-2.0620575E0,1.5145324E-1,-3.2281706E-1,-1.4615484E0,4.4951794E-1,-5.4339346E-2,-1.8521468E-1,-7.7362555E-1,5.8308005E-1,-3.6286246E-2],"categories":[],"categories_nodes":[],"categories_segments":[],"categories_sizes":[],"default_left":[0,0,0,0,0,0,0,0,0,0,0,0,0,0,0],"id":18,"left_children":[1,3,5,7,9,11,13,-1,-1,-1,-1,-1,-1,-1,-1],"loss_changes":[1.5010042E2,4.1981012E2,4.2274445E2,1.0966989E2,3.0202252E2,2.1594626E2,4.1088248E2,0E0,0E0,0E0,0E0,0E0,0E0,0E0,0E0],"parents":[2147483647,0,0,1,1,2,2,3,3,4,4,5,5,6,6],"right_children":[2,4,6,8,10,12,14,-1,-1,-1,-1,-1,-1,-1,-1],"split_conditions":[1.02E2,1.0094E3,1.75E2,1.0066E3,1.0203E3,2E-1,2.02E2,-3.2281706E-1,-1.4615484E0,4.4951794E-1,-5.4339346E-2,-1.8521468E-1,-7.7362555E-1,5.8308005E-1,-3.6286246E-2],"split_indices":[2,5,2,5,5,0,2,0,0,0,0,0,0,0,0],"split_type":[0,0,0,0,0,0,0,0,0,0,0,0,0,0,0],"sum_hessian":[7.56E2,2.05E2,5.51E2,1.4E1,1.91E2,1.06E2,4.45E2,8E0,6E0,1.05E2,8.6E1,6.6E1,4E1,4.7E1,3.98E2],"tree_param":{"num_deleted":"0","num_feature":"7","num_nodes":"15","size_leaf_vector":"1"}},{"base_weights":[-6.78227E-3,6.405313E-1,-2.940533E-1,7.1876034E-2,1.8375401E0,-7.3216337E-1,3.989148E-1,1.08363785E-1,-6.442636E-1,4.3126997E-1,-9.007176E-2,6.103638E-3,-4.754924E-1,1.8270025E-1,-3.3383206E-1],"categories":[],"categories_nodes":[],"categories_segments":[],"categories_sizes":[],"default_left":[0,0,0,0,0,0,0,0,0,0,0,0,0,0,0],"id":19,"left_children":[1,3,5,7,9,11,13,-1,-1,-1,-1,-1,-1,-1,-1],"loss_changes":[1.4095586E2,1.5846762E2,1.5968011E2,2.4781586E2,5.5676483E1,4.0413065E2,2.1862224E2,0E0,0E0,0E0,0E0,0E0,0E0,0E0,0E0],"parents":[2147483647,0,0,1,1,2,2,3,3,4,4,5,5,6,6],"right_children":[2,4,6,8,10,12,14,-1,-1,-1,-1,-1,-1,-1,-1],"split_conditions":[5.4E0,1.85E1,2.59E1,1.3E1,2.2E0,1.3E1,1.25E1,1.08363785E-1,-6.442636E-1,4.3126997E-1,-9.007176E-2,6.103638E-3,-4.754924E-1,1.8270025E-1,-3.3383206E-1],"split_indices":[3,4,4,4,0,4,3,0,0,0,0,0,0,0,0],"split_type":[0,0,0,0,0,0,0,0,0,0,0,0,0,0,0],"sum_hessian":[7.56E2,2.32E2,5.24E2,1.58E2,7.4E1,3.21E2,2.03E2,1.39E2,1.9E1,6.5E1,9E0,2.2E2,1.01E2,1.63E2,4E1],"tree_param":{"num_deleted":"0","num_feature":"7","num_nodes":"15","size_leaf_vector":"1"}},{"base_weights":[-6.5028244E-3,-2.4996996E0,6.8030916E-2,-3.4110563E0,-5.9499044E-2,1.856636E-1,-1.1915319E0,-9.085371E-1,-2.5870514E-3,-1.2637818E-1,1.8286408E-1,4.73809E-2,-6.4808446E-1,-4.1860124E-1,-6.1717074E-2],"categories":[],"categories_nodes":[],"categories_segments":[],"categories_sizes":[],"default_left":[0,0,0,0,0,0,0,0,0,0,0,0,0,0,0],"id":20,"left_children":[1,3,5,7,9,11,13,-1,-1,-1,-1,-1,-1,-1,-1],"loss_changes":[1.4084131E2,4.8722687E1,1.09271225E2,6.146785E1,4.479595E0,1.1909222E2,4.94992E1,0E0,0E0,0E0,0E0,0E0,0E0,0E0,0E0],"parents":[2147483647,0,0,1,1,2,2,3,3,4,4,5,5,6,6],"right_children":[2,4,6,8,10,12,14,-1,-1,-1,-1,-1,-1,-1,-1],"split_conditions":[1.0002E3,1E1,1E1,1.57E1,2.2E2,1.035E3,9E-1,-9.085371E-1,-2.5870514E-3,-1.2637818E-1,1.8286408E-1,4.73809E-2,-6.4808446E-1,-4.1860124E-1,-6.1717074E-2],"split_indices":[5,1,1,3,2,5,0,0,0,0,0,0,0,0,0],"split_type":[0,0,0,0,0,0,0,0,0,0,0,0,0,0,0],"sum_hessian":[7.56E2,2.1E1,7.35E2,1.5E1,6E0,6.73E2,6.2E1,1.1E1,4E0,4E0,2E0,6.64E2,9E0,3E1,3.2E1],"tree_param":{"num_deleted":"0","num_feature":"7","num_nodes":"15","size_leaf_vector":"1"}},{"base_weights":[-7.758931E-3,9.6435577E-1,-1.4037465E-1,-9.9059016E-1,1.3326653E0,-1.7110962E0,-1.8543983E-2,-6.534488E-1,9.4892256E-2,4.293703E-1,1.59207E-1,-1.3572237E-1,-1.0244613E0,6.390946E-1,-3.0665804E-2],"categories":[],"categories_nodes":[],"categories_segments":[],"categories_sizes":[],"default_left":[0,0,0,0,0,0,0,0,0,0,0,0,0,0,0],"id":21,"left_children":[1,3,5,7,9,11,13,-1,-1,-1,-1,-1,-1,-1,-1],"loss_changes":[9.772607E1,6.684242E1,1.27606766E2,5.1581413E1,3.193364E1,1.6558095E2,2.690748E2,0E0,0E0,0E0,0E0,0E0,0E0,0E0,0E0],"parents":[2147483647,0,0,1,1,2,2,3,3,4,4,5,5,6,6],"right_children":[2,4,6,8,10,12,14,-1,-1,-1,-1,-1,-1,-1,-1],"split_conditions":[3.6E0,1.7E0,4.2E0,6.4E1,1.0166E3,4.1E0,4.5E0,-6.534488E-1,9.4892256E-2,4.293703E-1,1.59207E-1,-1.3572237E-1,-1.0244613E0,6.390946E-1,-3.0665804E-2],"split_indices":[3,3,3,2,5,3,3,0,0,0,0,0,0,0,0],"split_type":[0,0,0,0,0,0,0,0,0,0,0,0,0,0,0],"sum_hessian":[7.56E2,9E1,6.66E2,1.4E1,7.6E1,4.7E1,6.19E2,5E0,9E0,2.9E1,4.7E1,3.7E1,1E1,2.4E1,5.95E2],"tree_param":{"num_deleted":"0","num_feature":"7","num_nodes":"15","size_leaf_vector":"1"}},{"base_weights":[-6.896428E-3,-9.415167E-2,1.4807619E0,1.9159456E-1,-9.461048E-1,3.5039213E0,-3.4288812E-1,-2.1884935E-2,1.7068262E-1,2.8971344E-1,-2.6122865E-1,8.839926E-1,-2.5639152E-2,1.8051815E-1,-5.5819696E-1],"categories":[],"categories_nodes":[],"categories_segments":[],"categories_sizes":[],"default_left":[0,0,0,0,0,0,0,0,0,0,0,0,0,0,0],"id":22,"left_children":[1,3,5,7,9,11,13,-1,-1,-1,-1,-1,-1,-1,-1],"loss_changes":[9.840254E1,1.7448602E2,1.5616191E2,1.0707459E2,1.570833E2,6.711005E1,7.264733E1,0E0,0E0,0E0,0E0,0E0,0E0,0E0,0E0],"parents":[2147483647,0,0,1,1,2,2,3,3,4,4,5,5,6,6],"right_children":[2,4,6,8,10,12,14,-1,-1,-1,-1,-1,-1,-1,-1],"split_conditions":[3.7E1,9.1E0,3.89E1,2.22E1,8.8E1,1.35E1,1.61E1,-2.1884935E-2,1.7068262E-1,2.8971344E-1,-2.6122865E-1,8.839926E-1,-2.5639152E-2,1.8051815E-1,-5.5819696E-1],"split_indices":[4,3,4,4,2,3,3,0,0,0,0,0,0,0,0],"split_type":[0,0,0,0,0,0,0,0,0,0,0,0,0,0,0],"sum_hessian":[7.56E2,7.15E2,4.1E1,5.36E2,1.79E2,1.9E1,2.2E1,3.69E2,1.67E2,2.3E1,1.56E2,1.5E1,4E0,1.5E1,7E0],"tree_param":{"num_deleted":"0","num_feature":"7","num_nodes":"15","size_leaf_vector":"1"}},{"base_weights":[-4.64806E-3,-1.8245388E0,4.9757164E-2,-8.33817E-1,-3.8283973E0,3.7148944E-1,-3.1396273E-1,-2.1347001E-2,-7.8978544E-1,-1.0416931E0,-5.0430246E-2,4.404224E-2,5.7976574E-1,1.3438281E-1,-1.7918167E-1],"categories":[],"categories_nodes":[],"categories_segments":[],"categories_sizes":[],"default_left":[0,0,0,0,0,0,0,0,0,0,0,0,0,0,0],"id":23,"left_children":[1,3,5,7,9,11,13,-1,-1,-1,-1,-1,-1,-1,-1],"loss_changes":[7.5042534E1,4.048368E1,8.624367E1,3.581756E1,3.3234917E1,1.4885321E2,1.9911139E2,0E0,0E0,0E0,0E0,0E0,0E0,0E0,0E0],"parents":[2147483647,0,0,1,1,2,2,3,3,4,4,5,5,6,6],"right_children":[2,4,6,8,10,12,14,-1,-1,-1,-1,-1,-1,-1,-1],"split_conditions":[1.0002E3,9.979E2,1.0168E3,2.93E2,1.18E1,3.49E2,9.5E1,-2.1347001E-2,-7.8978544E-1,-1.0416931E0,-5.0430246E-2,4.404224E-2,5.7976574E-1,1.3438281E-1,-1.7918167E-1],"split_indices":[5,5,5,2,3,2,2,0,0,0,0,0,0,0,0],"split_type":[0,0,0,0,0,0,0,0,0,0,0,0,0,0,0],"sum_hessian":[7.56E2,2.1E1,7.35E2,1.5E1,6E0,3.9E2,3.45E2,1.3E1,2E0,4E0,2E0,3.69E2,2.1E1,1.28E2,2.17E2],"tree_param":{"num_deleted":"0","num_feature":"7","num_nodes":"15","size_leaf_vector":"1"}},{"base_weights":[-5.467867E-3,2.9965043E-1,-3.518262E-1,-2.7012565E0,4.0660697E-1,-2.6278696E0,-1.6396907E-1,-2.2166646E-1,-1.2812967E0,3.8444462E-1,2.2851625E-2,-7.888531E-1,3.3934566E-1,-2.1681014E-1,6.710659E-2],"categories":[],"categories_nodes":[],"categories_segments":[],"categories_sizes":[],"default_left":[0,0,0,0,0,0,0,0,0,0,0,0,0,0,0],"id":24,"left_children":[1,3,5,7,9,11,13,-1,-1,-1,-1,-1,-1,-1,-1],"loss_changes":[8.010539E1,1.3044788E2,1.5135681E2,7.552953E1,1.7258493E2,1.6040019E2,1.515664E2,0E0,0E0,0E0,0E0,0E0,0E0,0E0,0E0],"parents":[2147483647,0,0,1,1,2,2,3,3,4,4,5,5,6,6],"right_children":[2,4,6,8,10,12,14,-1,-1,-1,-1,-1,-1,-1,-1],"split_conditions":[1E-1,1.0072E3,2E-1,1.0063E3,1.0129E3,2.78E1,1.75E2,-2.2166646E-1,-1.2812967E0,3.8444462E-1,2.2851625E-2,-7.888531E-1,3.3934566E-1,-2.1681014E-1,6.710659E-2],"split_indices":[0,5,0,5,5,4,2,0,0,0,0,0,0,0,0],"split_type":[0,0,0,0,0,0,0,0,0,0,0,0,0,0,0],"sum_hessian":[7.56E2,4.02E2,3.54E2,1.3E1,3.89E2,2.6E1,3.28E2,1E1,3E0,6.2E1,3.27E2,2E1,6E0,1.15E2,2.13E2],"tree_param":{"num_deleted":"0","num_feature":"7","num_nodes":"15","size_leaf_vector":"1"}},{"base_weights":[-6.613289E-3,-4.3789852E-2,2.3050807E0,4.2731933E-2,-5.8289027E0,7.350132E-1,3.7526462E0,1.2008201E-1,-3.272524E-2,7.3816454E-1,-1.4299916E0,3.228615E-2,4.176508E-1,1.7721958E-1,8.297472E-1],"categories":[],"categories_nodes":[],"categories_segments":[],"categories_sizes":[],"default_left":[0,0,0,0,0,0,0,0,0,0,0,0,0,0,0],"id":25,"left_children":[1,3,5,7,9,11,13,-1,-1,-1,-1,-1,-1,-1,-1],"loss_changes":[6.515815E1,3.7365067E2,2.4515057E1,8.479816E1,1.6472607E2,5.096258E0,3.1362762E0,0E0,0E0,0E0,0E0,0E0,0E0,0E0,0E0],"parents":[2147483647,0,0,1,1,2,2,3,3,4,4,5,5,6,6],"right_children":[2,4,6,8,10,12,14,-1,-1,-1,-1,-1,-1,-1,-1],"split_conditions":[1.91E1,1.55E1,1.0083E3,1.02E2,2E0,5E1,4.1E0,1.2008201E-1,-3.272524E-2,7.3816454E-1,-1.4299916E0,3.228615E-2,4.176508E-1,1.7721958E-1,8.297472E-1],"split_indices":[0,0,5,2,2,0,3,0,0,0,0,0,0,0,0],"split_type":[0,0,0,0,0,0,0,0,0,0,0,0,0,0,0],"sum_hessian":[7.56E2,7.45E2,1.1E1,7.35E2,1E1,6E0,5E0,1.98E2,5.37E2,1E0,9E0,5E0,1E0,1E0,4E0],"tree_param":{"num_deleted":"0","num_feature":"7","num_nodes":"15","size_leaf_vector":"1"}},{"base_weights":[-4.1647633E-3,7.443287E-1,-1.0627681E-1,-9.410717E-1,1.0629869E0,-1.4176079E0,-4.5829946E-3,-5.871126E-1,6.994607E-2,1.5269098E-1,4.712696E-1,-5.24679E-1,8.0332756E-2,1.0095017E0,-1.2434532E-2],"categories":[],"categories_nodes":[],"categories_segments":[],"categories_sizes":[],"default_left":[0,0,0,0,0,0,0,0,0,0,0,0,0,0,0],"id":26,"left_children":[1,3,5,7,9,11,13,-1,-1,-1,-1,-1,-1,-1,-1],"loss_changes":[5.7936768E1,4.9873405E1,8.894079E1,3.9644062E1,2.803106E1,1.0634913E2,1.8070172E2,0E0,0E0,0E0,0E0,0E0,0E0,0E0,0E0],"parents":[2147483647,0,0,1,1,2,2,3,3,4,4,5,5,6,6],"right_children":[2,4,6,8,10,12,14,-1,-1,-1,-1,-1,-1,-1,-1],"split_conditions":[3.6E0,1.7E0,4.2E0,6.4E1,1.85E1,1.48E1,4.3E0,-5.871126E-1,6.994607E-2,1.5269098E-1,4.712696E-1,-5.24679E-1,8.0332756E-2,1.0095017E0,-1.2434532E-2],"split_indices":[3,3,3,2,4,4,3,0,0,0,0,0,0,0,0],"split_type":[0,0,0,0,0,0,0,0,0,0,0,0,0,0,0],"sum_hessian":[7.56E2,9E1,6.66E2,1.4E1,7.6E1,4.7E1,6.19E2,5E0,9E0,6.3E1,1.3E1,2.8E1,1.9E1,6E0,6.13E2],"tree_param":{"num_deleted":"0","num_feature":"7","num_nodes":"15","size_leaf_vector":"1"}},{"base_weights":[-2.4605142E-3,2.9285747E-1,-2.6957613E-1,-8.155016E-1,5.128199E-1,-3.0224307E0,1.5288302E-1,-4.6913615E-1,-4.115237E-2,2.2527449E-1,-4.2071838E-2,-2.453848E-1,-1.0622103E0,2.2301789E-1,-9.211278E-2],"categories":[],"categories_nodes":[],"categories_segments":[],"categories_sizes":[],"default_left":[0,0,0,0,0,0,0,0,0,0,0,0,0,0,0],"id":27,"left_children":[1,3,5,7,9,11,13,-1,-1,-1,-1,-1,-1,-1,-1],"loss_changes":[5.979417E1,8.818524E1,4.6332355E2,5.5498013E1,1.3379318E2,2.1127313E2,2.0474443E2,0E0,0E0,0E0,0E0,0E0,0E0,0E0,0E0],"parents":[2147483647,0,0,1,1,2,2,3,3,4,4,5,5,6,6],"right_children":[2,4,6,8,10,12,14,-1,-1,-1,-1,-1,-1,-1,-1],"split_conditions":[1.3E1,1.0073E3,2.04E1,6.8E0,1.0181E3,5.4E0,7.2E0,-4.6913615E-1,-4.115237E-2,2.2527449E-1,-4.2071838E-2,-2.453848E-1,-1.0622103E0,2.2301789E-1,-9.211278E-2],"split_indices":[4,5,4,3,5,3,3,0,0,0,0,0,0,0,0],"split_type":[0,0,0,0,0,0,0,0,0,0,0,0,0,0,0],"sum_hessian":[7.56E2,3.59E2,3.97E2,5.9E1,3E2,5.2E1,3.45E2,1.6E1,4.3E1,1.62E2,1.38E2,3E1,2.2E1,1.34E2,2.11E2],"tree_param":{"num_deleted":"0","num_feature":"7","num_nodes":"15","size_leaf_vector":"1"}},{"base_weights":[-3.9549517E-3,-1.1888838E-1,7.701269E-1,1.4695069E-1,-8.6224896E-1,1.8502436E0,-9.1133803E-1,6.8399414E-2,-1.9640498E-1,1.12753905E-1,-3.2354608E-1,9.950552E-1,2.2514632E-1,3.3385238E-1,-3.9695233E-1],"categories":[],"categories_nodes":[],"categories_segments":[],"categories_sizes":[],"default_left":[0,0,0,0,0,0,0,0,0,0,0,0,0,0,0],"id":28,"left_children":[1,3,5,7,9,11,13,-1,-1,-1,-1,-1,-1,-1,-1],"loss_changes":[6.744025E1,1.3055215E2,1.7967168E2,1.0757451E2,1.8836751E2,1.3024658E2,1.1134607E2,0E0,0E0,0E0,0E0,0E0,0E0,0E0,0E0],"parents":[2147483647,0,0,1,1,2,2,3,3,4,4,5,5,6,6],"right_children":[2,4,6,8,10,12,14,-1,-1,-1,-1,-1,-1,-1,-1],"split_conditions":[3.15E1,8.6E0,1.25E1,2.5E0,2.06E2,1.0073E3,1E-1,6.8399414E-2,-1.9640498E-1,1.12753905E-1,-3.2354608E-1,9.950552E-1,2.2514632E-1,3.3385238E-1,-3.9695233E-1],"split_indices":[4,3,3,0,2,5,0,0,0,0,0,0,0,0,0],"split_type":[0,0,0,0,0,0,0,0,0,0,0,0,0,0,0],"sum_hessian":[7.56E2,6.59E2,9.7E1,4.86E2,1.73E2,5.9E1,3.8E1,4.15E2,7.1E1,6E1,1.13E2,1E1,4.9E1,1.1E1,2.7E1],"tree_param":{"num_deleted":"0","num_feature":"7","num_nodes":"15","size_leaf_vector":"1"}},{"base_weights":[-2.0829565E-3,-3.608564E-2,2.111924E0,3.2116685E-2,-4.5961604E0,1.2404267E0,8.6258805E-1,7.322315E-2,-4.02282E-2,6.635274E-1,-1.1438608E0,-8.091412E-2,2.936313E-1],"categories":[],"categories_nodes":[],"categories_segments":[],"categories_sizes":[],"default_left":[0,0,0,0,0,0,0,0,0,0,0,0,0],"id":29,"left_children":[1,3,5,7,9,11,-1,-1,-1,-1,-1,-1,-1],"loss_changes":[5.449081E1,2.3215935E2,1.7668274E1,5.741382E1,1.1674623E2,4.3401203E0,0E0,0E0,0E0,0E0,0E0,0E0,0E0],"parents":[2147483647,0,0,1,1,2,2,3,3,4,4,5,5],"right_children":[2,4,6,8,10,12,-1,-1,-1,-1,-1,-1,-1],"split_conditions":[1.91E1,1.55E1,1.0133E3,1.0145E3,2E0,2.31E1,8.6258805E-1,7.322315E-2,-4.02282E-2,6.635274E-1,-1.1438608E0,-8.091412E-2,2.936313E-1],"split_indices":[0,0,5,5,2,0,0,0,0,0,0,0,0],"split_type":[0,0,0,0,0,0,0,0,0,0,0,0,0],"sum_hessian":[7.56E2,7.45E2,1.1E1,7.35E2,1E1,9E0,2E0,3.02E2,4.33E2,1E0,9E0,1E0,8E0],"tree_param":{"num_deleted":"0","num_feature":"7","num_nodes":"13","size_leaf_vector":"1"}},{"base_weights":[-8.3692523E-4,2.744296E-1,-2.498196E-1,6.611067E-1,-1.568165E-1,-3.6267765E0,-1.3758752E-2,1.2082784E-2,4.9749222E-1,9.933611E-2,-2.2601078E-1,-9.8538905E-1,1.2122053E-1,1.3276057E-1,-9.759786E-2],"categories":[],"categories_nodes":[],"categories_segments":[],"categories_sizes":[],"default_left":[0,0,0,0,0,0,0,0,0,0,0,0,0,0,0],"id":30,"left_children":[1,3,5,7,9,11,13,-1,-1,-1,-1,-1,-1,-1,-1],"loss_changes":[5.1950756E1,6.013475E1,3.172227E2,2.0829448E2,1.093186E2,1.4607614E2,1.2017644E2,0E0,0E0,0E0,0E0,0E0,0E0,0E0,0E0],"parents":[2147483647,0,0,1,1,2,2,3,3,4,4,5,5,6,6],"right_children":[2,4,6,8,10,12,14,-1,-1,-1,-1,-1,-1,-1,-1],"split_conditions":[1.3E1,2.2E2,1.85E1,1.75E2,8.4E0,6E-1,7.2E0,1.2082784E-2,4.9749222E-1,9.933611E-2,-2.2601078E-1,-9.8538905E-1,1.2122053E-1,1.3276057E-1,-9.759786E-2],"split_indices":[4,2,4,2,3,0,3,0,0,0,0,0,0,0,0],"split_type":[0,0,0,0,0,0,0,0,0,0,0,0,0,0,0],"sum_hessian":[7.56E2,3.59E2,3.97E2,1.89E2,1.7E2,2.5E1,3.72E2,1.43E2,4.6E1,1.02E2,6.8E1,1.9E1,6E0,1.53E2,2.19E2],"tree_param":{"num_deleted":"0","num_feature":"7","num_nodes":"15","size_leaf_vector":"1"}},{"base_weights":[-1.2589485E-3,-6.832515E-2,1.1420901E0,2.206072E-1,-3.5949412E-1,-2.8853872E0,1.7643272E0,9.119087E-2,-7.2618596E-2,-4.3466258E-1,-8.625458E-3,5.377967E-2,-9.0595096E-1,9.8214483E-1,1.15520455E-1],"categories":[],"categories_nodes":[],"categories_segments":[],"categories_sizes":[],"default_left":[0,0,0,0,0,0,0,0,0,0,0,0,0,0,0],"id":31,"left_children":[1,3,5,7,9,11,13,-1,-1,-1,-1,-1,-1,-1,-1],"loss_changes":[5.8124847E1,6.0315056E1,1.10344696E2,4.961953E1,2.0476434E2,3.2338867E1,1.3531815E2,0E0,0E0,0E0,0E0,0E0,0E0,0E0,0E0],"parents":[2147483647,0,0,1,1,2,2,3,3,4,4,5,5,6,6],"right_children":[2,4,6,8,10,12,14,-1,-1,-1,-1,-1,-1,-1,-1],"split_conditions":[3.7E1,1.3E1,1.84E2,1.02E3,2.04E1,3.89E1,2.64E2,9.119087E-2,-7.2618596E-2,-4.3466258E-1,-8.625458E-3,5.377967E-2,-9.0595096E-1,9.8214483E-1,1.15520455E-1],"split_indices":[4,4,2,5,4,4,2,0,0,0,0,0,0,0,0],"split_type":[0,0,0,0,0,0,0,0,0,0,0,0,0,0,0],"sum_hessian":[7.56E2,7.15E2,4.1E1,3.59E2,3.56E2,5E0,3.6E1,2.56E2,1.03E2,5.2E1,3.04E2,2E0,3E0,9E0,2.7E1],"tree_param":{"num_deleted":"0","num_feature":"7","num_nodes":"15","size_leaf_vector":"1"}},{"base_weights":[-1.2440676E-3,-1.2048039E-1,5.440959E-1,-4.3617032E-2,-2.5575848E0,1.097141E0,3.913851E-1,-1.8761082E-2,3.866734E-1,-1.0034338E0,-2.6415858E-1,2.1663018E-1,-8.8576354E-2],"categories":[],"categories_nodes":[],"categories_segments":[],"categories_sizes":[],"default_left":[0,0,0,0,0,0,0,0,0,0,0,0,0],"id":32,"left_children":[1,3,5,7,9,-1,11,-1,-1,-1,-1,-1,-1],"loss_changes":[4.928897E1,1.16403984E2,1.004836E2,6.0111214E1,5.117124E1,0E0,7.72363E1,0E0,0E0,0E0,0E0,0E0,0E0],"parents":[2147483647,0,0,1,1,2,2,3,3,4,4,6,6],"right_children":[2,4,6,8,10,-1,12,-1,-1,-1,-1,-1,-1],"split_conditions":[3.08E2,3E2,3.09E2,2.97E2,6.6E0,1.097141E0,8.4E0,-1.8761082E-2,3.866734E-1,-1.0034338E0,-2.6415858E-1,2.1663018E-1,-8.8576354E-2],"split_indices":[2,2,2,2,3,0,3,0,0,0,0,0,0],"split_type":[0,0,0,0,0,0,0,0,0,0,0,0,0],"sum_hessian":[7.56E2,6.21E2,1.35E2,6.03E2,1.8E1,3E0,1.32E2,5.89E2,1.4E1,5E0,1.3E1,7.2E1,6E1],"tree_param":{"num_deleted":"0","num_feature":"7","num_nodes":"13","size_leaf_vector":"1"}},{"base_weights":[-5.654956E-4,3.76844E-1,-1.5588567E-1,-2.9642484E0,6.877007E-1,-1.7540811E0,1.7413646E-1,-7.622947E-1,5.649554E-1,3.120321E-1,-7.6379865E-2,2.3382302E-1,-4.587492E-1,4.253852E-1,-1.2244405E-2],"categories":[],"categories_nodes":[],"categories_segments":[],"categories_sizes":[],"default_left":[0,0,0,0,0,0,0,0,0,0,0,0,0,0,0],"id":33,"left_children":[1,3,5,7,9,11,13,-1,-1,-1,-1,-1,-1,-1,-1],"loss_changes":[4.443356E1,2.3156934E2,2.8354065E2,1.0395413E2,1.9003198E2,1.4781592E2,2.051143E2,0E0,0E0,0E0,0E0,0E0,0E0,0E0,0E0],"parents":[2147483647,0,0,1,1,2,2,3,3,4,4,5,5,6,6],"right_children":[2,4,6,8,10,12,14,-1,-1,-1,-1,-1,-1,-1,-1],"split_conditions":[1.19E2,1.0094E3,1.75E2,1.08E2,1.0203E3,2.8E0,2.02E2,-7.622947E-1,5.649554E-1,3.120321E-1,-7.6379865E-2,2.3382302E-1,-4.587492E-1,4.253852E-1,-1.2244405E-2],"split_indices":[2,5,2,2,5,3,2,0,0,0,0,0,0,0,0],"split_type":[0,0,0,0,0,0,0,0,0,0,0,0,0,0,0],"sum_hessian":[7.56E2,2.2E2,5.36E2,1.8E1,2.02E2,9.1E1,4.45E2,1.6E1,2E0,1.11E2,9.1E1,1.4E1,7.7E1,4.7E1,3.98E2],"tree_param":{"num_deleted":"0","num_feature":"7","num_nodes":"15","size_leaf_vector":"1"}},{"base_weights":[-1.5316508E-4,-9.367689E-2,6.2970203E-1,1.0496291E-1,-6.120165E-1,1.534626E0,-7.786349E-1,3.3555306E-2,-4.6965614E-1,3.2051307E-1,-1.9451356E-1,-8.4218554E-2,4.39178E-1,-4.6563593E-1,1.320824E-1],"categories":[],"categories_nodes":[],"categories_segments":[],"categories_sizes":[],"default_left":[0,0,0,0,0,0,0,0,0,0,0,0,0,0,0],"id":34,"left_children":[1,3,5,7,9,11,13,-1,-1,-1,-1,-1,-1,-1,-1],"loss_changes":[4.4651134E1,6.801973E1,1.2608983E2,7.405239E1,1.476787E2,7.851944E1,8.8502396E1,0E0,0E0,0E0,0E0,0E0,0E0,0E0,0E0],"parents":[2147483647,0,0,1,1,2,2,3,3,4,4,5,5,6,6],"right_children":[2,4,6,8,10,12,14,-1,-1,-1,-1,-1,-1,-1,-1],"split_conditions":[3.15E1,8.4E0,1.25E1,1.55E1,5.9E1,1.73E2,3.7E1,3.3555306E-2,-4.6965614E-1,3.2051307E-1,-1.9451356E-1,-8.4218554E-2,4.39178E-1,-4.6563593E-1,1.320824E-1],"split_indices":[4,3,3,0,2,2,4,0,0,0,0,0,0,0,0],"split_type":[0,0,0,0,0,0,0,0,0,0,0,0,0,0,0],"sum_hessian":[7.56E2,6.59E2,9.7E1,4.77E2,1.82E2,5.9E1,3.8E1,4.66E2,1.1E1,2.5E1,1.57E2,1.5E1,4.4E1,1.8E1,2E1],"tree_param":{"num_deleted":"0","num_feature":"7","num_nodes":"15","size_leaf_vector":"1"}},{"base_weights":[-5.0403585E-4,-3.3642672E-2,2.0596566E0,1.9921083E-2,-3.6144865E0,1.269912E0,8.0111724E-1,7.007041E-2,-2.3421926E-2,5.8525974E-1,-9.12239E-1,-1.2681198E-2,3.2223344E-1],"categories":[],"categories_nodes":[],"categories_segments":[],"categories_sizes":[],"default_left":[0,0,0,0,0,0,0,0,0,0,0,0,0],"id":35,"left_children":[1,3,5,7,9,11,-1,-1,-1,-1,-1,-1,-1],"loss_changes":[5.1750378E1,1.4315738E2,1.335471E1,3.336651E1,8.146181E1,4.652172E0,0E0,0E0,0E0,0E0,0E0,0E0,0E0],"parents":[2147483647,0,0,1,1,2,2,3,3,4,4,5,5],"right_children":[2,4,6,8,10,12,-1,-1,-1,-1,-1,-1,-1],"split_conditions":[1.91E1,1.55E1,1.0133E3,1.21E2,2E0,4.4E0,8.0111724E-1,7.007041E-2,-2.3421926E-2,5.8525974E-1,-9.12239E-1,-1.2681198E-2,3.2223344E-1],"split_indices":[0,0,5,2,2,3,0,0,0,0,0,0,0],"split_type":[0,0,0,0,0,0,0,0,0,0,0,0,0],"sum_hessian":[7.56E2,7.45E2,1.1E1,7.35E2,1E1,9E0,2E0,2.15E2,5.2E2,1E0,9E0,2E0,7E0],"tree_param":{"num_deleted":"0","num_feature":"7","num_nodes":"13","size_leaf_vector":"1"}},{"base_weights":[6.938373E-4,-2.7289733E-2,1.7402812E0,1.6000433E-2,-2.9213145E0,1.046885E0,6.9430166E-1,5.4285794E-2,-3.2473113E-2,5.267338E-1,-7.4803597E-1,-1.0990334E-2,2.6584265E-1],"categories":[],"categories_nodes":[],"categories_segments":[],"categories_sizes":[],"default_left":[0,0,0,0,0,0,0,0,0,0,0,0,0],"id":36,"left_children":[1,3,5,7,9,11,-1,-1,-1,-1,-1,-1,-1],"loss_changes":[3.6898148E1,9.350771E1,1.0770847E1,3.357606E1,5.9887E1,3.183838E0,0E0,0E0,0E0,0E0,0E0,0E0,0E0],"parents":[2147483647,0,0,1,1,2,2,3,3,4,4,5,5],"right_children":[2,4,6,8,10,12,-1,-1,-1,-1,-1,-1,-1],"split_conditions":[1.91E1,1.55E1,1.0133E3,1.0145E3,2E0,4.4E0,6.9430166E-1,5.4285794E-2,-3.2473113E-2,5.267338E-1,-7.4803597E-1,-1.0990334E-2,2.6584265E-1],"split_indices":[0,0,5,5,2,3,0,0,0,0,0,0,0],"split_type":[0,0,0,0,0,0,0,0,0,0,0,0,0],"sum_hessian":[7.56E2,7.45E2,1.1E1,7.35E2,1E1,9E0,2E0,3.02E2,4.33E2,1E0,9E0,2E0,7E0],"tree_param":{"num_deleted":"0","num_feature":"7","num_nodes":"13","size_leaf_vector":"1"}},{"base_weights":[1.5454539E-3,-1.00698836E-1,4.6915138E-1,-3.587763E-2,-2.156031E0,9.245418E-1,3.407049E-1,-1.5690697E-2,3.282329E-1,-1.1379755E0,-2.8111714E-1,1.8931419E-1,-7.798665E-2],"categories":[],"categories_nodes":[],"categories_segments":[],"categories_sizes":[],"default_left":[0,0,0,0,0,0,0,0,0,0,0,0,0],"id":37,"left_children":[1,3,5,7,9,-1,11,-1,-1,-1,-1,-1,-1],"loss_changes":[3.6239437E1,8.279115E1,7.098235E1,4.325527E1,4.2389595E1,0E0,5.9244057E1,0E0,0E0,0E0,0E0,0E0,0E0],"parents":[2147483647,0,0,1,1,2,2,3,3,4,4,6,6],"right_children":[2,4,6,8,10,-1,12,-1,-1,-1,-1,-1,-1],"split_conditions":[3.08E2,3E2,3.09E2,2.97E2,1.0061E3,9.245418E-1,8.4E0,-1.5690697E-2,3.282329E-1,-1.1379755E0,-2.8111714E-1,1.8931419E-1,-7.798665E-2],"split_indices":[2,2,2,2,5,0,3,0,0,0,0,0,0],"split_type":[0,0,0,0,0,0,0,0,0,0,0,0,0],"sum_hessian":[7.56E2,6.21E2,1.35E2,6.03E2,1.8E1,3E0,1.32E2,5.89E2,1.4E1,2E0,1.6E1,7.2E1,6E1],"tree_param":{"num_deleted":"0","num_feature":"7","num_nodes":"13","size_leaf_vector":"1"}},{"base_weights":[1.1428408E-3,2.218037E-1,-1.9845277E-1,2.8217274E-1,-1.4112908E0,-1.3436052E0,1.6502276E-1,3.4911934E-2,1.0999058E0,-7.930116E-1,-1.1730192E-1,7.345631E-2,-6.581544E-1,2.1768291E-1,-5.369499E-2],"categories":[],"categories_nodes":[],"categories_segments":[],"categories_sizes":[],"default_left":[0,0,0,0,0,0,0,0,0,0,0,0,0,0,0],"id":38,"left_children":[1,3,5,7,9,11,13,-1,-1,-1,-1,-1,-1,-1,-1],"loss_changes":[3.3384525E1,3.589003E1,1.6588321E2,1.9442657E2,2.5056343E1,3.210213E2,1.21579544E2,0E0,0E0,0E0,0E0,0E0,0E0,0E0,0E0],"parents":[2147483647,0,0,1,1,2,2,3,3,4,4,5,5,6,6],"right_children":[2,4,6,8,10,12,14,-1,-1,-1,-1,-1,-1,-1,-1],"split_conditions":[1.3E1,3.52E2,2.22E1,3.45E2,5.1E0,4.9E0,7.2E0,3.4911934E-2,1.0999058E0,-7.930116E-1,-1.1730192E-1,7.345631E-2,-6.581544E-1,2.1768291E-1,-5.369499E-2],"split_indices":[4,2,4,2,3,3,3,0,0,0,0,0,0,0,0],"split_type":[0,0,0,0,0,0,0,0,0,0,0,0,0,0,0],"sum_hessian":[7.56E2,3.59E2,3.97E2,3.47E2,1.2E1,9.5E1,3.02E2,3.41E2,6E0,2E0,1E1,5.1E1,4.4E1,9.6E1,2.06E2],"tree_param":{"num_deleted":"0","num_feature":"7","num_nodes":"15","size_leaf_vector":"1"}},{"base_weights":[6.549649E-4,-8.206655E-2,5.577524E-1,1.7806645E-1,-3.9291644E-1,1.0464487E0,-1.4004859E0,9.515407E-2,-3.0751387E-2,-3.2620162E-1,-1.2982708E-2,-1.20380655E-1,3.2308277E-1,-5.951359E-1,1.7107637E-1],"categories":[],"categories_nodes":[],"categories_segments":[],"categories_sizes":[],"default_left":[0,0,0,0,0,0,0,0,0,0,0,0,0,0,0],"id":39,"left_children":[1,3,5,7,9,11,13,-1,-1,-1,-1,-1,-1,-1,-1],"loss_changes":[3.4931313E1,5.3439095E1,9.524997E1,3.5635788E1,1.2212952E2,7.5062836E1,7.361391E1,0E0,0E0,0E0,0E0,0E0,0E0,0E0,0E0],"parents":[2147483647,0,0,1,1,2,2,3,3,4,4,5,5,6,6],"right_children":[2,4,6,8,10,12,14,-1,-1,-1,-1,-1,-1,-1,-1],"split_conditions":[3.15E1,1.3E1,1.46E1,2.2E2,1.0118E3,1.95E2,3.8E0,9.515407E-2,-3.0751387E-2,-3.2620162E-1,-1.2982708E-2,-1.20380655E-1,3.2308277E-1,-5.951359E-1,1.7107637E-1],"split_indices":[4,4,3,2,5,2,0,0,0,0,0,0,0,0,0],"split_type":[0,0,0,0,0,0,0,0,0,0,0,0,0,0,0],"sum_hessian":[7.56E2,6.59E2,9.7E1,3.59E2,3E2,7.8E1,1.9E1,1.89E2,1.7E2,6.2E1,2.38E2,2E1,5.8E1,1.1E1,8E0],"tree_param":{"num_deleted":"0","num_feature":"7","num_nodes":"15","size_leaf_vector":"1"}},{"base_weights":[-1.313136E-4,-2.6795605E-2,1.4168947E0,1.16316965E-2,-3.1663177E0,8.76773E-1,6.210167E-1,5.31723E-2,-2.8296832E-2,4.8229724E-1,-8.3299583E-1,1.1356545E-2,2.2875877E-1],"categories":[],"categories_nodes":[],"categories_segments":[],"categories_sizes":[],"default_left":[0,0,0,0,0,0,0,0,0,0,0,0,0],"id":40,"left_children":[1,3,5,7,9,11,-1,-1,-1,-1,-1,-1,-1],"loss_changes":[2.864045E1,8.9795494E1,1.0043131E1,2.8687603E1,6.017681E1,2.5625067E0,0E0,0E0,0E0,0E0,0E0,0E0,0E0],"parents":[2147483647,0,0,1,1,2,2,3,3,4,4,5,5],"right_children":[2,4,6,8,10,12,-1,-1,-1,-1,-1,-1,-1],"split_conditions":[1.78E1,1.55E1,1.0133E3,1.0139E3,2E0,8E0,6.210167E-1,5.31723E-2,-2.8296832E-2,4.8229724E-1,-8.3299583E-1,1.1356545E-2,2.2875877E-1],"split_indices":[0,0,5,5,2,3,0,0,0,0,0,0,0],"split_type":[0,0,0,0,0,0,0,0,0,0,0,0,0],"sum_hessian":[7.56E2,7.43E2,1.3E1,7.35E2,8E0,1.1E1,2E0,2.76E2,4.59E2,1E0,7E0,3E0,8E0],"tree_param":{"num_deleted":"0","num_feature":"7","num_nodes":"13","size_leaf_vector":"1"}},{"base_weights":[6.0208706E-4,1.070442E0,-3.2876715E-2,-8.6781603E-1,2.3784518E0,-3.1601113E-1,1.5129785E-1,-3.4223682E-1,3.340875E-1,6.8456954E-1,1.6901553E-1,2.4398046E-2,-3.441306E-1,5.408242E-1,5.01986E-3],"categories":[],"categories_nodes":[],"categories_segments":[],"categories_sizes":[],"default_left":[0,0,0,0,0,0,0,0,0,0,0,0,0,0,0],"id":41,"left_children":[1,3,5,7,9,11,13,-1,-1,-1,-1,-1,-1,-1,-1],"loss_changes":[2.714863E1,6.0375053E1,3.837524E1,2.4265245E1,1.9527718E1,1.7862807E2,1.4361664E2,0E0,0E0,0E0,0E0,0E0,0E0,0E0,0E0],"parents":[2147483647,0,0,1,1,2,2,3,3,4,4,5,5,6,6],"right_children":[2,4,6,8,10,12,14,-1,-1,-1,-1,-1,-1,-1,-1],"split_conditions":[7E0,2E-1,1.75E2,2.78E1,2.2E0,1.39E2,1.87E2,-3.4223682E-1,3.340875E-1,6.8456954E-1,1.6901553E-1,2.4398046E-2,-3.441306E-1,5.408242E-1,5.01986E-3],"split_indices":[2,0,2,4,0,2,2,0,0,0,0,0,0,0,0],"split_type":[0,0,0,0,0,0,0,0,0,0,0,0,0,0,0],"sum_hessian":[7.56E2,2.2E1,7.34E2,9E0,1.3E1,2.89E2,4.45E2,7E0,2E0,7E0,6E0,2.21E2,6.8E1,2E1,4.25E2],"tree_param":{"num_deleted":"0","num_feature":"7","num_nodes":"15","size_leaf_vector":"1"}},{"base_weights":[1.8970333E-3,-4.0033442E-1,7.754888E-2,-2.9475488E-2,-4.9709864E0,1.2888318E0,-9.972457E-3,-3.213404E-1,6.2005993E-2,-1.6159376E0,1.8696256E-1,6.4645624E-1,-2.124073E-2,8.2469314E-2,-4.987425E-2],"categories":[],"categories_nodes":[],"categories_segments":[],"categories_sizes":[],"default_left":[0,0,0,0,0,0,0,0,0,0,0,0,0,0,0],"id":42,"left_children":[1,3,5,7,9,11,13,-1,-1,-1,-1,-1,-1,-1,-1],"loss_changes":[2.3066216E1,2.0326152E2,6.7649216E1,6.047155E1,1.727873E2,1.1692405E2,6.0360016E1,0E0,0E0,0E0,0E0,0E0,0E0,0E0,0E0],"parents":[2147483647,0,0,1,1,2,2,3,3,4,4,5,5,6,6],"right_children":[2,4,6,8,10,12,14,-1,-1,-1,-1,-1,-1,-1,-1],"split_conditions":[1.0081E3,1.0077E3,1.0101E3,1.45E2,2.97E2,6.3E0,1.39E2,-3.213404E-1,6.2005993E-2,-1.6159376E0,1.8696256E-1,6.4645624E-1,-2.124073E-2,8.2469314E-2,-4.987425E-2],"split_indices":[5,5,5,2,2,3,2,0,0,0,0,0,0,0,0],"split_type":[0,0,0,0,0,0,0,0,0,0,0,0,0,0,0],"sum_hessian":[7.56E2,1.19E2,6.37E2,1.11E2,8E0,4.2E1,5.95E2,1.9E1,9.2E1,5E0,3E0,1.7E1,2.5E1,2.15E2,3.8E2],"tree_param":{"num_deleted":"0","num_feature":"7","num_nodes":"15","size_leaf_vector":"1"}},{"base_weights":[1.5616807E-4,-6.689459E-2,4.517209E-1,1.4428903E-1,-3.1925076E-1,9.260366E-1,-8.298513E-1,-1.8359841E-1,4.6635333E-2,-4.8913273E-1,-2.355596E-2,4.4941482E-1,1.669581E-2,-4.5339042E-1,2.9281531E-3],"categories":[],"categories_nodes":[],"categories_segments":[],"categories_sizes":[],"default_left":[0,0,0,0,0,0,0,0,0,0,0,0,0,0,0],"id":43,"left_children":[1,3,5,7,9,11,13,-1,-1,-1,-1,-1,-1,-1,-1],"loss_changes":[2.2950478E1,3.5219765E1,6.0339714E1,3.420657E1,1.2866348E2,7.995203E1,3.2800926E1,0E0,0E0,0E0,0E0,0E0,0E0,0E0,0E0],"parents":[2147483647,0,0,1,1,2,2,3,3,4,4,5,5,6,6],"right_children":[2,4,6,8,10,12,14,-1,-1,-1,-1,-1,-1,-1,-1],"split_conditions":[3.15E1,1.3E1,1.35E1,1.0031E3,1.85E1,1.0127E3,3.7E1,-1.8359841E-1,4.6635333E-2,-4.8913273E-1,-2.355596E-2,4.4941482E-1,1.669581E-2,-4.5339042E-1,2.9281531E-3],"split_indices":[4,4,3,5,4,5,4,0,0,0,0,0,0,0,0],"split_type":[0,0,0,0,0,0,0,0,0,0,0,0,0,0,0],"sum_hessian":[7.56E2,6.59E2,9.7E1,3.59E2,3E2,7.1E1,2.6E1,2.7E1,3.32E2,2.5E1,2.75E2,2.7E1,4.4E1,9E0,1.7E1],"tree_param":{"num_deleted":"0","num_feature":"7","num_nodes":"15","size_leaf_vector":"1"}},{"base_weights":[-7.1259757E-4,-2.0565443E-1,1.4265639E-1,1.260601E-1,-1.3756934E0,1.5586905E0,-2.8051134E-2,8.755552E-2,-3.2594094E-1,2.0312467E-1,-3.6934596E-1,5.071413E-1,1.2816669E-2,-8.9772075E-2,1.3469692E-1],"categories":[],"categories_nodes":[],"categories_segments":[],"categories_sizes":[],"default_left":[0,0,0,0,0,0,0,0,0,0,0,0,0,0,0],"id":44,"left_children":[1,3,5,7,9,11,13,-1,-1,-1,-1,-1,-1,-1,-1],"loss_changes":[2.227174E1,1.21266525E2,1.0785427E2,1.3425528E2,7.9596985E1,6.992973E1,1.1809217E2,0E0,0E0,0E0,0E0,0E0,0E0,0E0,0E0],"parents":[2147483647,0,0,1,1,2,2,3,3,4,4,5,5,6,6],"right_children":[2,4,6,8,10,12,14,-1,-1,-1,-1,-1,-1,-1,-1],"split_conditions":[1.75E2,1.39E2,2.02E2,3.7E0,2.8E0,1.0134E3,7E-1,8.755552E-2,-3.2594094E-1,2.0312467E-1,-3.6934596E-1,5.071413E-1,1.2816669E-2,-8.9772075E-2,1.3469692E-1],"split_indices":[2,2,2,0,3,5,0,0,0,0,0,0,0,0,0],"split_type":[0,0,0,0,0,0,0,0,0,0,0,0,0,0,0],"sum_hessian":[7.56E2,3.11E2,4.45E2,2.43E2,6.8E1,4.7E1,3.98E2,2.07E2,3.6E1,1.1E1,5.7E1,2.8E1,1.9E1,2.49E2,1.49E2],"tree_param":{"num_deleted":"0","num_feature":"7","num_nodes":"15","size_leaf_vector":"1"}},{"base_weights":[-3.5835654E-4,-3.9454234E-1,7.378339E-2,-8.2357325E-2,-4.2356734E0,1.0242878E0,5.0829374E-3,-5.4703362E-2,4.271495E-1,-1.3563672E0,1.2849775E-1,5.28779E-1,-2.7274845E-2,4.8479002E-2,-7.973855E-2],"categories":[],"categories_nodes":[],"categories_segments":[],"categories_sizes":[],"default_left":[0,0,0,0,0,0,0,0,0,0,0,0,0,0,0],"id":45,"left_children":[1,3,5,7,9,11,13,-1,-1,-1,-1,-1,-1,-1,-1],"loss_changes":[2.2152805E1,1.4354839E2,4.165625E1,4.807348E1,1.1614259E2,8.119266E1,5.7205864E1,0E0,0E0,0E0,0E0,0E0,0E0,0E0,0E0],"parents":[2147483647,0,0,1,1,2,2,3,3,4,4,5,5,6,6],"right_children":[2,4,6,8,10,12,14,-1,-1,-1,-1,-1,-1,-1,-1],"split_conditions":[1.0081E3,1.0077E3,1.0101E3,1.0073E3,2.97E2,6.3E0,1E-1,-5.4703362E-2,4.271495E-1,-1.3563672E0,1.2849775E-1,5.28779E-1,-2.7274845E-2,4.8479002E-2,-7.973855E-2],"split_indices":[5,5,5,5,2,3,0,0,0,0,0,0,0,0,0],"split_type":[0,0,0,0,0,0,0,0,0,0,0,0,0,0,0],"sum_hessian":[7.56E2,1.19E2,6.37E2,1.11E2,8E0,4.2E1,5.95E2,1.03E2,8E0,5E0,3E0,1.7E1,2.5E1,3.75E2,2.2E2],"tree_param":{"num_deleted":"0","num_feature":"7","num_nodes":"15","size_leaf_vector":"1"}},{"base_weights":[-7.95492E-4,-2.4296258E-2,1.2481592E0,4.711205E-3,-2.3937626E0,-3.2641888E-1,1.707264E0,-2.1840282E-1,7.059339E-3,4.518426E-1,-6.515572E-1,-2.9005128E-1,1.0632248E-1,3.9846504E-1,-1.1433482E-1],"categories":[],"categories_nodes":[],"categories_segments":[],"categories_sizes":[],"default_left":[0,0,0,0,0,0,0,0,0,0,0,0,0,0,0],"id":46,"left_children":[1,3,5,7,9,11,13,-1,-1,-1,-1,-1,-1,-1,-1],"loss_changes":[2.224933E1,5.1148033E1,1.067783E1,2.472684E1,4.3542553E1,4.628125E0,8.2849655E0,0E0,0E0,0E0,0E0,0E0,0E0,0E0,0E0],"parents":[2147483647,0,0,1,1,2,2,3,3,4,4,5,5,6,6],"right_children":[2,4,6,8,10,12,14,-1,-1,-1,-1,-1,-1,-1,-1],"split_conditions":[1.78E1,1.55E1,8E0,1.0002E3,2E0,1.3E1,1.26E1,-2.1840282E-1,7.059339E-3,4.518426E-1,-6.515572E-1,-2.9005128E-1,1.0632248E-1,3.9846504E-1,-1.1433482E-1],"split_indices":[0,0,3,5,2,4,3,0,0,0,0,0,0,0,0],"split_type":[0,0,0,0,0,0,0,0,0,0,0,0,0,0,0],"sum_hessian":[7.56E2,7.43E2,1.3E1,7.35E2,8E0,3E0,1E1,1.9E1,7.16E2,1E0,7E0,1E0,2E0,9E0,1E0],"tree_param":{"num_deleted":"0","num_feature":"7","num_nodes":"15","size_leaf_vector":"1"}},{"base_weights":[-1.0466276E-3,2.0734066E-2,-1.3549926E0,-8.4348604E-2,4.000713E-1,-6.481262E-1,-6.5190995E-1,-9.040982E-3,-9.231953E-1,5.943985E-1,4.5871403E-2,-2.557561E-1,2.499322E-1],"categories":[],"categories_nodes":[],"categories_segments":[],"categories_sizes":[],"default_left":[0,0,0,0,0,0,0,0,0,0,0,0,0],"id":47,"left_children":[1,3,5,7,9,11,-1,-1,-1,-1,-1,-1,-1],"loss_changes":[2.2351936E1,2.9770626E1,1.4042606E1,1.0356135E2,7.0446655E1,1.3566519E1,0E0,0E0,0E0,0E0,0E0,0E0,0E0],"parents":[2147483647,0,0,1,1,2,2,3,3,4,4,5,5],"right_children":[2,4,6,8,10,12,-1,-1,-1,-1,-1,-1,-1],"split_conditions":[1.0357E3,1.0218E3,2.77E2,1.0217E3,1.0222E3,1.58E2,-6.5190995E-1,-9.040982E-3,-9.231953E-1,5.943985E-1,4.5871403E-2,-2.557561E-1,2.499322E-1],"split_indices":[5,5,2,5,5,2,0,0,0,0,0,0,0],"split_type":[0,0,0,0,0,0,0,0,0,0,0,0,0],"sum_hessian":[7.56E2,7.45E2,1.1E1,5.84E2,1.61E2,9E0,2E0,5.8E2,4E0,9E0,1.52E2,7E0,2E0],"tree_param":{"num_deleted":"0","num_feature":"7","num_nodes":"13","size_leaf_vector":"1"}},{"base_weights":[-2.091991E-3,-8.000556E-2,3.542634E-1,5.587101E-2,-8.15996E-1,1.8916931E0,1.0370891E-1,-6.893251E-3,3.7352172E-1,-3.390844E-1,1.58057E-1,4.8912007E-1,-1.5937176E-1,-2.797281E-1,8.1233256E-2],"categories":[],"categories_nodes":[],"categories_segments":[],"categories_sizes":[],"default_left":[0,0,0,0,0,0,0,0,0,0,0,0,0,0,0],"id":48,"left_children":[1,3,5,7,9,11,13,-1,-1,-1,-1,-1,-1,-1,-1],"loss_changes":[2.1046387E1,6.2247986E1,5.219236E1,8.6153435E1,1.3836258E2,3.0243752E1,5.4186886E1,0E0,0E0,0E0,0E0,0E0,0E0,0E0,0E0],"parents":[2147483647,0,0,1,1,2,2,3,3,4,4,5,5,6,6],"right_children":[2,4,6,8,10,12,14,-1,-1,-1,-1,-1,-1,-1,-1],"split_conditions":[3.08E2,2.77E2,3.15E2,2.69E2,7E-1,4.3E0,3.21E2,-6.893251E-3,3.7352172E-1,-3.390844E-1,1.58057E-1,4.8912007E-1,-1.5937176E-1,-2.797281E-1,8.1233256E-2],"split_indices":[2,2,2,2,0,0,2,0,0,0,0,0,0,0,0],"split_type":[0,0,0,0,0,0,0,0,0,0,0,0,0,0,0],"sum_hessian":[7.56E2,6.21E2,1.35E2,5.25E2,9.6E1,1.8E1,1.17E2,5.01E2,2.4E1,6.2E1,3.4E1,1.5E1,3E0,1.9E1,9.8E1],"tree_param":{"num_deleted":"0","num_feature":"7","num_nodes":"15","size_leaf_vector":"1"}},{"base_weights":[-1.2550952E-3,-1.1678442E0,2.229819E-2,8.66857E-1,-2.2718804E0,6.8465036E-1,-4.7611617E-2,4.7701532E-1,-9.770437E-2,1.0016046E-1,-5.2712023E-1,7.601527E-2,2.9964346E-1,-2.2865215E-1,9.578536E-3],"categories":[],"categories_nodes":[],"categories_segments":[],"categories_sizes":[],"default_left":[0,0,0,0,0,0,0,0,0,0,0,0,0,0,0],"id":49,"left_children":[1,3,5,7,9,11,13,-1,-1,-1,-1,-1,-1,-1,-1],"loss_changes":[2.0826134E1,3.566516E1,3.4437145E1,1.351174E1,1.1404732E1,1.702375E1,7.047693E1,0E0,0E0,0E0,0E0,0E0,0E0,0E0,0E0],"parents":[2147483647,0,0,1,1,2,2,3,3,4,4,5,5,6,6],"right_children":[2,4,6,8,10,12,14,-1,-1,-1,-1,-1,-1,-1,-1],"split_conditions":[1.7E0,1.3E0,3.5E0,1.0247E3,2E1,3.3E0,4.2E0,4.7701532E-1,-9.770437E-2,1.0016046E-1,-5.2712023E-1,7.601527E-2,2.9964346E-1,-2.2865215E-1,9.578536E-3],"split_indices":[3,3,3,5,2,3,3,0,0,0,0,0,0,0,0],"split_type":[0,0,0,0,0,0,0,0,0,0,0,0,0,0,0],"sum_hessian":[7.56E2,1.4E1,7.42E2,5E0,9E0,7E1,6.72E2,2E0,3E0,1E0,8E0,5.2E1,1.8E1,5.3E1,6.19E2],"tree_param":{"num_deleted":"0","num_feature":"7","num_nodes":"15","size_leaf_vector":"1"}}]},"name":"gbtree"},"learner_model_param":{"base_score":"1.2218122E1","boost_from_average":"1","num_class":"0","num_feature":"7","num_target":"1"},"objective":{"name":"reg:squarederror","reg_loss_param":{"scale_pos_weight":"1"}}},"version":[2,1,4]}