{"learner":{"attributes":{"scikit_learn":"{\"_estimator_type\": \"regressor\"}"},"feature_names":["prcp","snow","wdir","wspd","wpgt","pres","tsun"],"feature_types":["float","float","float","float","float","float","float"],"gradient_booster":{"model":{"gbtree_model_param":{"num_parallel_tree":"1","num_trees":"50"},"iteration_indptr":[0,1,2,3,4,5,6,7,8,9,10,11,12,13,14,15,16,17,18,19,20,21,22,23,24,25,26,27,28,29,30,31,32,33,34,35,36,37,38,39,40,41,42,43,44,45,46,47,48,49,50],"tree_info":[0,0,0,0,0,0,0,0,0,0,0,0,0,0,0,0,0,0,0,0,0,0,0,0,0,0,0,0,0,0,0,0,0,0,0,0,0,0,0,0,0,0,0,0,0,0,0,0,0,0],"trees":[{"base_weights":[4.5668023E-7,1.315538E0,-1.3567709E1,2.0992565E0,-8.355525E0,-2.7306461E0,-7.92328E-1,7.4131066E-1,-3.9943692E-1,-9.472914E-1,-2.0938854E0],"categories":[],"categories_nodes":[],"categories_segments":[],"categories_sizes":[],"default_left":[0,0,0,0,0,0,0,0,0,0,0],"id":0,"left_children":[1,3,5,7,9,-1,-1,-1,-1,-1,-1],"loss_changes":[1.3529414E4,5.254898E3,9.5410156E-1,4.221288E3,3.482307E2,0E0,0E0,0E0,0E0,0E0,0E0],"parents":[2147483647,0,0,1,1,2,2,3,3,4,4],"right_children":[2,4,6,8,10,-1,-1,-1,-1,-1,-1],"split_conditions":[1E0,1.0271E3,1.85E1,9E0,1.0292E3,-2.7306461E0,-7.92328E-1,7.4131066E-1,-3.9943692E-1,-9.472914E-1,-2.0938854E0],"split_indices":[1,5,3,3,5,0,0,0,0,0,0],"split_type":[0,0,0,0,0,0,0,0,0,0,0],"sum_hessian":[7.56E2,6.9E2,6.6E1,6.39E2,5.1E1,6.5E1,1E0,4.59E2,1.8E2,2E1,3.1E1],"tree_param":{"num_deleted":"0","num_feature":"7","num_nodes":"11","size_leaf_vector":"1"}},{"base_weights":[-8.2195215E-3,1.0485239E0,-2.1813498E0,2.1044042E0,-4.258359E0,9.836244E-1,5.586456E-3,-5.0165945E-1,-1.6373669E0],"categories":[],"categories_nodes":[],"categories_segments":[],"categories_sizes":[],"default_left":[0,0,0,0,0,0,0,0,0],"id":1,"left_children":[1,3,-1,5,7,-1,-1,-1,-1],"loss_changes":[8.729766E3,3.8809336E3,0E0,3.371046E3,7.7009863E2,0E0,0E0,0E0,0E0],"parents":[2147483647,0,0,1,1,3,3,4,4],"right_children":[2,4,-1,6,8,-1,-1,-1,-1],"split_conditions":[1E0,1.0233E3,-2.1813498E0,6.4E0,1.029E3,9.836244E-1,5.586456E-3,-5.0165945E-1,-1.6373669E0],"split_indices":[1,5,0,3,5,0,0,0,0],"split_type":[0,0,0,0,0,0,0,0,0],"sum_hessian":[7.56E2,6.9E2,6.6E1,5.76E2,1.14E2,2.44E2,3.32E2,8E1,3.4E1],"tree_param":{"num_deleted":"0","num_feature":"7","num_nodes":"9","size_leaf_vector":"1"}},{"base_weights":[-1.0976199E-2,8.37155E-1,-8.7579565E0,2.0680325E0,-2.3042977E0,-7.6357374E0,-2.0467854E0,-5.231829E-1,6.362886E-1,4.666499E-4,-8.9021724E-1,-9.1679746E-1,-1.6658249E0],"categories":[],"categories_nodes":[],"categories_segments":[],"categories_sizes":[],"default_left":[0,0,0,0,0,0,0,0,0,0,0,0,0],"id":2,"left_children":[1,3,5,7,9,11,-1,-1,-1,-1,-1,-1,-1],"loss_changes":[5.6232017E3,2.676685E3,3.2833008E1,2.600254E3,9.6562085E2,5.069336E1,0E0,0E0,0E0,0E0,0E0,0E0,0E0],"parents":[2147483647,0,0,1,1,2,2,3,3,4,4,5,5],"right_children":[2,4,6,8,10,12,-1,-1,-1,-1,-1,-1,-1],"split_conditions":[1E0,1.0201E3,1.0213E3,1.008E3,5.9E0,2E0,-2.0467854E0,-5.231829E-1,6.362886E-1,4.666499E-4,-8.9021724E-1,-9.1679746E-1,-1.6658249E0],"split_indices":[1,5,5,5,3,1,0,0,0,0,0,0,0],"split_type":[0,0,0,0,0,0,0,0,0,0,0,0,0],"sum_hessian":[7.56E2,6.9E2,6.6E1,4.96E2,1.94E2,4.1E1,2.5E1,9.5E1,4.01E2,9.4E1,1E2,9E0,3.2E1],"tree_param":{"num_deleted":"0","num_feature":"7","num_nodes":"13","size_leaf_vector":"1"}},{"base_weights":[-1.5922459E-2,6.6859996E-1,-7.0754604E0,1.7280829E0,-2.1961462E0,-8.311319E0,-6.0890303E0,6.3425463E-1,-1.7012149E-1,-8.208667E-1,1.9585267E-1,-1.7303652E0,-5.406639E-1,-7.8460354E-1,-1.332239E0],"categories":[],"categories_nodes":[],"categories_segments":[],"categories_sizes":[],"default_left":[0,0,0,0,0,0,0,0,0,0,0,0,0,0,0],"id":3,"left_children":[1,3,5,7,9,11,13,-1,-1,-1,-1,-1,-1,-1,-1],"loss_changes":[3.6628665E3,2.1010837E3,3.10708E1,1.8820754E3,1.1371039E3,2.8169556E1,2.4679932E1,0E0,0E0,0E0,0E0,0E0,0E0,0E0,0E0],"parents":[2147483647,0,0,1,1,2,2,3,3,4,4,5,5,6,6],"right_children":[2,4,6,8,10,12,14,-1,-1,-1,-1,-1,-1,-1,-1],"split_conditions":[1E0,9.1E0,5E-1,1.0189E3,3.15E1,3.15E1,2E0,6.3425463E-1,-1.7012149E-1,-8.208667E-1,1.9585267E-1,-1.7303652E0,-5.406639E-1,-7.8460354E-1,-1.332239E0],"split_indices":[1,3,0,5,4,4,1,0,0,0,0,0,0,0,0],"split_type":[0,0,0,0,0,0,0,0,0,0,0,0,0,0,0],"sum_hessian":[7.56E2,6.9E2,6.6E1,5.04E2,1.86E2,2.6E1,4E1,3.23E2,1.81E2,1.16E2,7E1,2.4E1,2E0,1E1,3E1],"tree_param":{"num_deleted":"0","num_feature":"7","num_nodes":"15","size_leaf_vector":"1"}},{"base_weights":[-1.8746857E-2,5.3464717E-1,-5.725859E0,1.9809083E0,-1.0534776E0,-5.15023E0,-7.3780246E0,6.19182E-1,-1.0711528E-1,-5.0968623E-1,2.0898493E-1,-7.791509E-1,-1.1584929E0,-3.4322596E-1,-1.5319731E0],"categories":[],"categories_nodes":[],"categories_segments":[],"categories_sizes":[],"default_left":[0,0,0,0,0,0,0,0,0,0,0,0,0,0,0],"id":4,"left_children":[1,3,5,7,9,11,13,-1,-1,-1,-1,-1,-1,-1,-1],"loss_changes":[2.3938806E3,1.5892054E3,2.5720703E1,1.0173882E3,1.0378774E3,2.01344E1,1.0791016E1,0E0,0E0,0E0,0E0,0E0,0E0,0E0,0E0],"parents":[2147483647,0,0,1,1,2,2,3,3,4,4,5,5,6,6],"right_children":[2,4,6,8,10,12,14,-1,-1,-1,-1,-1,-1,-1,-1],"split_conditions":[1E0,7.2E0,1.0255E3,1.0205E3,2.78E1,3E0,8E-1,6.19182E-1,-1.0711528E-1,-5.0968623E-1,2.0898493E-1,-7.791509E-1,-1.1584929E0,-3.4322596E-1,-1.5319731E0],"split_indices":[1,3,5,5,4,1,3,0,0,0,0,0,0,0,0],"split_type":[0,0,0,0,0,0,0,0,0,0,0,0,0,0,0],"sum_hessian":[7.56E2,6.9E2,6.6E1,3.61E2,3.29E2,5.2E1,1.4E1,2.5E2,1.11E2,1.92E2,1.37E2,2E1,3.2E1,1E0,1.3E1],"tree_param":{"num_deleted":"0","num_feature":"7","num_nodes":"15","size_leaf_vector":"1"}},{"base_weights":[-1.9754894E-2,5.9964734E-1,-3.6684177E0,2.286989E0,-1.0232357E0,-1.1733819E0,-5.0224037E0,5.0268525E-1,-1.1533251E0,-3.2655597E-2,-6.073682E-1,2.4560678E-1,-9.7045153E-1,-8.653168E-1,-1.6848919E0],"categories":[],"categories_nodes":[],"categories_segments":[],"categories_sizes":[],"default_left":[0,0,0,0,0,0,0,0,0,0,0,0,0,0,0],"id":5,"left_children":[1,3,5,7,9,11,13,-1,-1,-1,-1,-1,-1,-1,-1],"loss_changes":[1.7130122E3,1.7767961E3,3.657135E2,5.94411E2,5.726688E2,3.593392E2,1.3162341E2,0E0,0E0,0E0,0E0,0E0,0E0,0E0,0E0],"parents":[2147483647,0,0,1,1,2,2,3,3,4,4,5,5,6,6],"right_children":[2,4,6,8,10,12,14,-1,-1,-1,-1,-1,-1,-1,-1],"split_conditions":[1.0243E3,1E-1,5.4E0,3E0,1.01E1,1.029E3,1.0335E3,5.0268525E-1,-1.1533251E0,-3.2655597E-2,-6.073682E-1,2.4560678E-1,-9.7045153E-1,-8.653168E-1,-1.6848919E0],"split_indices":[5,0,3,1,3,5,5,0,0,0,0,0,0,0,0],"split_type":[0,0,0,0,0,0,0,0,0,0,0,0,0,0,0],"sum_hessian":[7.56E2,6.47E2,1.09E2,3.17E2,3.3E2,3.9E1,7E1,3.09E2,8E0,2.32E2,9.8E1,2.4E1,1.5E1,6E1,1E1],"tree_param":{"num_deleted":"0","num_feature":"7","num_nodes":"15","size_leaf_vector":"1"}},{"base_weights":[-2.1835303E-2,3.727739E-1,-4.0912848E0,6.8129426E-1,-3.968029E0,-4.559833E0,-2.6675932E0,7.6596993E-1,3.0303285E-2,-5.3150266E-1,-1.2998523E0,-4.3763825E-1,-9.679743E-1,-1.063145E-1,-5.775242E-1],"categories":[],"categories_nodes":[],"categories_segments":[],"categories_sizes":[],"default_left":[0,0,0,0,0,0,0,0,0,0,0,0,0,0,0],"id":6,"left_children":[1,3,5,7,9,11,13,-1,-1,-1,-1,-1,-1,-1,-1],"loss_changes":[1.2171476E3,9.2810864E2,3.2529785E1,1.0769702E3,1.3532025E2,2.195282E1,7.394699E0,0E0,0E0,0E0,0E0,0E0,0E0,0E0,0E0],"parents":[2147483647,0,0,1,1,2,2,3,3,4,4,5,5,6,6],"right_children":[2,4,6,8,10,12,14,-1,-1,-1,-1,-1,-1,-1,-1],"split_conditions":[1E0,1.0283E3,1.13E1,3.9E0,8.3E0,3.5E0,1.17E1,7.6596993E-1,3.0303285E-2,-5.3150266E-1,-1.2998523E0,-4.3763825E-1,-9.679743E-1,-1.063145E-1,-5.775242E-1],"split_indices":[1,5,3,3,3,3,3,0,0,0,0,0,0,0,0],"split_type":[0,0,0,0,0,0,0,0,0,0,0,0,0,0,0],"sum_hessian":[7.56E2,6.9E2,6.6E1,6.45E2,4.5E1,4.8E1,1.8E1,9.2E1,5.53E2,3.1E1,1.4E1,6E0,4.2E1,2E0,1.6E1],"tree_param":{"num_deleted":"0","num_feature":"7","num_nodes":"15","size_leaf_vector":"1"}},{"base_weights":[-2.159567E-2,5.5094385E-1,-2.095174E0,-2.2317789E0,1.2309179E0,-1.1932741E0,-5.158634E0,-6.632125E-1,2.1930872E-2,3.5725746E-1,-2.7157268E-1,-4.483187E-2,-8.703155E-1,-1.4462339E0,-8.6750996E-1],"categories":[],"categories_nodes":[],"categories_segments":[],"categories_sizes":[],"default_left":[0,0,0,0,0,0,0,0,0,0,0,0,0,0,0],"id":7,"left_children":[1,3,5,7,9,11,13,-1,-1,-1,-1,-1,-1,-1,-1],"loss_changes":[8.9986896E2,1.1267017E3,4.4696564E2,2.9740057E2,6.8966016E2,3.9080167E2,3.1598267E1,0E0,0E0,0E0,0E0,0E0,0E0,0E0,0E0],"parents":[2147483647,0,0,1,1,2,2,3,3,4,4,5,5,6,6],"right_children":[2,4,6,8,10,12,14,-1,-1,-1,-1,-1,-1,-1,-1],"split_conditions":[1.0222E3,1.008E3,1E-1,2.59E1,1.02E1,1.0304E3,3E-1,-6.632125E-1,2.1930872E-2,3.5725746E-1,-2.7157268E-1,-4.483187E-2,-8.703155E-1,-1.4462339E0,-8.6750996E-1],"split_indices":[5,5,0,4,3,5,0,0,0,0,0,0,0,0,0],"split_type":[0,0,0,0,0,0,0,0,0,0,0,0,0,0,0],"sum_hessian":[7.56E2,5.93E2,1.63E2,1.16E2,4.77E2,1.27E2,3.6E1,7.9E1,3.7E1,3.93E2,8.4E1,9.8E1,2.9E1,8E0,2.8E1],"tree_param":{"num_deleted":"0","num_feature":"7","num_nodes":"15","size_leaf_vector":"1"}},{"base_weights":[-2.22759E-2,1.2722023E0,-7.891258E-1,2.148674E0,-2.955779E-1,-1.9080863E0,8.3311003E-1,-2.9102784E-1,5.261538E-1,-3.0427334E-1,4.4014916E-1,-2.2527938E-1,-7.6018184E-1,5.736727E-1,-2.2581291E-1],"categories":[],"categories_nodes":[],"categories_segments":[],"categories_sizes":[],"default_left":[0,0,0,0,0,0,0,0,0,0,0,0,0,0,0],"id":8,"left_children":[1,3,5,7,9,11,13,-1,-1,-1,-1,-1,-1,-1,-1],"loss_changes":[7.5245544E2,3.8813547E2,8.6563336E2,3.1829413E2,3.154646E2,4.1296582E2,7.819756E2,0E0,0E0,0E0,0E0,0E0,0E0,0E0,0E0],"parents":[2147483647,0,0,1,1,2,2,3,3,4,4,5,5,6,6],"right_children":[2,4,6,8,10,12,14,-1,-1,-1,-1,-1,-1,-1,-1],"split_conditions":[5.9E0,1.0204E3,2.59E1,1.0081E3,1.85E1,1.3E1,9.9E0,-2.9102784E-1,5.261538E-1,-3.0427334E-1,4.4014916E-1,-2.2527938E-1,-7.6018184E-1,5.736727E-1,-2.2581291E-1],"split_indices":[3,5,4,5,4,4,3,0,0,0,0,0,0,0,0],"split_type":[0,0,0,0,0,0,0,0,0,0,0,0,0,0,0],"sum_hessian":[7.56E2,2.81E2,4.75E2,1.8E2,1.01E2,2.81E2,1.94E2,2.1E1,1.59E2,6.8E1,3.3E1,2E2,8.1E1,9.5E1,9.9E1],"tree_param":{"num_deleted":"0","num_feature":"7","num_nodes":"15","size_leaf_vector":"1"}},{"base_weights":[-1.8172758E-2,7.871971E-1,-9.3724406E-1,1.9222816E0,-5.9409237E-1,-5.9152144E-1,-3.883259E0,-7.119888E-1,4.5606288E-1,9.364372E-2,-3.9970088E-1,-3.2878423E-1,1.3830887E-1,-6.0970116E-1,-1.1664485E0],"categories":[],"categories_nodes":[],"categories_segments":[],"categories_sizes":[],"default_left":[0,0,0,0,0,0,0,0,0,0,0,0,0,0,0],"id":9,"left_children":[1,3,5,7,9,11,13,-1,-1,-1,-1,-1,-1,-1,-1],"loss_changes":[5.610634E2,6.345657E2,3.582534E2,4.4386316E2,2.7395752E2,4.3053156E2,4.241638E1,0E0,0E0,0E0,0E0,0E0,0E0,0E0,0E0],"parents":[2147483647,0,0,1,1,2,2,3,3,4,4,5,5,6,6],"right_children":[2,4,6,8,10,12,14,-1,-1,-1,-1,-1,-1,-1,-1],"split_conditions":[1E-1,1.0189E3,1.0222E3,1.0072E3,6.2E0,2.22E1,2.78E1,-7.119888E-1,4.5606288E-1,9.364372E-2,-3.9970088E-1,-3.2878423E-1,1.3830887E-1,-6.0970116E-1,-1.1664485E0],"split_indices":[0,5,5,5,3,4,4,0,0,0,0,0,0,0,0],"split_type":[0,0,0,0,0,0,0,0,0,0,0,0,0,0,0],"sum_hessian":[7.56E2,4.03E2,3.53E2,2.21E2,1.82E2,3.17E2,3.6E1,1.3E1,2.08E2,1.04E2,7.8E1,1.74E2,1.43E2,2.7E1,9E0],"tree_param":{"num_deleted":"0","num_feature":"7","num_nodes":"15","size_leaf_vector":"1"}},{"base_weights":[-1.7878434E-2,1.8242133E0,-3.2723147E-1,2.7475975E0,-1.0819014E0,-1.1059281E0,6.0515314E-1,-2.7950737E-1,5.950336E-1,1.51521955E-2,-8.800662E-1,-1.0799489E-1,-6.788738E-1,5.4858816E-1,-5.6676686E-2],"categories":[],"categories_nodes":[],"categories_segments":[],"categories_sizes":[],"default_left":[0,0,0,0,0,0,0,0,0,0,0,0,0,0,0],"id":10,"left_children":[1,3,5,7,9,11,13,-1,-1,-1,-1,-1,-1,-1,-1],"loss_changes":[4.3197842E2,2.9546976E2,4.718723E2,8.24527E1,1.04057144E2,4.566507E2,5.6303E2,0E0,0E0,0E0,0E0,0E0,0E0,0E0,0E0],"parents":[2147483647,0,0,1,1,2,2,3,3,4,4,5,5,6,6],"right_children":[2,4,6,8,10,12,14,-1,-1,-1,-1,-1,-1,-1,-1],"split_conditions":[3.9E0,1.0239E3,2.22E1,1.0034E3,1.3E1,1.3E1,7.1E0,-2.7950737E-1,5.950336E-1,1.51521955E-2,-8.800662E-1,-1.0799489E-1,-6.788738E-1,5.4858816E-1,-5.6676686E-2],"split_indices":[3,5,4,5,4,4,3,0,0,0,0,0,0,0,0],"split_type":[0,0,0,0,0,0,0,0,0,0,0,0,0,0,0],"sum_hessian":[7.56E2,1.08E2,6.48E2,8.2E1,2.6E1,3.53E2,2.95E2,4E0,7.8E1,2E1,6E0,2.84E2,6.9E1,8.6E1,2.09E2],"tree_param":{"num_deleted":"0","num_feature":"7","num_nodes":"15","size_leaf_vector":"1"}},{"base_weights":[-1.5418077E-2,2.061697E-1,-2.3005185E0,4.3081203E-1,-2.2074707E0,-2.889291E0,-1.4293926E0,2.8807236E-2,6.766111E-1,-6.119084E-1,5.473836E-2,-2.7522132E-1,-6.3545936E-1,-8.511337E-3,-3.7374482E-1],"categories":[],"categories_nodes":[],"categories_segments":[],"categories_sizes":[],"default_left":[0,0,0,0,0,0,0,0,0,0,0,0,0,0,0],"id":11,"left_children":[1,3,5,7,9,11,13,-1,-1,-1,-1,-1,-1,-1,-1],"loss_changes":[3.8378146E2,3.756152E2,3.023407E1,5.354309E2,1.2557086E2,1.2624115E1,1.7589615E1,0E0,0E0,0E0,0E0,0E0,0E0,0E0,0E0],"parents":[2147483647,0,0,1,1,2,2,3,3,4,4,5,5,6,6],"right_children":[2,4,6,8,10,12,14,-1,-1,-1,-1,-1,-1,-1,-1],"split_conditions":[1E0,1.25E1,9.9E0,3.15E1,3.7E1,4.2E0,2E0,2.8807236E-2,6.766111E-1,-6.119084E-1,5.473836E-2,-2.7522132E-1,-6.3545936E-1,-8.511337E-3,-3.7374482E-1],"split_indices":[1,3,3,4,4,3,1,0,0,0,0,0,0,0,0],"split_type":[0,0,0,0,0,0,0,0,0,0,0,0,0,0,0],"sum_hessian":[7.56E2,6.9E2,6.6E1,6.32E2,5.8E1,3.8E1,2.8E1,5.77E2,5.5E1,4.3E1,1.5E1,7E0,3.1E1,7E0,2.1E1],"tree_param":{"num_deleted":"0","num_feature":"7","num_nodes":"15","size_leaf_vector":"1"}},{"base_weights":[-1.3846634E-2,9.588742E-1,-4.2185342E-1,2.6860386E-1,2.4736319E0,-1.0494215E0,5.904361E-1,1.5319102E-1,-7.1186894E-1,5.496279E-1,-5.4855555E-1,-6.4414605E-2,-5.08309E-1,2.6824299E-1,-4.8907834E-1],"categories":[],"categories_nodes":[],"categories_segments":[],"categories_sizes":[],"default_left":[0,0,0,0,0,0,0,0,0,0,0,0,0,0,0],"id":12,"left_children":[1,3,5,7,9,11,13,-1,-1,-1,-1,-1,-1,-1,-1],"loss_changes":[3.0084018E2,2.3354826E2,3.398595E2,2.978207E2,1.0777362E2,3.5732843E2,4.7052298E2,0E0,0E0,0E0,0E0,0E0,0E0,0E0,0E0],"parents":[2147483647,0,0,1,1,2,2,3,3,4,4,5,5,6,6],"right_children":[2,4,6,8,10,12,14,-1,-1,-1,-1,-1,-1,-1,-1],"split_conditions":[5.3E0,1.85E1,2.59E1,1.3E1,1.0247E3,1.3E1,1.25E1,1.5319102E-1,-7.1186894E-1,5.496279E-1,-5.4855555E-1,-6.4414605E-2,-5.08309E-1,2.6824299E-1,-4.8907834E-1],"split_indices":[3,4,4,4,5,4,3,0,0,0,0,0,0,0,0],"split_type":[0,0,0,0,0,0,0,0,0,0,0,0,0,0,0],"sum_hessian":[7.56E2,2.23E2,5.33E2,1.54E2,6.9E1,3.29E2,2.04E2,1.37E2,1.7E1,6.6E1,3E0,2.22E2,1.07E2,1.64E2,4E1],"tree_param":{"num_deleted":"0","num_feature":"7","num_nodes":"15","size_leaf_vector":"1"}},{"base_weights":[-1.2862015E-2,4.2096698E-1,-8.6352336E-1,1.0374686E0,-1.1340089E0,-4.758528E0,-7.023348E-1,3.2178324E-1,-2.3856822E-1,-3.7053606E-1,1.6599058E-1,-2.5192612E-1,-1.6010998E0,-6.310018E-2,-4.863556E-1],"categories":[],"categories_nodes":[],"categories_segments":[],"categories_sizes":[],"default_left":[0,0,0,0,0,0,0,0,0,0,0,0,0,0,0],"id":13,"left_children":[1,3,5,7,9,11,13,-1,-1,-1,-1,-1,-1,-1,-1],"loss_changes":[2.7972797E2,4.824163E2,1.5738243E2,4.60741E2,2.0337401E2,1.0352423E2,1.6447757E2,0E0,0E0,0E0,0E0,0E0,0E0,0E0,0E0],"parents":[2147483647,0,0,1,1,2,2,3,3,4,4,5,5,6,6],"right_children":[2,4,6,8,10,12,14,-1,-1,-1,-1,-1,-1,-1,-1],"split_conditions":[1.0189E3,2.3E0,1.0194E3,1.02E1,2.96E1,1.3E1,9.4E0,3.2178324E-1,-2.3856822E-1,-3.7053606E-1,1.6599058E-1,-2.5192612E-1,-1.6010998E0,-6.310018E-2,-4.863556E-1],"split_indices":[5,0,5,3,4,4,3,0,0,0,0,0,0,0,0],"split_type":[0,0,0,0,0,0,0,0,0,0,0,0,0,0,0],"sum_hessian":[7.56E2,5.01E2,2.55E2,3.59E2,1.42E2,9E0,2.46E2,2.86E2,7.3E1,1.04E2,3.8E1,5E0,4E0,2.02E2,4.4E1],"tree_param":{"num_deleted":"0","num_feature":"7","num_nodes":"15","size_leaf_vector":"1"}},{"base_weights":[-1.36235645E-2,1.5431677E0,-2.102263E-1,2.1413872E0,-2.6758895E0,-7.0146966E-1,4.1030303E-1,4.7030696E-1,-2.541971E-1,-5.941061E-1,2.7051905E-2,-6.452295E-2,-4.111738E-1,4.0159222E-1,-5.37507E-2],"categories":[],"categories_nodes":[],"categories_segments":[],"categories_sizes":[],"default_left":[0,0,0,0,0,0,0,0,0,0,0,0,0,0,0],"id":14,"left_children":[1,3,5,7,9,11,13,-1,-1,-1,-1,-1,-1,-1,-1],"loss_changes":[2.3201898E2,2.2026347E2,2.0543904E2,5.6771423E1,9.512863E0,1.9227014E2,3.2383987E2,0E0,0E0,0E0,0E0,0E0,0E0,0E0,0E0],"parents":[2147483647,0,0,1,1,2,2,3,3,4,4,5,5,6,6],"right_children":[2,4,6,8,10,12,14,-1,-1,-1,-1,-1,-1,-1,-1],"split_conditions":[3.5E0,1.0287E3,2.22E1,1E0,2E-1,1.3E1,7.1E0,4.7030696E-1,-2.541971E-1,-5.941061E-1,2.7051905E-2,-6.452295E-2,-4.111738E-1,4.0159222E-1,-5.37507E-2],"split_indices":[3,5,4,1,0,4,3,0,0,0,0,0,0,0,0],"split_type":[0,0,0,0,0,0,0,0,0,0,0,0,0,0,0],"sum_hessian":[7.56E2,8.4E1,6.72E2,7.4E1,1E1,3.75E2,2.97E2,7E1,4E0,9E0,1E0,2.94E2,8.1E1,8.8E1,2.09E2],"tree_param":{"num_deleted":"0","num_feature":"7","num_nodes":"15","size_leaf_vector":"1"}},{"base_weights":[-1.1531263E-2,4.5386782E-1,-5.426321E-1,6.0050297E-1,-3.3889039E0,-2.9872255E0,-3.3974597E-1,-8.8326406E-1,1.4074503E-1,-8.0845214E-2,-8.2027763E-1,-9.107383E-1,4.2778355E-1,-1.488438E-2,-3.8489234E-1],"categories":[],"categories_nodes":[],"categories_segments":[],"categories_sizes":[],"default_left":[0,0,0,0,0,0,0,0,0,0,0,0,0,0,0],"id":15,"left_children":[1,3,5,7,9,11,13,-1,-1,-1,-1,-1,-1,-1,-1],"loss_changes":[1.8735689E2,2.2968314E2,1.7455994E2,2.0506831E2,3.0240143E1,2.2654802E2,1.377687E2,0E0,0E0,0E0,0E0,0E0,0E0,0E0,0E0],"parents":[2147483647,0,0,1,1,2,2,3,3,4,4,5,5,6,6],"right_children":[2,4,6,8,10,12,14,-1,-1,-1,-1,-1,-1,-1,-1],"split_conditions":[1E-1,1.0335E3,2E-1,1.0044E3,2.9E0,2.78E1,1.28E1,-8.8326406E-1,1.4074503E-1,-8.0845214E-2,-8.2027763E-1,-9.107383E-1,4.2778355E-1,-1.488438E-2,-3.8489234E-1],"split_indices":[0,5,0,5,3,4,3,0,0,0,0,0,0,0,0],"split_type":[0,0,0,0,0,0,0,0,0,0,0,0,0,0,0],"sum_hessian":[7.56E2,4.03E2,3.53E2,3.89E2,1.4E1,2.6E1,3.27E2,7E0,3.82E2,3E0,1.1E1,2E1,6E0,2.81E2,4.6E1],"tree_param":{"num_deleted":"0","num_feature":"7","num_nodes":"15","size_leaf_vector":"1"}},{"base_weights":[-1.2562463E-2,3.2871383E-1,-6.8173486E-1,7.768833E-1,-8.018436E-1,-3.9847803E0,-5.4524827E-1,2.3755243E-1,-1.6543172E-1,-2.8288075E-1,1.735834E-1,-2.3009443E-1,-1.3177987E0,2.4691725E-1,-1.4846726E-1],"categories":[],"categories_nodes":[],"categories_segments":[],"categories_sizes":[],"default_left":[0,0,0,0,0,0,0,0,0,0,0,0,0,0,0],"id":16,"left_children":[1,3,5,7,9,11,13,-1,-1,-1,-1,-1,-1,-1,-1],"loss_changes":[1.7310222E2,2.5497696E2,1.1323758E2,2.3824654E2,1.474921E2,6.623097E1,8.756012E1,0E0,0E0,0E0,0E0,0E0,0E0,0E0,0E0],"parents":[2147483647,0,0,1,1,2,2,3,3,4,4,5,5,6,6],"right_children":[2,4,6,8,10,12,14,-1,-1,-1,-1,-1,-1,-1,-1],"split_conditions":[1.0189E3,2.3E0,1.0194E3,1.02E1,2.96E1,1.3E1,1.0201E3,2.3755243E-1,-1.6543172E-1,-2.8288075E-1,1.735834E-1,-2.3009443E-1,-1.3177987E0,2.4691725E-1,-1.4846726E-1],"split_indices":[5,0,5,3,4,4,5,0,0,0,0,0,0,0,0],"split_type":[0,0,0,0,0,0,0,0,0,0,0,0,0,0,0],"sum_hessian":[7.56E2,5.01E2,2.55E2,3.59E2,1.42E2,9E0,2.46E2,2.86E2,7.3E1,1.04E2,3.8E1,5E0,4E0,2.4E1,2.22E2],"tree_param":{"num_deleted":"0","num_feature":"7","num_nodes":"15","size_leaf_vector":"1"}},{"base_weights":[-1.2013881E-2,-1.2174941E-1,1.8590016E0,1.1753537E-1,-1.386372E0,3.2713983E0,-1.543375E0,-3.496886E-2,2.641494E-1,-9.168065E-2,-4.612597E-1,1.209616E-1,9.566763E-1,-6.09083E-1,1.433148E-1],"categories":[],"categories_nodes":[],"categories_segments":[],"categories_sizes":[],"default_left":[0,0,0,0,0,0,0,0,0,0,0,0,0,0,0],"id":17,"left_children":[1,3,5,7,9,11,13,-1,-1,-1,-1,-1,-1,-1,-1],"loss_changes":[1.5565121E2,2.1682808E2,2.0688023E2,2.1236307E2,9.626036E1,1.18062195E2,4.6311203E1,0E0,0E0,0E0,0E0,0E0,0E0,0E0,0E0],"parents":[2147483647,0,0,1,1,2,2,3,3,4,4,5,5,6,6],"right_children":[2,4,6,8,10,12,14,-1,-1,-1,-1,-1,-1,-1,-1],"split_conditions":[3.7E1,1.03E1,1.48E1,2.59E1,1.3E1,1.15E1,3.8E0,-3.496886E-2,2.641494E-1,-9.168065E-2,-4.612597E-1,1.209616E-1,9.566763E-1,-6.09083E-1,1.433148E-1],"split_indices":[4,3,3,4,4,3,0,0,0,0,0,0,0,0,0],"split_type":[0,0,0,0,0,0,0,0,0,0,0,0,0,0,0],"sum_hessian":[7.56E2,7.15E2,4.1E1,6.02E2,1.13E2,2.9E1,1.2E1,4.85E2,1.17E2,5.7E1,5.6E1,1.1E1,1.8E1,7E0,5E0],"tree_param":{"num_deleted":"0","num_feature":"7","num_nodes":"15","size_leaf_vector":"1"}},{"base_weights":[-9.230229E-3,1.1653327E0,-1.5756398E-1,1.598778E0,-1.895915E0,-1.6445335E0,-2.7799608E-2,4.024714E-1,5.4778922E-2,-4.50031E-1,-4.0244665E-2,-6.987657E-1,1.625323E-1,1.3384103E0,-2.0873003E-2],"categories":[],"categories_nodes":[],"categories_segments":[],"categories_sizes":[],"default_left":[0,0,0,0,0,0,0,0,0,0,0,0,0,0,0],"id":18,"left_children":[1,3,5,7,9,11,13,-1,-1,-1,-1,-1,-1,-1,-1],"loss_changes":[1.320737E2,1.15816216E2,1.2981345E2,4.0544647E1,6.150818E0,2.4821954E2,3.1969345E2,0E0,0E0,0E0,0E0,0E0,0E0,0E0,0E0],"parents":[2147483647,0,0,1,1,2,2,3,3,4,4,5,5,6,6],"right_children":[2,4,6,8,10,12,14,-1,-1,-1,-1,-1,-1,-1,-1],"split_conditions":[3.5E0,1.0287E3,4.2E0,1.3E1,1E-1,1.48E1,4.3E0,4.024714E-1,5.4778922E-2,-4.50031E-1,-4.0244665E-2,-6.987657E-1,1.625323E-1,1.3384103E0,-2.0873003E-2],"split_indices":[3,5,3,4,0,4,3,0,0,0,0,0,0,0,0],"split_type":[0,0,0,0,0,0,0,0,0,0,0,0,0,0,0],"sum_hessian":[7.56E2,8.4E1,6.72E2,7.4E1,1E1,5.3E1,6.19E2,5.6E1,1.8E1,8E0,2E0,3E1,2.3E1,6E0,6.13E2],"tree_param":{"num_deleted":"0","num_feature":"7","num_nodes":"15","size_leaf_vector":"1"}},{"base_weights":[-6.39585E-3,3.4212646E-1,-4.4645122E-1,-8.635168E-1,8.0049175E-1,-2.76137E0,-2.5892895E-1,-9.211461E-2,-1.648243E0,1.894695E-1,-7.3117167E-1,-8.459522E-1,6.38152E-2,5.719089E-1,-9.4327256E-2],"categories":[],"categories_nodes":[],"categories_segments":[],"categories_sizes":[],"default_left":[0,0,0,0,0,0,0,0,0,0,0,0,0,0,0],"id":19,"left_children":[1,3,5,7,9,11,13,-1,-1,-1,-1,-1,-1,-1,-1],"loss_changes":[1.1625317E2,2.3445161E2,1.447081E2,3.4402164E2,2.0437659E2,1.1443207E2,2.0764188E2,0E0,0E0,0E0,0E0,0E0,0E0,0E0,0E0],"parents":[2147483647,0,0,1,1,2,2,3,3,4,4,5,5,6,6],"right_children":[2,4,6,8,10,12,14,-1,-1,-1,-1,-1,-1,-1,-1],"split_conditions":[1.017E3,1.008E3,1.0177E3,1.0077E3,2E0,2.78E1,1.0181E3,-9.211461E-2,-1.648243E0,1.894695E-1,-7.3117167E-1,-8.459522E-1,6.38152E-2,5.719089E-1,-9.4327256E-2],"split_indices":[5,5,5,5,1,4,5,0,0,0,0,0,0,0,0],"split_type":[0,0,0,0,0,0,0,0,0,0,0,0,0,0,0],"sum_hessian":[7.56E2,4.22E2,3.34E2,1.16E2,3.06E2,2.4E1,3.1E2,1.11E2,5E0,2.97E2,9E0,1.6E1,8E0,1.9E1,2.91E2],"tree_param":{"num_deleted":"0","num_feature":"7","num_nodes":"15","size_leaf_vector":"1"}},{"base_weights":[-8.533744E-3,-9.814446E-2,1.5193187E0,2.1808974E-1,-7.982411E-1,3.4287412E0,-2.0710601E-1,8.911213E-2,-2.0777257E-1,-1.7660181E-1,8.1271106E-1,8.5214025E-1,1.6144257E-2,-5.961566E-1,1.0674187E-1],"categories":[],"categories_nodes":[],"categories_segments":[],"categories_sizes":[],"default_left":[0,0,0,0,0,0,0,0,0,0,0,0,0,0,0],"id":20,"left_children":[1,3,5,7,9,11,13,-1,-1,-1,-1,-1,-1,-1,-1],"loss_changes":[1.0379145E2,1.5869255E2,1.3916203E2,1.4170743E2,9.54919E1,5.5364426E1,4.885087E1,0E0,0E0,0E0,0E0,0E0,0E0,0E0,0E0],"parents":[2147483647,0,0,1,1,2,2,3,3,4,4,5,5,6,6],"right_children":[2,4,6,8,10,12,14,-1,-1,-1,-1,-1,-1,-1,-1],"split_conditions":[3.7E1,8.6E0,3.89E1,2.5E0,1.91E1,1.35E1,1.12E1,8.911213E-2,-2.0777257E-1,-1.7660181E-1,8.1271106E-1,8.5214025E-1,1.6144257E-2,-5.961566E-1,1.0674187E-1],"split_indices":[4,3,4,0,0,3,3,0,0,0,0,0,0,0,0],"split_type":[0,0,0,0,0,0,0,0,0,0,0,0,0,0,0],"sum_hessian":[7.56E2,7.15E2,4.1E1,4.93E2,2.22E2,1.9E1,2.2E1,4.18E2,7.5E1,2.19E2,3E0,1.5E1,4E0,4E0,1.8E1],"tree_param":{"num_deleted":"0","num_feature":"7","num_nodes":"15","size_leaf_vector":"1"}},{"base_weights":[-5.642868E-3,-2.1225092E0,4.879029E-2,-8.627669E-1,-1.3261703E0,3.9863175E-1,-3.74298E-1,1.8655188E-1,-2.69774E-1,1.0245588E-1,-3.8743436E-1,-4.4413158E-1,-4.4934656E-2],"categories":[],"categories_nodes":[],"categories_segments":[],"categories_sizes":[],"default_left":[0,0,0,0,0,0,0,0,0,0,0,0,0],"id":21,"left_children":[1,3,5,7,-1,9,11,-1,-1,-1,-1,-1,-1],"loss_changes":[8.7330956E1,1.0218675E2,1.09531425E2,1.5223143E1,0E0,1.0850309E2,9.204854E1,0E0,0E0,0E0,0E0,0E0,0E0],"parents":[2147483647,0,0,1,1,2,2,3,3,5,5,6,6],"right_children":[2,4,6,8,-1,10,12,-1,-1,-1,-1,-1,-1],"split_conditions":[9.986E2,9.979E2,1.017E3,9.953E2,-1.3261703E0,1.55E1,1.0177E3,1.8655188E-1,-2.69774E-1,1.0245588E-1,-3.8743436E-1,-4.4413158E-1,-4.4934656E-2],"split_indices":[5,5,5,5,0,0,5,0,0,0,0,0,0],"split_type":[0,0,0,0,0,0,0,0,0,0,0,0,0],"sum_hessian":[7.56E2,1.8E1,7.38E2,1.5E1,3E0,4.04E2,3.34E2,3E0,1.2E1,3.86E2,1.8E1,2.4E1,3.1E2],"tree_param":{"num_deleted":"0","num_feature":"7","num_nodes":"13","size_leaf_vector":"1"}},{"base_weights":[-7.398563E-3,-5.2155677E-2,2.7756186E0,2.701723E-2,-5.3448014E0,5.0342965E-1,3.8487842E0,2.646836E-2,-2.1245849E-1,-1.3649544E0,9.4549E-1,2.4676552E-1,2.4746598E-3,1.0653757E-1,9.7307366E-1],"categories":[],"categories_nodes":[],"categories_segments":[],"categories_sizes":[],"default_left":[0,0,0,0,0,0,0,0,0,0,0,0,0,0,0],"id":22,"left_children":[1,3,5,7,9,11,13,-1,-1,-1,-1,-1,-1,-1,-1],"loss_changes":[9.443655E1,3.127439E2,2.7323624E1,8.4582664E1,1.962367E2,1.7780664E0,2.4377007E1,0E0,0E0,0E0,0E0,0E0,0E0,0E0,0E0],"parents":[2147483647,0,0,1,1,2,2,3,3,4,4,5,5,6,6],"right_children":[2,4,6,8,10,12,14,-1,-1,-1,-1,-1,-1,-1,-1],"split_conditions":[1.91E1,1.55E1,1.0066E3,1E0,1.0138E3,1.0016E3,4.4E0,2.646836E-2,-2.1245849E-1,-1.3649544E0,9.4549E-1,2.4676552E-1,2.4746598E-3,1.0653757E-1,9.7307366E-1],"split_indices":[0,0,5,1,5,5,3,0,0,0,0,0,0,0,0],"split_type":[0,0,0,0,0,0,0,0,0,0,0,0,0,0,0],"sum_hessian":[7.56E2,7.45E2,1.1E1,7.35E2,1E1,4E0,7E0,6.71E2,6.4E1,9E0,1E0,1E0,3E0,2E0,5E0],"tree_param":{"num_deleted":"0","num_feature":"7","num_nodes":"15","size_leaf_vector":"1"}},{"base_weights":[-4.9631754E-3,4.3931663E-2,-2.135911E0,3.6714837E-1,-3.1430256E-1,2.683435E-1,-2.8963234E0,-6.440121E-1,8.822368E-2,-5.0110114E-1,-2.6371686E-2,-1.3119873E-1,3.9656922E-1,-7.54214E-1,2.9247284E-3],"categories":[],"categories_nodes":[],"categories_segments":[],"categories_sizes":[],"default_left":[0,0,0,0,0,0,0,0,0,0,0,0,0,0,0],"id":23,"left_children":[1,3,5,7,9,11,13,-1,-1,-1,-1,-1,-1,-1,-1],"loss_changes":[7.8967445E1,8.591377E1,3.1857033E1,1.0490534E2,1.403894E2,9.224626E0,3.3157578E1,0E0,0E0,0E0,0E0,0E0,0E0,0E0,0E0],"parents":[2147483647,0,0,1,1,2,2,3,3,4,4,5,5,6,6],"right_children":[2,4,6,8,10,12,14,-1,-1,-1,-1,-1,-1,-1,-1],"split_conditions":[1.0335E3,1E-1,2.9E0,1.0044E3,2E-1,1.7E0,1E0,-6.440121E-1,8.822368E-2,-5.0110114E-1,-2.6371686E-2,-1.3119873E-1,3.9656922E-1,-7.54214E-1,2.9247284E-3],"split_indices":[5,0,3,5,0,3,1,0,0,0,0,0,0,0,0],"split_type":[0,0,0,0,0,0,0,0,0,0,0,0,0,0,0],"sum_hessian":[7.56E2,7.4E2,1.6E1,3.89E2,3.51E2,4E0,1.2E1,7E0,3.82E2,2.6E1,3.25E2,3E0,1E0,9E0,3E0],"tree_param":{"num_deleted":"0","num_feature":"7","num_nodes":"15","size_leaf_vector":"1"}},{"base_weights":[-6.0435194E-3,-4.4021208E-2,2.3554063E0,1.9497527E-2,-4.29E0,4.7368923E-1,3.2370539E0,5.7903387E-2,-7.8882724E-2,-1.1145157E0,8.535782E-1,2.247262E-1,6.0592056E-3,9.5848784E-2,8.1529E-1],"categories":[],"categories_nodes":[],"categories_segments":[],"categories_sizes":[],"default_left":[0,0,0,0,0,0,0,0,0,0,0,0,0,0,0],"id":24,"left_children":[1,3,5,7,9,11,13,-1,-1,-1,-1,-1,-1,-1,-1],"loss_changes":[6.799326E1,2.0127927E2,1.8374779E1,8.237252E1,1.4452095E2,1.4068573E0,1.6565544E1,0E0,0E0,0E0,0E0,0E0,0E0,0E0,0E0],"parents":[2147483647,0,0,1,1,2,2,3,3,4,4,5,5,6,6],"right_children":[2,4,6,8,10,12,14,-1,-1,-1,-1,-1,-1,-1,-1],"split_conditions":[1.91E1,1.55E1,1.0066E3,1.0181E3,1.0138E3,1.0016E3,4.4E0,5.7903387E-2,-7.8882724E-2,-1.1145157E0,8.535782E-1,2.247262E-1,6.0592056E-3,9.5848784E-2,8.1529E-1],"split_indices":[0,0,5,5,5,5,3,0,0,0,0,0,0,0,0],"split_type":[0,0,0,0,0,0,0,0,0,0,0,0,0,0,0],"sum_hessian":[7.56E2,7.45E2,1.1E1,7.35E2,1E1,4E0,7E0,4.45E2,2.9E2,9E0,1E0,1E0,3E0,2E0,5E0],"tree_param":{"num_deleted":"0","num_feature":"7","num_nodes":"15","size_leaf_vector":"1"}},{"base_weights":[-3.698641E-3,8.3535576E-1,-1.0966584E-1,-7.800321E-1,1.3122103E0,-1.3269035E0,-3.4714937E-3,9.288859E-2,-3.2967716E-1,1.9806828E-1,6.0312843E-1,-8.942742E-2,-1.0306324E0,1.0725662E0,-1.2929036E-2],"categories":[],"categories_nodes":[],"categories_segments":[],"categories_sizes":[],"default_left":[0,0,0,0,0,0,0,0,0,0,0,0,0,0,0],"id":25,"left_children":[1,3,5,7,9,11,13,-1,-1,-1,-1,-1,-1,-1,-1],"loss_changes":[6.7398186E1,6.64995E1,8.698989E1,2.2378468E1,3.320008E1,1.7947131E2,2.0387808E2,0E0,0E0,0E0,0E0,0E0,0E0,0E0,0E0],"parents":[2147483647,0,0,1,1,2,2,3,3,4,4,5,5,6,6],"right_children":[2,4,6,8,10,12,14,-1,-1,-1,-1,-1,-1,-1,-1],"split_conditions":[3.5E0,1.9E0,4.2E0,1.0183E3,1.85E1,4.1E0,4.3E0,9.288859E-2,-3.2967716E-1,1.9806828E-1,6.0312843E-1,-8.942742E-2,-1.0306324E0,1.0725662E0,-1.2929036E-2],"split_indices":[3,3,3,5,4,3,3,0,0,0,0,0,0,0,0],"split_type":[0,0,0,0,0,0,0,0,0,0,0,0,0,0,0],"sum_hessian":[7.56E2,8.4E1,6.72E2,1.9E1,6.5E1,5.3E1,6.19E2,8E0,1.1E1,5.6E1,9E0,4.4E1,9E0,6E0,6.13E2],"tree_param":{"num_deleted":"0","num_feature":"7","num_nodes":"15","size_leaf_vector":"1"}},{"base_weights":[-2.2930386E-3,-7.147472E-2,1.1771445E0,6.995364E-2,-9.138586E-1,2.140341E0,-1.1361661E0,-3.5080675E-2,2.101626E-1,1.2574427E-2,-3.8219473E-1,2.1163981E-2,6.625304E-1,-5.353262E-1,1.1332162E-1],"categories":[],"categories_nodes":[],"categories_segments":[],"categories_sizes":[],"default_left":[0,0,0,0,0,0,0,0,0,0,0,0,0,0,0],"id":26,"left_children":[1,3,5,7,9,11,13,-1,-1,-1,-1,-1,-1,-1,-1],"loss_changes":[6.1851913E1,8.5366005E1,9.6015045E1,1.4794998E2,1.00433174E2,7.1202194E1,3.5616425E1,0E0,0E0,0E0,0E0,0E0,0E0,0E0,0E0],"parents":[2147483647,0,0,1,1,2,2,3,3,4,4,5,5,6,6],"right_children":[2,4,6,8,10,12,14,-1,-1,-1,-1,-1,-1,-1,-1],"split_conditions":[3.7E1,1.05E1,1.48E1,2.59E1,1.3E1,1.15E1,1.0079E3,-3.5080675E-2,2.101626E-1,1.2574427E-2,-3.8219473E-1,2.1163981E-2,6.625304E-1,-5.353262E-1,1.1332162E-1],"split_indices":[4,3,3,4,4,3,5,0,0,0,0,0,0,0,0],"split_type":[0,0,0,0,0,0,0,0,0,0,0,0,0,0,0],"sum_hessian":[7.56E2,7.15E2,4.1E1,6.13E2,1.02E2,2.9E1,1.2E1,4.91E2,1.22E2,5.2E1,5E1,1.1E1,1.8E1,6E0,6E0],"tree_param":{"num_deleted":"0","num_feature":"7","num_nodes":"15","size_leaf_vector":"1"}},{"base_weights":[-1.7458044E-3,4.472667E-1,-1.5726213E-1,-8.976195E-2,1.6866846E0,-4.6545693E-1,3.630151E-1,6.738932E-2,-5.858998E-1,4.358068E-1,-2.581409E-1,2.3388123E-2,-3.3851656E-1,1.465907E-1,-2.3594594E-1],"categories":[],"categories_nodes":[],"categories_segments":[],"categories_sizes":[],"default_left":[0,0,0,0,0,0,0,0,0,0,0,0,0,0,0],"id":27,"left_children":[1,3,5,7,9,11,13,-1,-1,-1,-1,-1,-1,-1,-1],"loss_changes":[5.293072E1,1.2994397E2,9.0444176E1,1.6699544E2,8.930151E1,2.531929E2,1.2071598E2,0E0,0E0,0E0,0E0,0E0,0E0,0E0,0E0],"parents":[2147483647,0,0,1,1,2,2,3,3,4,4,5,5,6,6],"right_children":[2,4,6,8,10,12,14,-1,-1,-1,-1,-1,-1,-1,-1],"split_conditions":[4.9E0,1.85E1,2.59E1,1.3E1,2.2E0,1.3E1,1.25E1,6.738932E-2,-5.858998E-1,4.358068E-1,-2.581409E-1,2.3388123E-2,-3.3851656E-1,1.465907E-1,-2.3594594E-1],"split_indices":[3,4,4,4,0,4,3,0,0,0,0,0,0,0,0],"split_type":[0,0,0,0,0,0,0,0,0,0,0,0,0,0,0],"sum_hessian":[7.56E2,1.94E2,5.62E2,1.36E2,5.8E1,3.53E2,2.09E2,1.19E2,1.7E1,5E1,8E0,2.4E2,1.13E2,1.69E2,4E1],"tree_param":{"num_deleted":"0","num_feature":"7","num_nodes":"15","size_leaf_vector":"1"}},{"base_weights":[-2.381124E-3,-3.477543E-2,2.0116632E0,1.3027964E-2,-3.2300956E0,9.903459E-1,3.2434382E0,6.0502272E-2,-4.863445E-2,-8.719956E-1,8.0687296E-1,2.0741804E-2,2.5372133E-1,1.1745081E-1,7.5213414E-1],"categories":[],"categories_nodes":[],"categories_segments":[],"categories_sizes":[],"default_left":[0,0,0,0,0,0,0,0,0,0,0,0,0,0,0],"id":28,"left_children":[1,3,5,7,9,11,13,-1,-1,-1,-1,-1,-1,-1,-1],"loss_changes":[4.945933E1,1.1399144E2,1.1884274E1,5.4659527E1,1.078776E2,1.8421636E0,4.6608543E0,0E0,0E0,0E0,0E0,0E0,0E0,0E0,0E0],"parents":[2147483647,0,0,1,1,2,2,3,3,4,4,5,5,6,6],"right_children":[2,4,6,8,10,12,14,-1,-1,-1,-1,-1,-1,-1,-1],"split_conditions":[1.91E1,1.55E1,1.0111E3,1.0156E3,1.0138E3,2.49E1,4.1E0,6.0502272E-2,-4.863445E-2,-8.719956E-1,8.0687296E-1,2.0741804E-2,2.5372133E-1,1.1745081E-1,7.5213414E-1],"split_indices":[0,0,5,5,5,0,3,0,0,0,0,0,0,0,0],"split_type":[0,0,0,0,0,0,0,0,0,0,0,0,0,0,0],"sum_hessian":[7.56E2,7.45E2,1.1E1,7.35E2,1E1,7E0,4E0,3.45E2,3.9E2,9E0,1E0,2E0,5E0,1E0,3E0],"tree_param":{"num_deleted":"0","num_feature":"7","num_nodes":"15","size_leaf_vector":"1"}},{"base_weights":[-4.641168E-4,6.9597965E-1,-8.8424385E-2,-6.38853E-1,1.0899292E0,-1.162149E0,5.236186E-3,6.8464926E-3,-3.3055207E-1,2.9957053E-1,-1.6216096E-2,-9.474993E-2,-8.2874626E-1,8.4315485E-1,-8.5550435E-3],"categories":[],"categories_nodes":[],"categories_segments":[],"categories_sizes":[],"default_left":[0,0,0,0,0,0,0,0,0,0,0,0,0,0,0],"id":29,"left_children":[1,3,5,7,9,11,13,-1,-1,-1,-1,-1,-1,-1,-1],"loss_changes":[4.643489E1,4.539413E1,6.768677E1,1.37055025E1,3.1648483E1,1.0887294E2,1.2551572E2,0E0,0E0,0E0,0E0,0E0,0E0,0E0,0E0],"parents":[2147483647,0,0,1,1,2,2,3,3,4,4,5,5,6,6],"right_children":[2,4,6,8,10,12,14,-1,-1,-1,-1,-1,-1,-1,-1],"split_conditions":[3.5E0,1.9E0,4.2E0,1.0247E3,1.3E1,4.1E0,4.3E0,6.8464926E-3,-3.3055207E-1,2.9957053E-1,-1.6216096E-2,-9.474993E-2,-8.2874626E-1,8.4315485E-1,-8.5550435E-3],"split_indices":[3,3,3,5,4,3,3,0,0,0,0,0,0,0,0],"split_type":[0,0,0,0,0,0,0,0,0,0,0,0,0,0,0],"sum_hessian":[7.56E2,8.4E1,6.72E2,1.9E1,6.5E1,5.3E1,6.19E2,1.2E1,7E0,4.8E1,1.7E1,4.4E1,9E0,6E0,6.13E2],"tree_param":{"num_deleted":"0","num_feature":"7","num_nodes":"15","size_leaf_vector":"1"}},{"base_weights":[-5.419967E-4,-5.71721E-2,9.648794E-1,1.6577761E-1,-5.508043E-1,2.293489E0,-2.3238455E-1,8.4258914E-2,-7.018825E-2,-1.7554872E-1,2.3870729E-2,5.594212E-1,-8.405109E-2,-5.2757734E-1,8.257463E-2],"categories":[],"categories_nodes":[],"categories_segments":[],"categories_sizes":[],"default_left":[0,0,0,0,0,0,0,0,0,0,0,0,0,0,0],"id":30,"left_children":[1,3,5,7,9,11,13,-1,-1,-1,-1,-1,-1,-1,-1],"loss_changes":[4.1441803E1,7.889081E1,6.734221E1,6.537088E1,4.896427E1,2.8509247E1,3.6788994E1,0E0,0E0,0E0,0E0,0E0,0E0,0E0,0E0],"parents":[2147483647,0,0,1,1,2,2,3,3,4,4,5,5,6,6],"right_children":[2,4,6,8,10,12,14,-1,-1,-1,-1,-1,-1,-1,-1],"split_conditions":[3.7E1,8.6E0,3.89E1,1.0201E3,2.96E1,1.44E1,1.12E1,8.4258914E-2,-7.018825E-2,-1.7554872E-1,2.3870729E-2,5.594212E-1,-8.405109E-2,-5.2757734E-1,8.257463E-2],"split_indices":[4,3,4,5,4,3,3,0,0,0,0,0,0,0,0],"split_type":[0,0,0,0,0,0,0,0,0,0,0,0,0,0,0],"sum_hessian":[7.56E2,7.15E2,4.1E1,4.93E2,2.22E2,1.9E1,2.2E1,3.3E2,1.63E2,1.49E2,7.3E1,1.6E1,3E0,4E0,1.8E1],"tree_param":{"num_deleted":"0","num_feature":"7","num_nodes":"15","size_leaf_vector":"1"}},{"base_weights":[-5.75289E-4,2.107451E-1,-2.4174157E-1,-1.4779352E0,3.118679E-1,-2.008065E0,-9.560597E-2,6.567526E-2,-6.322171E-1,5.817845E-1,3.5090115E-2,-5.860439E-1,2.0905283E-1,1.4133582E-1,-6.399973E-2],"categories":[],"categories_nodes":[],"categories_segments":[],"categories_sizes":[],"default_left":[0,0,0,0,0,0,0,0,0,0,0,0,0,0,0],"id":31,"left_children":[1,3,5,7,9,11,13,-1,-1,-1,-1,-1,-1,-1,-1],"loss_changes":[3.8630203E1,6.944959E1,9.118347E1,7.096478E1,1.3482582E2,7.9085144E1,5.927495E1,0E0,0E0,0E0,0E0,0E0,0E0,0E0,0E0],"parents":[2147483647,0,0,1,1,2,2,3,3,4,4,5,5,6,6],"right_children":[2,4,6,8,10,12,14,-1,-1,-1,-1,-1,-1,-1,-1],"split_conditions":[1E-1,1.0092E3,2E-1,8E0,1.0112E3,2.78E1,5.8E0,6.567526E-2,-6.322171E-1,5.817845E-1,3.5090115E-2,-5.860439E-1,2.0905283E-1,1.4133582E-1,-6.399973E-2],"split_indices":[0,5,0,3,5,4,3,0,0,0,0,0,0,0,0],"split_type":[0,0,0,0,0,0,0,0,0,0,0,0,0,0,0],"sum_hessian":[7.56E2,4.03E2,3.53E2,2.2E1,3.81E2,2.6E1,3.27E2,1.1E1,1.1E1,1.8E1,3.63E2,2E1,6E0,7.1E1,2.56E2],"tree_param":{"num_deleted":"0","num_feature":"7","num_nodes":"15","size_leaf_vector":"1"}},{"base_weights":[-7.895091E-4,-3.1084226E-2,1.6092148E0,5.698055E-3,-3.4157665E0,-1.5347438E-1,1.8510576E0,-2.966028E-1,8.158308E-3,-9.953169E-1,7.5099605E-1,1.8342648E-1,5.5755633E-1],"categories":[],"categories_nodes":[],"categories_segments":[],"categories_sizes":[],"default_left":[0,0,0,0,0,0,0,0,0,0,0,0,0],"id":32,"left_children":[1,3,5,7,9,-1,11,-1,-1,-1,-1,-1,-1],"loss_changes":[3.6972412E1,9.264474E1,9.467102E0,3.856439E1,1.08224815E2,0E0,8.816029E0,0E0,0E0,0E0,0E0,0E0,0E0],"parents":[2147483647,0,0,1,1,2,2,3,3,4,4,6,6],"right_children":[2,4,6,8,10,-1,12,-1,-1,-1,-1,-1,-1],"split_conditions":[1.78E1,1.58E1,9.96E2,9.986E2,1.0138E3,-1.5347438E-1,8.4E0,-2.966028E-1,8.158308E-3,-9.953169E-1,7.5099605E-1,1.8342648E-1,5.5755633E-1],"split_indices":[0,0,5,5,5,0,3,0,0,0,0,0,0],"split_type":[0,0,0,0,0,0,0,0,0,0,0,0,0],"sum_hessian":[7.56E2,7.43E2,1.3E1,7.36E2,7E0,1E0,1.2E1,1.6E1,7.2E2,6E0,1E0,7E0,5E0],"tree_param":{"num_deleted":"0","num_feature":"7","num_nodes":"13","size_leaf_vector":"1"}},{"base_weights":[-5.592579E-4,2.2286873E-2,-2.1423142E0,-1.6952686E-1,2.5038517E-1,-6.553924E-1,8.410862E-1,3.581897E-2,-5.2267814E-1,1.2087458E-1,-1.2316977E-1,2.2116295E-1,3.116293E-2],"categories":[],"categories_nodes":[],"categories_segments":[],"categories_sizes":[],"default_left":[0,0,0,0,0,0,0,0,0,0,0,0,0],"id":33,"left_children":[1,3,5,7,9,-1,11,-1,-1,-1,-1,-1,-1],"loss_changes":[3.708837E1,3.285674E1,2.9837074E1,3.480775E2,1.0554842E2,0E0,3.719306E-1,0E0,0E0,0E0,0E0,0E0,0E0],"parents":[2147483647,0,0,1,1,2,2,3,3,4,4,6,6],"right_children":[2,4,6,8,10,-1,12,-1,-1,-1,-1,-1,-1],"split_conditions":[1.0376E3,2.04E1,1E0,1.3E1,1.2E0,-6.553924E-1,4E0,3.581897E-2,-5.2267814E-1,1.2087458E-1,-1.2316977E-1,2.2116295E-1,3.116293E-2],"split_indices":[5,4,1,4,0,0,1,0,0,0,0,0,0],"split_type":[0,0,0,0,0,0,0,0,0,0,0,0,0],"sum_hessian":[7.56E2,7.49E2,7E0,4.07E2,3.42E2,5E0,2E0,3.57E2,5E1,2.43E2,9.9E1,1E0,1E0],"tree_param":{"num_deleted":"0","num_feature":"7","num_nodes":"13","size_leaf_vector":"1"}},{"base_weights":[-1.6258734E-3,-4.7680847E-2,7.835405E-1,1.1584822E-1,-4.0972427E-1,1.4195923E0,-7.445437E-1,4.0407687E-2,-2.3559232E-1,-5.558247E-2,-4.195342E-1,4.936315E-1,8.987018E-3,-4.27447E-1,2.4729374E-1],"categories":[],"categories_nodes":[],"categories_segments":[],"categories_sizes":[],"default_left":[0,0,0,0,0,0,0,0,0,0,0,0,0,0,0],"id":34,"left_children":[1,3,5,7,9,11,13,-1,-1,-1,-1,-1,-1,-1,-1],"loss_changes":[2.7411098E1,4.2437973E1,4.1878456E1,5.5325783E1,4.9032627E1,4.3131615E1,3.8508827E1,0E0,0E0,0E0,0E0,0E0,0E0,0E0,0E0],"parents":[2147483647,0,0,1,1,2,2,3,3,4,4,5,5,6,6],"right_children":[2,4,6,8,10,12,14,-1,-1,-1,-1,-1,-1,-1,-1],"split_conditions":[3.7E1,8.6E0,1.48E1,1E0,1.0281E3,1.0139E3,3.8E0,4.0407687E-2,-2.3559232E-1,-5.558247E-2,-4.195342E-1,4.936315E-1,8.987018E-3,-4.27447E-1,2.4729374E-1],"split_indices":[4,3,3,1,5,5,0,0,0,0,0,0,0,0,0],"split_type":[0,0,0,0,0,0,0,0,0,0,0,0,0,0,0],"sum_hessian":[7.56E2,7.15E2,4.1E1,4.93E2,2.22E2,2.9E1,1.2E1,4.63E2,3E1,2.07E2,1.5E1,1.6E1,1.3E1,7E0,5E0],"tree_param":{"num_deleted":"0","num_feature":"7","num_nodes":"15","size_leaf_vector":"1"}},{"base_weights":[-1.7602296E-3,-2.7558E-2,1.3693328E0,3.8162037E-3,-2.5902088E0,8.467704E-1,6.006276E-1,4.2699665E-2,-3.6348693E-2,-7.562399E-1,6.9377166E-1,-1.361506E-1,2.0950456E-1],"categories":[],"categories_nodes":[],"categories_segments":[],"categories_sizes":[],"default_left":[0,0,0,0,0,0,0,0,0,0,0,0,0],"id":35,"left_children":[1,3,5,7,9,11,-1,-1,-1,-1,-1,-1,-1],"loss_changes":[2.681369E1,5.9828323E1,9.40974E0,2.867549E1,7.8063065E1,4.392952E0,0E0,0E0,0E0,0E0,0E0,0E0,0E0],"parents":[2147483647,0,0,1,1,2,2,3,3,4,4,5,5],"right_children":[2,4,6,8,10,12,-1,-1,-1,-1,-1,-1,-1],"split_conditions":[1.78E1,1.55E1,1.0133E3,1.0156E3,1.0138E3,9.96E2,6.006276E-1,4.2699665E-2,-3.6348693E-2,-7.562399E-1,6.9377166E-1,-1.361506E-1,2.0950456E-1],"split_indices":[0,0,5,5,5,5,0,0,0,0,0,0,0],"split_type":[0,0,0,0,0,0,0,0,0,0,0,0,0],"sum_hessian":[7.56E2,7.43E2,1.3E1,7.35E2,8E0,1.1E1,2E0,3.45E2,3.9E2,7E0,1E0,1E0,1E1],"tree_param":{"num_deleted":"0","num_feature":"7","num_nodes":"13","size_leaf_vector":"1"}},{"base_weights":[-5.9216743E-4,-4.1789976E-1,8.339936E-2,-7.54268E-2,-2.7890918E0,1.2278317E0,-1.2930968E-2,-5.6562167E-2,4.6587834E-1,-1.3199868E0,-9.137932E-2,4.7512203E-1,-3.458889E-2,-9.51007E-1,2.315439E-3],"categories":[],"categories_nodes":[],"categories_segments":[],"categories_sizes":[],"default_left":[0,0,0,0,0,0,0,0,0,0,0,0,0,0,0],"id":36,"left_children":[1,3,5,7,9,11,13,-1,-1,-1,-1,-1,-1,-1,-1],"loss_changes":[2.6567932E1,1.0292241E2,6.957955E1,5.6515526E1,1.3918657E2,7.91921E1,6.7811455E1,0E0,0E0,0E0,0E0,0E0,0E0,0E0,0E0],"parents":[2147483647,0,0,1,1,2,2,3,3,4,4,5,5,6,6],"right_children":[2,4,6,8,10,12,14,-1,-1,-1,-1,-1,-1,-1,-1],"split_conditions":[1.0084E3,1.0077E3,1.0105E3,1.0073E3,1.008E3,7.5E0,1.0106E3,-5.6562167E-2,4.6587834E-1,-1.3199868E0,-9.137932E-2,4.7512203E-1,-3.458889E-2,-9.51007E-1,2.315439E-3],"split_indices":[5,5,5,5,5,3,5,0,0,0,0,0,0,0,0],"split_type":[0,0,0,0,0,0,0,0,0,0,0,0,0,0,0],"sum_hessian":[7.56E2,1.26E2,6.3E2,1.11E2,1.5E1,4.8E1,5.82E2,1.03E2,8E0,5E0,1E1,2.6E1,2.2E1,2E0,5.8E2],"tree_param":{"num_deleted":"0","num_feature":"7","num_nodes":"15","size_leaf_vector":"1"}},{"base_weights":[-2.4687801E-3,-7.248919E-2,4.691224E-1,-7.355239E-1,4.029634E-2,1.2536508E0,-7.4987316E-1,-7.763594E-2,-1.1761982E0,4.123218E-2,-1.140069E-1,8.489494E-1,1.1410733E-1,3.2386535E-1,-3.4769267E-1],"categories":[],"categories_nodes":[],"categories_segments":[],"categories_sizes":[],"default_left":[0,0,0,0,0,0,0,0,0,0,0,0,0,0,0],"id":37,"left_children":[1,3,5,7,9,11,13,-1,-1,-1,-1,-1,-1,-1,-1],"loss_changes":[2.5030907E1,4.938491E1,9.466107E1,1.6929294E2,5.7313747E1,1.20173805E2,9.415968E1,0E0,0E0,0E0,0E0,0E0,0E0,0E0,0E0],"parents":[2147483647,0,0,1,1,2,2,3,3,4,4,5,5,6,6],"right_children":[2,4,6,8,10,12,14,-1,-1,-1,-1,-1,-1,-1,-1],"split_conditions":[3.15E1,1.0081E3,1.25E1,1.0077E3,8.6E0,1.0073E3,1E-1,-7.763594E-2,-1.1761982E0,4.123218E-2,-1.140069E-1,8.489494E-1,1.1410733E-1,3.2386535E-1,-3.4769267E-1],"split_indices":[4,5,3,5,3,5,0,0,0,0,0,0,0,0,0],"split_type":[0,0,0,0,0,0,0,0,0,0,0,0,0,0,0],"sum_hessian":[7.56E2,6.59E2,9.7E1,9.5E1,5.64E2,5.9E1,3.8E1,9E1,5E0,4.44E2,1.2E2,1E1,4.9E1,1.1E1,2.7E1],"tree_param":{"num_deleted":"0","num_feature":"7","num_nodes":"15","size_leaf_vector":"1"}},{"base_weights":[-2.4869868E-3,-2.5293687E-2,1.2097038E0,-9.92777E-4,-2.2608533E0,7.4202615E-1,5.3543603E-1,4.4979684E-2,-2.7501494E-2,-6.983561E-1,6.355637E-1,-1.0911572E-1,1.8173584E-1],"categories":[],"categories_nodes":[],"categories_segments":[],"categories_sizes":[],"default_left":[0,0,0,0,0,0,0,0,0,0,0,0,0],"id":38,"left_children":[1,3,5,7,9,11,-1,-1,-1,-1,-1,-1,-1],"loss_changes":[2.0958673E1,4.0416397E1,7.621744E0,2.2758137E1,6.4653114E1,3.0707545E0,0E0,0E0,0E0,0E0,0E0,0E0,0E0],"parents":[2147483647,0,0,1,1,2,2,3,3,4,4,5,5],"right_children":[2,4,6,8,10,12,-1,-1,-1,-1,-1,-1,-1],"split_conditions":[1.78E1,1.58E1,1.0133E3,1.0139E3,1.0138E3,9.96E2,5.3543603E-1,4.4979684E-2,-2.7501494E-2,-6.983561E-1,6.355637E-1,-1.0911572E-1,1.8173584E-1],"split_indices":[0,0,5,5,5,5,0,0,0,0,0,0,0],"split_type":[0,0,0,0,0,0,0,0,0,0,0,0,0],"sum_hessian":[7.56E2,7.43E2,1.3E1,7.36E2,7E0,1.1E1,2E0,2.77E2,4.59E2,6E0,1E0,1E0,1E1],"tree_param":{"num_deleted":"0","num_feature":"7","num_nodes":"13","size_leaf_vector":"1"}},{"base_weights":[-1.2461602E-3,-1.49439E-1,1.7521828E-1,1.3549864E-1,-2.0820448E0,7.477441E-1,-1.9018833E-1,7.284271E-2,-9.0922795E-2,-8.590024E-2,-8.4377253E-1,2.072135E-1,-2.6290092E-1,-3.3008173E-1,2.559497E-2],"categories":[],"categories_nodes":[],"categories_segments":[],"categories_sizes":[],"default_left":[0,0,0,0,0,0,0,0,0,0,0,0,0,0,0],"id":39,"left_children":[1,3,5,7,9,11,13,-1,-1,-1,-1,-1,-1,-1,-1],"loss_changes":[1.9822315E1,2.2715904E2,7.252705E1,4.875389E1,1.8534079E2,8.163216E1,9.870394E1,0E0,0E0,0E0,0E0,0E0,0E0,0E0,0E0],"parents":[2147483647,0,0,1,1,2,2,3,3,4,4,5,5,6,6],"right_children":[2,4,6,8,10,12,14,-1,-1,-1,-1,-1,-1,-1,-1],"split_conditions":[2.04E1,1.3E1,7.2E0,1.0201E3,5.4E0,1.0239E3,2.59E1,7.284271E-2,-9.0922795E-2,-8.590024E-2,-8.4377253E-1,2.072135E-1,-2.6290092E-1,-3.3008173E-1,2.559497E-2],"split_indices":[4,4,3,5,3,5,4,0,0,0,0,0,0,0,0],"split_type":[0,0,0,0,0,0,0,0,0,0,0,0,0,0,0],"sum_hessian":[7.56E2,4.11E2,3.45E2,3.59E2,5.2E1,1.34E2,2.11E2,2.59E2,1E2,3E1,2.2E1,1.18E2,1.6E1,3.7E1,1.74E2],"tree_param":{"num_deleted":"0","num_feature":"7","num_nodes":"15","size_leaf_vector":"1"}},{"base_weights":[-2.7248801E-3,-3.5286415E-1,7.799346E-2,-1.2440382E0,5.9949096E-2,1.6587294E0,2.7156996E-3,-5.887371E-2,-1.4735659E0,7.721481E-1,-7.355594E-2,3.921927E-2,7.802671E-1,-1.9011833E-1,1.666425E-2],"categories":[],"categories_nodes":[],"categories_segments":[],"categories_sizes":[],"default_left":[0,0,0,0,0,0,0,0,0,0,0,0,0,0,0],"id":40,"left_children":[1,3,5,7,9,11,13,-1,-1,-1,-1,-1,-1,-1,-1],"loss_changes":[2.1422356E1,5.2314735E1,7.329597E1,2.595322E2,1.6073927E2,9.107803E1,4.533906E1,0E0,0E0,0E0,0E0,0E0,0E0,0E0,0E0],"parents":[2147483647,0,0,1,1,2,2,3,3,4,4,5,5,6,6],"right_children":[2,4,6,8,10,12,14,-1,-1,-1,-1,-1,-1,-1,-1],"split_conditions":[1.0094E3,7.1E0,1.0103E3,6.7E0,8E0,8.2E0,1.0118E3,-5.887371E-2,-1.4735659E0,7.721481E-1,-7.355594E-2,3.921927E-2,7.802671E-1,-1.9011833E-1,1.666425E-2],"split_indices":[5,3,5,3,3,3,5,0,0,0,0,0,0,0,0],"split_type":[0,0,0,0,0,0,0,0,0,0,0,0,0,0,0],"sum_hessian":[7.56E2,1.41E2,6.15E2,4.4E1,9.7E1,2.7E1,5.88E2,3.9E1,5E0,9E0,8.8E1,1.7E1,1E1,4.5E1,5.43E2],"tree_param":{"num_deleted":"0","num_feature":"7","num_nodes":"15","size_leaf_vector":"1"}},{"base_weights":[-2.4280883E-3,7.683024E-2,-3.2636023E-1,1.6708799E-2,1.1603727E0,-1.2966941E-1,-3.0473957E0,-1.0579724E0,8.863637E-3,5.7001346E-1,-1.889238E-1,-5.8778454E-2,1.1054761E0,-8.455666E-1,-4.395633E-2],"categories":[],"categories_nodes":[],"categories_segments":[],"categories_sizes":[],"default_left":[0,0,0,0,0,0,0,0,0,0,0,0,0,0,0],"id":41,"left_children":[1,3,5,7,9,11,13,-1,-1,-1,-1,-1,-1,-1,-1],"loss_changes":[1.9460533E1,3.965339E1,7.9350044E1,8.4917885E1,1.16509605E2,1.316868E2,3.2449013E1,0E0,0E0,0E0,0E0,0E0,0E0,0E0,0E0],"parents":[2147483647,0,0,1,1,2,2,3,3,4,4,5,5,6,6],"right_children":[2,4,6,8,10,12,14,-1,-1,-1,-1,-1,-1,-1,-1],"split_conditions":[2.5E0,1.8E0,1.0206E3,9.986E2,9E0,1.0192E3,7.8E0,-1.0579724E0,8.863637E-3,5.7001346E-1,-1.889238E-1,-5.8778454E-2,1.1054761E0,-8.455666E-1,-4.395633E-2],"split_indices":[0,0,5,5,3,5,3,0,0,0,0,0,0,0,0],"split_type":[0,0,0,0,0,0,0,0,0,0,0,0,0,0,0],"sum_hessian":[7.56E2,6.08E2,1.48E2,5.77E2,3.1E1,1.39E2,9E0,2E0,5.75E2,1.7E1,1.4E1,1.36E2,3E0,6E0,3E0],"tree_param":{"num_deleted":"0","num_feature":"7","num_nodes":"15","size_leaf_vector":"1"}},{"base_weights":[-2.6171324E-3,-2.3211535E-2,1.0920153E0,-9.85974E-4,-1.8381895E0,6.9120884E-1,4.6624714E-1,-4.7826986E-3,2.0644942E-1,-5.36793E-1,4.928014E-1,-9.225495E-2,1.6758284E-1],"categories":[],"categories_nodes":[],"categories_segments":[],"categories_sizes":[],"default_left":[0,0,0,0,0,0,0,0,0,0,0,0,0],"id":42,"left_children":[1,3,5,7,9,11,-1,-1,-1,-1,-1,-1,-1],"loss_changes":[1.7090624E1,3.0010332E1,5.3422546E0,1.7460135E1,3.9361538E1,2.4154139E0,0E0,0E0,0E0,0E0,0E0,0E0,0E0],"parents":[2147483647,0,0,1,1,2,2,3,3,4,4,5,5],"right_children":[2,4,6,8,10,12,-1,-1,-1,-1,-1,-1,-1],"split_conditions":[1.78E1,1.55E1,1.0133E3,1.08E1,1.0138E3,9.96E2,4.6624714E-1,-4.7826986E-3,2.0644942E-1,-5.36793E-1,4.928014E-1,-9.225495E-2,1.6758284E-1],"split_indices":[0,0,5,0,5,5,0,0,0,0,0,0,0],"split_type":[0,0,0,0,0,0,0,0,0,0,0,0,0],"sum_hessian":[7.56E2,7.43E2,1.3E1,7.35E2,8E0,1.1E1,2E0,7.2E2,1.5E1,7E0,1E0,1E0,1E1],"tree_param":{"num_deleted":"0","num_feature":"7","num_nodes":"13","size_leaf_vector":"1"}},{"base_weights":[-1.1697098E-3,-3.7348192E-2,6.156151E-1,4.688554E-2,-4.0021253E-1,1.3103254E0,-3.834611E-1,3.0794209E-2,-1.4771362E-1,-4.571912E-2,-5.045129E-1,4.178605E-2,5.386215E-1,1.0207015E-1,-3.7218598E-1],"categories":[],"categories_nodes":[],"categories_segments":[],"categories_sizes":[],"default_left":[0,0,0,0,0,0,0,0,0,0,0,0,0,0,0],"id":43,"left_children":[1,3,5,7,9,11,13,-1,-1,-1,-1,-1,-1,-1,-1],"loss_changes":[1.6914948E1,2.1903605E1,2.9653336E1,4.9066143E1,4.85946E1,3.7512066E1,2.472015E1,0E0,0E0,0E0,0E0,0E0,0E0,0E0,0E0],"parents":[2147483647,0,0,1,1,2,2,3,3,4,4,5,5,6,6],"right_children":[2,4,6,8,10,12,14,-1,-1,-1,-1,-1,-1,-1,-1],"split_conditions":[3.7E1,2.5E0,4.08E1,1.05E1,1.0206E3,3E-1,1.6E1,3.0794209E-2,-1.4771362E-1,-4.571912E-2,-5.045129E-1,4.178605E-2,5.386215E-1,1.0207015E-1,-3.7218598E-1],"split_indices":[4,0,4,3,5,0,3,0,0,0,0,0,0,0,0],"split_type":[0,0,0,0,0,0,0,0,0,0,0,0,0,0,0],"sum_hessian":[7.56E2,7.15E2,4.1E1,5.81E2,1.34E2,2.4E1,1.7E1,5.12E2,6.9E1,1.25E2,9E0,1.4E1,1E1,1.1E1,6E0],"tree_param":{"num_deleted":"0","num_feature":"7","num_nodes":"15","size_leaf_vector":"1"}},{"base_weights":[-1.407134E-3,-2.4852365E-2,1.0859535E0,-1.3695848E0,6.670092E-3,2.1564667E0,-1.0576468E0,-5.413214E-1,3.0654466E-1,3.9595816E-1,-1.9518052E-3,5.228235E-1,-2.4200383E-1,-6.4091134E-1,1.6338949E-1],"categories":[],"categories_nodes":[],"categories_segments":[],"categories_sizes":[],"default_left":[0,0,0,0,0,0,0,0,0,0,0,0,0,0,0],"id":44,"left_children":[1,3,5,7,9,11,13,-1,-1,-1,-1,-1,-1,-1,-1],"loss_changes":[1.9325506E1,3.1461975E1,3.8996826E1,7.0116135E1,2.3553799E1,2.0110546E1,2.6765461E1,0E0,0E0,0E0,0E0,0E0,0E0,0E0,0E0],"parents":[2147483647,0,0,1,1,2,2,3,3,4,4,5,5,6,6],"right_children":[2,4,6,8,10,12,14,-1,-1,-1,-1,-1,-1,-1,-1],"split_conditions":[1.62E1,1.0002E3,4.08E1,1E0,1.001E3,4.1E0,6E-1,-5.413214E-1,3.0654466E-1,3.9595816E-1,-1.9518052E-3,5.228235E-1,-2.4200383E-1,-6.4091134E-1,1.6338949E-1],"split_indices":[3,5,4,1,5,0,0,0,0,0,0,0,0,0,0],"split_type":[0,0,0,0,0,0,0,0,0,0,0,0,0,0,0],"sum_hessian":[7.56E2,7.41E2,1.5E1,1.6E1,7.25E2,1E1,5E0,1.1E1,5E0,5E0,7.2E2,9E0,1E0,2E0,3E0],"tree_param":{"num_deleted":"0","num_feature":"7","num_nodes":"15","size_leaf_vector":"1"}},{"base_weights":[-1.1752708E-3,-1.15819596E-1,1.7098427E-1,1.1421283E-1,-9.772347E-1,8.251774E-1,-1.3639599E-1,8.704658E-3,3.0758363E-1,1.04587294E-1,-5.378099E-1,-2.7729971E-2,3.2559037E-1,-5.044197E-1,9.945601E-3],"categories":[],"categories_nodes":[],"categories_segments":[],"categories_sizes":[],"default_left":[0,0,0,0,0,0,0,0,0,0,0,0,0,0,0],"id":45,"left_children":[1,3,5,7,9,11,13,-1,-1,-1,-1,-1,-1,-1,-1],"loss_changes":[1.49608E1,9.0271416E1,6.1041615E1,3.6163853E1,2.4793567E2,7.527809E1,9.204096E1,0E0,0E0,0E0,0E0,0E0,0E0,0E0,0E0],"parents":[2147483647,0,0,1,1,2,2,3,3,4,4,5,5,6,6],"right_children":[2,4,6,8,10,12,14,-1,-1,-1,-1,-1,-1,-1,-1],"split_conditions":[2.22E1,1.3E1,7.2E0,1.35E1,4.9E0,5.7E0,7.7E0,8.704658E-3,3.0758363E-1,1.04587294E-1,-5.378099E-1,-2.7729971E-2,3.2559037E-1,-5.044197E-1,9.945601E-3],"split_indices":[4,4,3,3,3,3,3,0,0,0,0,0,0,0,0],"split_type":[0,0,0,0,0,0,0,0,0,0,0,0,0,0,0],"sum_hessian":[7.56E2,4.54E2,3.02E2,3.59E2,9.5E1,9.6E1,2.06E2,3.43E2,1.6E1,5.1E1,4.4E1,4.4E1,5.2E1,1.4E1,1.92E2],"tree_param":{"num_deleted":"0","num_feature":"7","num_nodes":"15","size_leaf_vector":"1"}},{"base_weights":[-1.3544377E-3,-2.8124553E-1,6.5419175E-2,-1.1232387E0,1.1730374E-1,3.607978E0,3.0294346E-2,-5.6920905E-2,-1.1749552E0,6.333855E-1,-4.382176E-2,3.3232442E-1,1.000092E0,1.2494635E-2,-3.4377852E-1],"categories":[],"categories_nodes":[],"categories_segments":[],"categories_sizes":[],"default_left":[0,0,0,0,0,0,0,0,0,0,0,0,0,0,0],"id":46,"left_children":[1,3,5,7,9,11,13,-1,-1,-1,-1,-1,-1,-1,-1],"loss_changes":[1.4166229E1,4.9125824E1,7.604296E1,1.856137E2,1.0328707E2,7.9527206E0,3.4273464E1,0E0,0E0,0E0,0E0,0E0,0E0,0E0,0E0],"parents":[2147483647,0,0,1,1,2,2,3,3,4,4,5,5,6,6],"right_children":[2,4,6,8,10,12,14,-1,-1,-1,-1,-1,-1,-1,-1],"split_conditions":[1.0096E3,7.1E0,1.0097E3,6.7E0,8E0,3E-1,6E0,-5.6920905E-2,-1.1749552E0,6.333855E-1,-4.382176E-2,3.3232442E-1,1.000092E0,1.2494635E-2,-3.4377852E-1],"split_indices":[5,3,5,3,3,0,1,0,0,0,0,0,0,0,0],"split_type":[0,0,0,0,0,0,0,0,0,0,0,0,0,0,0],"sum_hessian":[7.56E2,1.45E2,6.11E2,4.6E1,9.9E1,5E0,6.06E2,4E1,6E0,9E0,9E1,3E0,2E0,5.96E2,1E1],"tree_param":{"num_deleted":"0","num_feature":"7","num_nodes":"15","size_leaf_vector":"1"}},{"base_weights":[-6.098085E-4,-1.9047791E-2,9.792808E-1,-9.121439E-4,-1.6874133E0,-2.249778E-1,1.1987388E0,3.585533E-2,-2.1961374E-2,-5.1313573E-1,4.4604427E-1,-1.1332512E-3,-6.636009E-2,8.389952E-2,3.8161275E-1],"categories":[],"categories_nodes":[],"categories_segments":[],"categories_sizes":[],"default_left":[0,0,0,0,0,0,0,0,0,0,0,0,0,0,0],"id":47,"left_children":[1,3,5,7,9,11,13,-1,-1,-1,-1,-1,-1,-1,-1],"loss_changes":[1.3695529E1,2.2509586E1,3.9696684E0,1.4480811E1,3.3247807E1,6.8402246E-2,5.8323956E0,0E0,0E0,0E0,0E0,0E0,0E0,0E0,0E0],"parents":[2147483647,0,0,1,1,2,2,3,3,4,4,5,5,6,6],"right_children":[2,4,6,8,10,12,14,-1,-1,-1,-1,-1,-1,-1,-1],"split_conditions":[1.78E1,1.58E1,4.4E0,1.0139E3,1.0138E3,3.1E1,1.0066E3,3.585533E-2,-2.1961374E-2,-5.1313573E-1,4.4604427E-1,-1.1332512E-3,-6.636009E-2,8.389952E-2,3.8161275E-1],"split_indices":[0,0,3,5,5,0,5,0,0,0,0,0,0,0,0],"split_type":[0,0,0,0,0,0,0,0,0,0,0,0,0,0,0],"sum_hessian":[7.56E2,7.43E2,1.3E1,7.36E2,7E0,2E0,1.1E1,2.77E2,4.59E2,6E0,1E0,1E0,1E0,6E0,5E0],"tree_param":{"num_deleted":"0","num_feature":"7","num_nodes":"15","size_leaf_vector":"1"}},{"base_weights":[-3.252579E-5,-7.631269E-2,2.5790924E-1,-3.9125763E-2,-4.3821707E0,3.824468E0,3.8863547E-2,-1.1853136E-2,5.7617474E-1,-1.5558155E0,9.509189E-2,1.1015333E0,-3.8777676E-1,-4.9357072E-1,2.6642442E-2],"categories":[],"categories_nodes":[],"categories_segments":[],"categories_sizes":[],"default_left":[0,0,0,0,0,0,0,0,0,0,0,0,0,0,0],"id":48,"left_children":[1,3,5,7,9,11,13,-1,-1,-1,-1,-1,-1,-1,-1],"loss_changes":[1.4914292E1,9.3499695E1,1.3500575E2,3.43385E1,8.620322E1,1.0768738E2,3.911564E1,0E0,0E0,0E0,0E0,0E0,0E0,0E0,0E0],"parents":[2147483647,0,0,1,1,2,2,3,3,4,4,5,5,6,6],"right_children":[2,4,6,8,10,12,14,-1,-1,-1,-1,-1,-1,-1,-1],"split_conditions":[1.0218E3,1.0217E3,1.0222E3,1.0216E3,4.6E0,1E0,1.0224E3,-1.1853136E-2,5.7617474E-1,-1.5558155E0,9.509189E-2,1.1015333E0,-3.8777676E-1,-4.9357072E-1,2.6642442E-2],"split_indices":[5,5,5,5,3,0,5,0,0,0,0,0,0,0,0],"split_type":[0,0,0,0,0,0,0,0,0,0,0,0,0,0,0],"sum_hessian":[7.56E2,5.84E2,1.72E2,5.8E2,4E0,9E0,1.63E2,5.77E2,3E0,2E0,2E0,7E0,2E0,5E0,1.58E2],"tree_param":{"num_deleted":"0","num_feature":"7","num_nodes":"15","size_leaf_vector":"1"}},{"base_weights":[-8.8438246E-4,-8.8551307E-1,1.6976068E-2,7.988869E-1,-1.8076017E0,6.28459E-1,-3.7661463E-2,4.2068306E-1,-7.584621E-2,-4.04877E-1,1.4344782E-2,4.2931598E-2,5.990917E-1,-1.8566678E-1,1.0867932E-2],"categories":[],"categories_nodes":[],"categories_segments":[],"categories_sizes":[],"default_left":[0,0,0,0,0,0,0,0,0,0,0,0,0,0,0],"id":49,"left_children":[1,3,5,7,9,11,13,-1,-1,-1,-1,-1,-1,-1,-1],"loss_changes":[1.1975531E1,2.4741562E1,2.4847237E1,1.001901E1,4.2192574E0,5.9104473E1,5.601742E1,0E0,0E0,0E0,0E0,0E0,0E0,0E0,0E0],"parents":[2147483647,0,0,1,1,2,2,3,3,4,4,5,5,6,6],"right_children":[2,4,6,8,10,12,14,-1,-1,-1,-1,-1,-1,-1,-1],"split_conditions":[1.7E0,1.3E0,3.4E0,1.0247E3,1E-1,3.3E0,4.2E0,4.2068306E-1,-7.584621E-2,-4.04877E-1,1.4344782E-2,4.2931598E-2,5.990917E-1,-1.8566678E-1,1.0867932E-2],"split_indices":[3,3,3,5,0,3,3,0,0,0,0,0,0,0,0],"split_type":[0,0,0,0,0,0,0,0,0,0,0,0,0,0,0],"sum_hessian":[7.56E2,1.4E1,7.42E2,5E0,9E0,6E1,6.82E2,2E0,3E0,8E0,1E0,5.2E1,8E0,6.3E1,6.19E2],"tree_param":{"num_deleted":"0","num_feature":"7","num_nodes":"15","size_leaf_vector":"1"}}]},"name":"gbtree"},"learner_model_param":{"base_score":"1.222328E1","boost_from_average":"1","num_class":"0","num_feature":"7","num_target":"1"},"objective":{"name":"reg:squarederror","reg_loss_param":{"scale_pos_weight":"1"}}},"version":[3,0,2]}